{"learner":{"attributes":{},"feature_names":[],"feature_types":[],"gradient_booster":{"model":{"gbtree_model_param":{"num_parallel_tree":"1","num_trees":"300"},"iteration_indptr":[0,3,6,9,12,15,18,21,24,27,30,33,36,39,42,45,48,51,54,57,60,63,66,69,72,75,78,81,84,87,90,93,96,99,102,105,108,111,114,117,120,123,126,129,132,135,138,141,144,147,150,153,156,159,162,165,168,171,174,177,180,183,186,189,192,195,198,201,204,207,210,213,216,219,222,225,228,231,234,237,240,243,246,249,252,255,258,261,264,267,270,273,276,279,282,285,288,291,294,297,300],"tree_info":[0,1,2,0,1,2,0,1,2,0,1,2,0,1,2,0,1,2,0,1,2,0,1,2,0,1,2,0,1,2,0,1,2,0,1,2,0,1,2,0,1,2,0,1,2,0,1,2,0,1,2,0,1,2,0,1,2,0,1,2,0,1,2,0,1,2,0,1,2,0,1,2,0,1,2,0,1,2,0,1,2,0,1,2,0,1,2,0,1,2,0,1,2,0,1,2,0,1,2,0,1,2,0,1,2,0,1,2,0,1,2,0,1,2,0,1,2,0,1,2,0,1,2,0,1,2,0,1,2,0,1,2,0,1,2,0,1,2,0,1,2,0,1,2,0,1,2,0,1,2,0,1,2,0,1,2,0,1,2,0,1,2,0,1,2,0,1,2,0,1,2,0,1,2,0,1,2,0,1,2,0,1,2,0,1,2,0,1,2,0,1,2,0,1,2,0,1,2,0,1,2,0,1,2,0,1,2,0,1,2,0,1,2,0,1,2,0,1,2,0,1,2,0,1,2,0,1,2,0,1,2,0,1,2,0,1,2,0,1,2,0,1,2,0,1,2,0,1,2,0,1,2,0,1,2,0,1,2,0,1,2,0,1,2,0,1,2,0,1,2,0,1,2,0,1,2,0,1,2,0,1,2,0,1,2,0,1,2,0,1,2,0,1,2,0,1,2,0,1,2],"trees":[{"base_weights":[-1.3017452E-1,-5.4067624E-1,1.3444608E0,-5.9509104E-1,3.8995564E-1,3.1088078E-1,1.402999E0,-2.3599753E-1,-6.521345E-1,-2.9670334E-1,8.3535105E-1,7.218045E-1,-5.217392E-1,7.0334923E-1,1.4475175E0,-3.719009E-2,5.8939056E-3,-5.1753562E-2,-7.143493E-2,-6.880735E-2,-3.4682124E-3,1.30434735E-2,1.2413793E-1,-3.7645043E-9,1.1294117E-1,-6.31579E-2,-2.5544848E-9,8.78453E-2,-3.2432437E-2,1.4622103E-1,-2.7272731E-2],"categories":[],"categories_nodes":[],"categories_segments":[],"categories_sizes":[],"default_left":[0,0,0,0,0,0,0,0,0,0,0,0,0,0,0,0,0,0,0,0,0,0,0,0,0,0,0,0,0,0,0],"id":0,"left_children":[1,3,5,7,9,11,13,15,17,19,21,23,25,27,29,-1,-1,-1,-1,-1,-1,-1,-1,-1,-1,-1,-1,-1,-1,-1,-1],"loss_changes":[1.045477E3,6.863568E1,2.2319946E1,2.5994965E1,2.3253422E1,7.713666E0,1.0059998E1,7.09877E0,8.850098E0,3.086737E0,1.2972214E1,4.3478107E0,4.393592E-1,4.46373E0,8.826599E0,0E0,0E0,0E0,0E0,0E0,0E0,0E0,0E0,0E0,0E0,0E0,0E0,0E0,0E0,0E0,0E0],"parents":[2147483647,0,0,1,1,2,2,3,3,4,4,5,5,6,6,7,7,8,8,9,9,10,10,11,11,12,12,13,13,14,14],"right_children":[2,4,6,8,10,12,14,16,18,20,22,24,26,28,30,-1,-1,-1,-1,-1,-1,-1,-1,-1,-1,-1,-1,-1,-1,-1,-1],"split_conditions":[5.994713E-1,4.5625013E-1,3.6192754E-1,2.8823808E-1,1.3757882E-1,7.382366E-1,9.116705E-1,1.1098398E0,2.6391166E-1,2.791376E-1,6.2739384E-1,6.8070954E-1,1.9490492E0,7.0452553E-1,8.46296E-1,-3.719009E-2,5.8939056E-3,-5.1753562E-2,-7.143493E-2,-6.880735E-2,-3.4682124E-3,1.30434735E-2,1.2413793E-1,-3.7645043E-9,1.1294117E-1,-6.31579E-2,-2.5544848E-9,8.78453E-2,-3.2432437E-2,1.4622103E-1,-2.7272731E-2],"split_indices":[14,31,2,26,22,19,25,24,4,17,21,14,8,14,9,0,0,0,0,0,0,0,0,0,0,0,0,0,0,0,0],"split_type":[0,0,0,0,0,0,0,0,0,0,0,0,0,0,0,0,0,0,0,0,0,0,0,0,0,0,0,0,0,0,0],"sum_hessian":[1.7248888E3,1.3497777E3,3.7511108E2,1.2755554E3,7.422222E1,2.0444443E1,3.5466666E2,1.7555554E2,1.0999999E3,2.9333332E1,4.4888885E1,1.3777777E1,6.666666E0,2.2222221E1,3.3244443E2,1.1999999E2,5.5555553E1,3.5066666E2,7.493333E2,1.1111111E1,1.8222221E1,1.6888887E1,2.7999998E1,5.333333E0,8.444444E0,5.333333E0,1.3333333E0,1.911111E1,3.111111E0,3.2977777E2,2.6666665E0],"tree_param":{"num_deleted":"0","num_feature":"32","num_nodes":"31","size_leaf_vector":"1"}},{"base_weights":[3.5653123E-1,6.53654E-1,-5.8424866E-1,1.1510979E0,-4.1522497E-1,1.3856809E-1,-6.7724395E-1,1.2422124E0,7.414372E-1,-5.4843616E-1,5.2008456E-1,3.1578943E-1,-6.666668E-2,-1.4946625E-1,-7.240699E-1,1.3598318E-1,7.803979E-2,1.8527312E-2,9.526462E-2,-5.884365E-2,1.0235294E-1,2.3659302E-2,1.0363636E-1,5.0902523E-2,-2.9032264E-2,-5.18919E-2,5.1428568E-2,-3.5294123E-2,-7.325228E-2],"categories":[],"categories_nodes":[],"categories_segments":[],"categories_sizes":[],"default_left":[0,0,0,0,0,0,0,0,0,0,0,0,0,0,0,0,0,0,0,0,0,0,0,0,0,0,0,0,0],"id":1,"left_children":[1,3,5,7,9,11,13,15,17,19,21,23,-1,25,27,-1,-1,-1,-1,-1,-1,-1,-1,-1,-1,-1,-1,-1,-1],"loss_changes":[4.8281458E2,6.98137E2,2.7974594E1,3.251062E1,5.2296173E1,7.076213E0,8.97818E0,3.865747E1,1.9257736E1,2.3609062E1,7.446871E0,4.8456964E0,0E0,7.9233403E0,8.0007935E-1,0E0,0E0,0E0,0E0,0E0,0E0,0E0,0E0,0E0,0E0,0E0,0E0,0E0,0E0],"parents":[2147483647,0,0,1,1,2,2,3,3,4,4,5,5,6,6,7,7,8,8,9,9,10,10,11,11,13,13,14,14],"right_children":[2,4,6,8,10,12,14,16,18,20,22,24,-1,26,28,-1,-1,-1,-1,-1,-1,-1,-1,-1,-1,-1,-1,-1,-1],"split_conditions":[7.348942E-1,1.4165237E0,4.1189012E-1,6.8508065E-1,2.2587577E-1,1.3246696E0,9.116705E-1,2.6754603E-1,2.1296257E-1,5.5127674E-1,8.038142E-1,2.4382784E0,-6.666668E-2,1.6119395E0,7.1282394E-2,1.3598318E-1,7.803979E-2,1.8527312E-2,9.526462E-2,-5.884365E-2,1.0235294E-1,2.3659302E-2,1.0363636E-1,5.0902523E-2,-2.9032264E-2,-5.18919E-2,5.1428568E-2,-3.5294123E-2,-7.325228E-2],"split_indices":[25,13,2,13,1,11,25,25,17,3,9,10,0,7,9,0,0,0,0,0,0,0,0,0,0,0,0,0,0],"split_type":[0,0,0,0,0,0,0,0,0,0,0,0,0,0,0,0,0,0,0,0,0,0,0,0,0,0,0,0,0],"sum_hessian":[1.7248888E3,1.3111111E3,4.1377774E2,8.946666E2,4.1644443E2,4.7111107E1,3.6666666E2,7.3022217E2,1.6444443E2,3.6488885E2,5.1555553E1,3.9111107E1,7.9999995E0,3.0222221E1,3.3644443E2,5.804444E2,1.4977777E2,4.5777775E1,1.1866666E2,3.5644443E2,8.444444E0,3.422222E1,1.7333332E1,2.9777777E1,9.333333E0,1.9555553E1,1.0666666E1,8.444444E0,3.2799997E2],"tree_param":{"num_deleted":"0","num_feature":"32","num_nodes":"29","size_leaf_vector":"1"}},{"base_weights":[-2.2635683E-1,-6.1604637E-1,9.7790056E-1,-3.2850063E-1,-6.979955E-1,1.1022171E0,-3.293769E-1,1.0563381E0,-4.493174E-1,-7.1851856E-1,-4.1232234E-1,1.1886619E0,-3.58209E-1,2.4812026E-1,-6.760564E-1,1.15736045E-1,-1.2000003E-2,-5.5200007E-2,2.8903652E-2,-7.243121E-2,-4.3523323E-2,-2.5751116E-3,-6.2347192E-2,-1.5789477E-2,1.2090937E-1,1.8461535E-2,-5.7931043E-2,-2.7522978E-3,1.0909092E-1,-2.5544848E-9,-7.1641795E-2],"categories":[],"categories_nodes":[],"categories_segments":[],"categories_sizes":[],"default_left":[0,0,0,0,0,0,0,0,0,0,0,0,0,0,0,0,0,0,0,0,0,0,0,0,0,0,0,0,0,0,0],"id":2,"left_children":[1,3,5,7,9,11,13,15,17,19,21,23,25,27,29,-1,-1,-1,-1,-1,-1,-1,-1,-1,-1,-1,-1,-1,-1,-1,-1],"loss_changes":[8.1053876E2,3.0511353E1,6.8999115E1,4.9199516E1,5.6506653E0,4.914279E1,7.6643615E0,2.9513474E0,2.0520393E1,1.2356873E0,5.7248583E0,1.0220764E1,2.7873788E0,3.4630363E0,6.4578533E-1,0E0,0E0,0E0,0E0,0E0,0E0,0E0,0E0,0E0,0E0,0E0,0E0,0E0,0E0,0E0,0E0],"parents":[2147483647,0,0,1,1,2,2,3,3,4,4,5,5,6,6,7,7,8,8,9,9,10,10,11,11,12,12,13,13,14,14],"right_children":[2,4,6,8,10,12,14,16,18,20,22,24,26,28,30,-1,-1,-1,-1,-1,-1,-1,-1,-1,-1,-1,-1,-1,-1,-1,-1],"split_conditions":[9.0266675E-1,2.1296257E-1,2.2587577E-1,6.997443E-1,9.4611275E-1,5.024452E-1,4.6214342E-1,5.550533E-1,5.0136566E-1,1.2634935E0,1.7517202E-2,1.127522E0,7.989289E-1,1.5455271E0,3.1784707E-1,1.15736045E-1,-1.2000003E-2,-5.5200007E-2,2.8903652E-2,-7.243121E-2,-4.3523323E-2,-2.5751116E-3,-6.2347192E-2,-1.5789477E-2,1.2090937E-1,1.8461535E-2,-5.7931043E-2,-2.7522978E-3,1.0909092E-1,-2.5544848E-9,-7.1641795E-2],"split_indices":[30,17,1,28,23,3,1,3,18,26,15,5,28,0,12,0,0,0,0,0,0,0,0,0,0,0,0,0,0,0,0],"split_type":[0,0,0,0,0,0,0,0,0,0,0,0,0,0,0,0,0,0,0,0,0,0,0,0,0,0,0,0,0,0,0],"sum_hessian":[1.7248888E3,1.3035554E3,4.213333E2,2.902222E2,1.01333325E3,3.8488885E2,3.6444443E1,2.2666666E1,2.6755554E2,9.4399994E2,6.933333E1,3.6355554E2,2.1333332E1,1.3777777E1,2.2666666E1,2.0888887E1,1.7777777E0,2.351111E2,3.2444443E1,9.235555E2,2.0444443E1,2.4888887E1,4.4444443E1,5.333333E0,3.582222E2,6.222222E0,1.5111111E1,1.1111111E1,2.6666665E0,1.3333333E0,2.1333332E1],"tree_param":{"num_deleted":"0","num_feature":"32","num_nodes":"31","size_leaf_vector":"1"}},{"base_weights":[-1.2150335E-1,-5.611837E-1,1.03999E0,-1.8273625E-1,-6.246215E-1,-1.8726848E-1,1.1601224E0,-2.2891971E-1,6.27468E-1,-6.51829E-1,-3.0316246E-1,5.759972E-1,-4.183114E-1,5.8168775E-1,1.2324976E0,-4.7746126E-2,-4.0586432E-3,9.847631E-2,-2.6289413E-2,-5.059848E-2,-6.941461E-2,1.0113907E-2,-5.0926276E-2,1.0107665E-2,1.1492707E-1,-6.0554888E-2,6.299385E-2,9.4423376E-2,4.549527E-3,4.5181166E-2,1.2616745E-1],"categories":[],"categories_nodes":[],"categories_segments":[],"categories_sizes":[],"default_left":[0,0,0,0,0,0,0,0,0,0,0,0,0,0,0,0,0,0,0,0,0,0,0,0,0,0,0,0,0,0,0],"id":3,"left_children":[1,3,5,7,9,11,13,15,17,19,21,23,25,27,29,-1,-1,-1,-1,-1,-1,-1,-1,-1,-1,-1,-1,-1,-1,-1,-1],"loss_changes":[8.7279E2,2.9645325E1,6.941382E1,6.855259E0,9.083771E0,7.7722244E0,1.718573E1,7.9581327E0,3.4211273E0,5.6817627E0,7.1074643E0,2.7001853E0,6.9296227E0,9.569857E0,8.066895E0,0E0,0E0,0E0,0E0,0E0,0E0,0E0,0E0,0E0,0E0,0E0,0E0,0E0,0E0,0E0,0E0],"parents":[2147483647,0,0,1,1,2,2,3,3,4,4,5,5,6,6,7,7,8,8,9,9,10,10,11,11,12,12,13,13,14,14],"right_children":[2,4,6,8,10,12,14,16,18,20,22,24,26,28,30,-1,-1,-1,-1,-1,-1,-1,-1,-1,-1,-1,-1,-1,-1,-1,-1],"split_conditions":[6.2839514E-1,2.8823808E-1,1.3054559E-1,3.8851994E-1,3.2501048E-1,1.7349837E0,8.010838E-1,6.811179E-1,5.305797E-1,4.8895317E-1,1.0808388E0,4.9054736E-1,9.800414E-1,5.779819E-1,2.9026026E-1,-4.7746126E-2,-4.0586432E-3,9.847631E-2,-2.6289413E-2,-5.059848E-2,-6.941461E-2,1.0113907E-2,-5.0926276E-2,1.0107665E-2,1.1492707E-1,-6.0554888E-2,6.299385E-2,9.4423376E-2,4.549527E-3,4.5181166E-2,1.2616745E-1],"split_indices":[25,26,2,31,14,10,11,24,20,26,7,17,31,20,17,0,0,0,0,0,0,0,0,0,0,0,0,0,0,0,0],"split_type":[0,0,0,0,0,0,0,0,0,0,0,0,0,0,0,0,0,0,0,0,0,0,0,0,0,0,0,0,0,0,0],"sum_hessian":[1.7069119E3,1.2385709E3,4.68341E2,1.7836852E2,1.0602024E3,4.1707127E1,4.2663388E2,1.6942818E2,8.940334E0,9.765241E2,8.367825E1,9.344365E0,3.2362762E1,4.845006E1,3.781838E2,7.237734E1,9.705084E1,6.304403E0,2.6359313E0,2.2253206E2,7.5399207E2,2.8425661E1,5.5252594E1,5.7539225E0,3.5904427E0,2.7816523E1,4.5462384E0,2.8451569E1,1.9998493E1,1.4218661E1,3.6396515E2],"tree_param":{"num_deleted":"0","num_feature":"32","num_nodes":"31","size_leaf_vector":"1"}},{"base_weights":[3.24983E-1,5.6931245E-1,-6.262085E-1,9.664963E-1,-3.9214876E-1,3.353336E-1,-6.753107E-1,1.0472385E0,1.1899487E-1,-5.214117E-1,4.6506974E-1,8.9193153E-1,-1.2386355E-1,-2.8327662E-1,-6.9384086E-1,1.170542E-1,7.277463E-2,-1.0199039E-2,5.003918E-2,-5.7242204E-2,6.0128655E-2,6.333777E-3,7.55867E-2,-1.358579E-2,1.19937114E-1,5.408908E-2,-4.1019417E-2,7.264282E-3,-6.380024E-2,-4.756559E-2,-7.1389936E-2],"categories":[],"categories_nodes":[],"categories_segments":[],"categories_sizes":[],"default_left":[0,0,0,0,0,0,0,0,0,0,0,0,0,0,0,0,0,0,0,0,0,0,0,0,0,0,0,0,0,0,0],"id":4,"left_children":[1,3,5,7,9,11,13,15,17,19,21,23,25,27,29,-1,-1,-1,-1,-1,-1,-1,-1,-1,-1,-1,-1,-1,-1,-1,-1],"loss_changes":[4.0675732E2,5.3188525E2,1.7122177E1,6.7293884E1,4.5406754E1,4.7250266E0,2.27919E0,3.4579773E1,7.3691144E0,2.0655159E1,6.253248E0,2.780438E0,2.2720115E0,2.2016902E0,1.0816193E0,0E0,0E0,0E0,0E0,0E0,0E0,0E0,0E0,0E0,0E0,0E0,0E0,0E0,0E0,0E0,0E0],"parents":[2147483647,0,0,1,1,2,2,3,3,4,4,5,5,6,6,7,7,8,8,9,9,10,10,11,11,12,12,13,13,14,14],"right_children":[2,4,6,8,10,12,14,16,18,20,22,24,26,28,30,-1,-1,-1,-1,-1,-1,-1,-1,-1,-1,-1,-1,-1,-1,-1,-1],"split_conditions":[8.161185E-1,1.4165237E0,8.625668E-2,6.0328174E-1,2.2587577E-1,8.9512295E-1,3.005829E-1,1.675475E-1,5.779819E-1,4.3849903E-1,2.1727675E-1,4.5719936E-1,7.622047E-2,1.3473729E0,1.0501773E0,1.170542E-1,7.277463E-2,-1.0199039E-2,5.003918E-2,-5.7242204E-2,6.0128655E-2,6.333777E-3,7.55867E-2,-1.358579E-2,1.19937114E-1,5.408908E-2,-4.1019417E-2,7.264282E-3,-6.380024E-2,-4.756559E-2,-7.1389936E-2],"split_indices":[11,13,2,25,1,16,17,30,20,3,26,19,17,11,25,0,0,0,0,0,0,0,0,0,0,0,0,0,0,0,0],"split_type":[0,0,0,0,0,0,0,0,0,0,0,0,0,0,0,0,0,0,0,0,0,0,0,0,0,0,0,0,0,0,0],"sum_hessian":[1.7476818E3,1.3908263E3,3.5685556E2,9.842309E2,4.0659537E2,1.7054623E1,3.3980093E2,8.9840356E2,8.582737E1,3.536578E2,5.293756E1,7.2836537E0,9.770969E0,1.6071516E1,3.237294E2,6.4630676E2,2.5209677E2,5.480524E1,3.102213E1,3.3875638E2,1.490141E1,2.274017E1,3.019739E1,1.8055817E0,5.478072E0,2.6739643E0,7.0970054E0,8.4192E0,7.6523156E0,2.9336544E1,2.9439285E2],"tree_param":{"num_deleted":"0","num_feature":"32","num_nodes":"31","size_leaf_vector":"1"}},{"base_weights":[-2.1220475E-1,-6.0759085E-1,8.1691283E-1,-3.5110974E-1,-6.806904E-1,9.1658735E-1,-6.418979E-1,9.705263E-1,-4.4942448E-1,-6.938391E-1,-4.8613873E-1,1.0090283E0,-1.1405737E-1,-6.717865E-1,2.0423883E-3,1.0858648E-1,-1.1351068E-2,-5.5619944E-2,2.701518E-2,-6.969732E-2,-1.7037192E-2,-5.28648E-2,8.652449E-2,1.0796827E-1,4.8685696E-2,2.0878185E-2,-5.6510698E-2,7.068236E-4,-7.038905E-2],"categories":[],"categories_nodes":[],"categories_segments":[],"categories_sizes":[],"default_left":[0,0,0,0,0,0,0,0,0,0,0,0,0,0,0,0,0,0,0,0,0,0,0,0,0,0,0,0,0],"id":5,"left_children":[1,3,5,7,9,11,13,15,17,19,21,23,25,27,-1,-1,-1,-1,-1,-1,-1,-1,-1,-1,-1,-1,-1,-1,-1],"loss_changes":[6.922755E2,2.279953E1,6.926581E1,3.611803E1,2.1062317E0,4.2275543E1,6.2334347E-1,2.5401115E0,1.9840973E1,1.3453369E0,4.1230984E0,1.446048E1,5.5526958E0,6.4779377E-1,0E0,0E0,0E0,0E0,0E0,0E0,0E0,0E0,0E0,0E0,0E0,0E0,0E0,0E0,0E0],"parents":[2147483647,0,0,1,1,2,2,3,3,4,4,5,5,6,6,7,7,8,8,9,9,10,10,11,11,12,12,13,13],"right_children":[2,4,6,8,10,12,14,16,18,20,22,24,26,28,-1,-1,-1,-1,-1,-1,-1,-1,-1,-1,-1,-1,-1,-1,-1],"split_conditions":[7.9732615E-1,2.1296257E-1,4.6214342E-1,6.8648577E-1,8.968788E-1,4.3849903E-1,2.0837301E-1,5.095319E-1,5.0136566E-1,1.2576709E0,1.6469256E0,2.5388962E-1,1.1591427E0,2.4441883E-1,2.0423883E-3,1.0858648E-1,-1.1351068E-2,-5.5619944E-2,2.701518E-2,-6.969732E-2,-1.7037192E-2,-5.28648E-2,8.652449E-2,1.0796827E-1,4.8685696E-2,2.0878185E-2,-5.6510698E-2,7.068236E-4,-7.038905E-2],"split_indices":[30,17,1,28,23,3,4,3,18,4,5,7,10,12,0,0,0,0,0,0,0,0,0,0,0,0,0,0,0],"split_type":[0,0,0,0,0,0,0,0,0,0,0,0,0,0,0,0,0,0,0,0,0,0,0,0,0,0,0,0,0],"sum_hessian":[1.6991257E3,1.2278114E3,4.7131442E2,2.7361035E2,9.54201E2,4.4151895E2,2.9795485E1,1.8330011E1,2.5528033E2,8.913903E2,6.2810665E1,4.0519687E2,3.6322083E1,2.8495287E1,1.3001969E0,1.6565773E1,1.7642384E0,2.2249263E2,3.278771E1,8.857556E2,5.6347027E0,6.1485382E1,1.3252804E0,3.5596405E2,4.9232803E1,2.148284E1,1.4839243E1,1.3219442E0,2.7173344E1],"tree_param":{"num_deleted":"0","num_feature":"32","num_nodes":"29","size_leaf_vector":"1"}},{"base_weights":[-1.1401008E-1,-5.360169E-1,9.297057E-1,-1.6395883E-1,-5.9977746E-1,-2.0496221E-1,1.0312243E0,-4.6117086E-2,-4.7549668E-1,-6.273547E-1,-2.7961332E-1,-6.7589715E-2,1.7126185E-1,5.2007127E-1,1.0957599E0,6.782437E-3,-4.7750082E-2,-5.512288E-2,8.079553E-2,-6.393921E-2,-1.2664239E-2,1.1016674E-2,-4.8356146E-2,-6.0735554E-2,4.040824E-2,8.617904E-2,1.4154568E-3,1.1090986E-1,-9.54619E-3],"categories":[],"categories_nodes":[],"categories_segments":[],"categories_sizes":[],"default_left":[0,0,0,0,0,0,0,0,0,0,0,0,0,0,0,0,0,0,0,0,0,0,0,0,0,0,0,0,0],"id":6,"left_children":[1,3,5,7,9,11,13,15,17,19,21,-1,23,25,27,-1,-1,-1,-1,-1,-1,-1,-1,-1,-1,-1,-1,-1,-1],"loss_changes":[7.401238E2,2.8283081E1,5.5945404E1,6.4544015E0,8.83905E0,7.303597E0,1.4085724E1,6.3780236E0,5.1407585E0,5.5798645E0,6.6331863E0,0E0,4.4782557E0,8.927059E0,6.359375E0,0E0,0E0,0E0,0E0,0E0,0E0,0E0,0E0,0E0,0E0,0E0,0E0,0E0,0E0],"parents":[2147483647,0,0,1,1,2,2,3,3,4,4,5,5,6,6,7,7,8,8,9,9,10,10,12,12,13,13,14,14],"right_children":[2,4,6,8,10,12,14,16,18,20,22,-1,24,26,28,-1,-1,-1,-1,-1,-1,-1,-1,-1,-1,-1,-1,-1,-1],"split_conditions":[6.2839514E-1,2.8823808E-1,9.8786436E-2,1.9358839E-1,3.2501048E-1,1.7274421E-1,8.010838E-1,1.1743324E0,2.9565728E-1,1.4433428E0,1.0808388E0,-6.7589715E-2,5.433062E-1,5.779819E-1,8.46296E-1,6.782437E-3,-4.7750082E-2,-5.512288E-2,8.079553E-2,-6.393921E-2,-1.2664239E-2,1.1016674E-2,-4.8356146E-2,-6.0735554E-2,4.040824E-2,8.617904E-2,1.4154568E-3,1.1090986E-1,-9.54619E-3],"split_indices":[25,26,2,4,14,17,11,17,19,24,7,0,23,20,9,0,0,0,0,0,0,0,0,0,0,0,0,0,0],"split_type":[0,0,0,0,0,0,0,0,0,0,0,0,0,0,0,0,0,0,0,0,0,0,0,0,0,0,0,0,0],"sum_hessian":[1.6782299E3,1.195385E3,4.828449E2,1.7540828E2,1.01997675E3,3.95687E1,4.432762E2,1.2810104E2,4.730724E1,9.382052E2,8.177151E1,1.7218756E1,2.2349943E1,5.0707462E1,3.9256876E2,1.0200201E2,2.6099031E1,4.521006E1,2.0971785E0,9.1590936E2,2.229583E1,2.824681E1,5.35247E1,4.7743816E0,1.7575562E1,2.984522E1,2.0862244E1,3.8828986E2,4.2789154E0],"tree_param":{"num_deleted":"0","num_feature":"32","num_nodes":"29","size_leaf_vector":"1"}},{"base_weights":[2.9859224E-1,5.191776E-1,-5.9254587E-1,8.679699E-1,-3.7077117E-1,-1.3032221E-2,-6.356151E-1,9.3359846E-1,1.20873444E-1,-4.9643695E-1,4.1946644E-1,-4.329256E-1,3.4293365E-1,-1.9490449E-1,-6.799944E-1,1.0416813E-1,6.5132864E-2,-1.4387075E-4,8.3154134E-2,-5.355547E-2,8.528987E-2,1.716382E-2,8.607335E-2,-5.6935627E-2,2.1404823E-2,8.705937E-3,1.0305126E-1,7.49017E-3,-6.461452E-2,-6.83283E-2,-5.7921275E-3],"categories":[],"categories_nodes":[],"categories_segments":[],"categories_sizes":[],"default_left":[0,0,0,0,0,0,0,0,0,0,0,0,0,0,0,0,0,0,0,0,0,0,0,0,0,0,0,0,0,0,0],"id":7,"left_children":[1,3,5,7,9,11,13,15,17,19,21,23,25,27,29,-1,-1,-1,-1,-1,-1,-1,-1,-1,-1,-1,-1,-1,-1,-1,-1],"loss_changes":[3.452484E2,4.3710648E2,8.693642E0,4.9468506E1,3.9623447E1,3.906036E0,6.2142944E0,2.7676819E1,7.1990213E0,1.8556488E1,5.866911E0,1.1789689E0,2.4021292E0,3.833508E0,5.627289E-1,0E0,0E0,0E0,0E0,0E0,0E0,0E0,0E0,0E0,0E0,0E0,0E0,0E0,0E0,0E0,0E0],"parents":[2147483647,0,0,1,1,2,2,3,3,4,4,5,5,6,6,7,7,8,8,9,9,10,10,11,11,12,12,13,13,14,14],"right_children":[2,4,6,8,10,12,14,16,18,20,22,24,26,28,30,-1,-1,-1,-1,-1,-1,-1,-1,-1,-1,-1,-1,-1,-1,-1,-1],"split_conditions":[5.994713E-1,1.4165237E0,9.116705E-1,6.0328174E-1,2.2587577E-1,8.134789E-1,2.83864E-1,1.675475E-1,6.8889827E-1,5.5127674E-1,8.038142E-1,7.1755886E-1,6.946647E-1,1.3473729E0,1.4058667E-1,1.0416813E-1,6.5132864E-2,-1.4387075E-4,8.3154134E-2,-5.355547E-2,8.528987E-2,1.716382E-2,8.607335E-2,-5.6935627E-2,2.1404823E-2,8.705937E-3,1.0305126E-1,7.49017E-3,-6.461452E-2,-6.83283E-2,-5.7921275E-3],"split_indices":[14,13,25,25,1,16,6,30,9,3,9,3,14,11,24,0,0,0,0,0,0,0,0,0,0,0,0,0,0,0,0],"split_type":[0,0,0,0,0,0,0,0,0,0,0,0,0,0,0,0,0,0,0,0,0,0,0,0,0,0,0,0,0,0,0],"sum_hessian":[1.7537804E3,1.4061342E3,3.4764612E2,1.0102268E3,3.9590738E2,2.4139683E1,3.2350644E2,9.284202E2,8.18066E1,3.4190802E2,5.3999367E1,1.0976145E1,1.3163537E1,3.0089832E1,2.9341663E2,6.694091E2,2.5901108E2,7.064582E1,1.1160788E1,3.3286133E2,9.046677E0,3.546831E1,1.8531055E1,9.163715E0,1.812429E0,1.0414516E1,2.7490206E0,1.935255E1,1.0737283E1,2.9177576E2,1.6408501E0],"tree_param":{"num_deleted":"0","num_feature":"32","num_nodes":"31","size_leaf_vector":"1"}},{"base_weights":[-1.9962153E-1,-5.828262E-1,7.357254E-1,-3.200669E-1,-6.5423054E-1,8.233893E-1,-6.2323344E-1,9.006082E-1,-4.1821915E-1,-6.683667E-1,-4.2916718E-1,9.0344924E-1,-1.055092E-1,3.6781803E-3,-6.5380573E-1,1.0068643E-1,-1.0499685E-2,-5.136493E-2,5.1879443E-2,-6.90507E-2,-5.870222E-2,-3.4896228E-3,-5.9687104E-2,9.654119E-2,4.387144E-2,4.000279E-2,-3.8138952E-2,7.229809E-4,-6.860281E-2],"categories":[],"categories_nodes":[],"categories_segments":[],"categories_sizes":[],"default_left":[0,0,0,0,0,0,0,0,0,0,0,0,0,0,0,0,0,0,0,0,0,0,0,0,0,0,0,0,0],"id":8,"left_children":[1,3,5,7,9,11,13,15,17,19,21,23,25,-1,27,-1,-1,-1,-1,-1,-1,-1,-1,-1,-1,-1,-1,-1,-1],"loss_changes":[5.9747375E2,2.1970856E1,5.82377E1,3.087685E1,2.667572E0,3.397809E1,6.2802315E-1,2.1639996E0,2.1396633E1,1.1650085E0,3.7925596E0,1.1658295E1,5.319544E0,0E0,6.1542606E-1,0E0,0E0,0E0,0E0,0E0,0E0,0E0,0E0,0E0,0E0,0E0,0E0,0E0,0E0],"parents":[2147483647,0,0,1,1,2,2,3,3,4,4,5,5,6,6,7,7,8,8,9,9,10,10,11,11,12,12,14,14],"right_children":[2,4,6,8,10,12,14,16,18,20,22,24,26,-1,28,-1,-1,-1,-1,-1,-1,-1,-1,-1,-1,-1,-1,-1,-1],"split_conditions":[7.9732615E-1,1.9067451E-1,4.6214342E-1,6.8648577E-1,9.4611275E-1,4.3849903E-1,5.018491E-1,5.095319E-1,7.433417E-1,4.61479E-1,6.3542926E-1,2.5388962E-1,6.5215135E-1,3.6781803E-3,2.4441883E-1,1.0068643E-1,-1.0499685E-2,-5.136493E-2,5.1879443E-2,-6.90507E-2,-5.870222E-2,-3.4896228E-3,-5.9687104E-2,9.654119E-2,4.387144E-2,4.000279E-2,-3.8138952E-2,7.229809E-4,-6.860281E-2],"split_indices":[30,17,1,28,23,3,24,3,27,4,4,7,4,0,12,0,0,0,0,0,0,0,0,0,0,0,0,0,0],"split_type":[0,0,0,0,0,0,0,0,0,0,0,0,0,0,0,0,0,0,0,0,0,0,0,0,0,0,0,0,0],"sum_hessian":[1.6647256E3,1.1811813E3,4.8354428E2,2.5356715E2,9.2761414E2,4.546122E2,2.8932083E1,1.8262989E1,2.3530417E2,8.7094104E2,5.6673096E1,4.1856436E2,3.6047836E1,1.2718319E0,2.7660252E1,1.6516537E1,1.7464528E0,2.1396475E2,2.1339409E1,6.7871875E2,1.922223E2,1.7272831E1,3.940027E1,3.6837234E2,5.019203E1,1.2567856E1,2.3479982E1,1.321687E0,2.6338564E1],"tree_param":{"num_deleted":"0","num_feature":"32","num_nodes":"29","size_leaf_vector":"1"}},{"base_weights":[-1.0753998E-1,-5.1249135E-1,8.4218365E-1,-1.4534408E-1,-5.769616E-1,9.405122E-1,-1.4177339E-1,-1.9137323E-1,6.3439786E-1,-6.05063E-1,-2.5700188E-1,5.1053524E-1,1.001016E0,-4.444719E-1,9.9126644E-2,-4.332444E-2,-1.4722783E-3,9.62559E-2,-2.302701E-2,-4.5413908E-2,-6.496052E-2,2.7611088E-3,-5.380837E-2,8.028107E-2,6.0046994E-4,1.013692E-1,-1.09238885E-2,-5.2892495E-2,3.2107044E-2],"categories":[],"categories_nodes":[],"categories_segments":[],"categories_sizes":[],"default_left":[0,0,0,0,0,0,0,0,0,0,0,0,0,0,0,0,0,0,0,0,0,0,0,0,0,0,0,0,0],"id":9,"left_children":[1,3,5,7,9,11,13,15,17,19,21,23,25,27,-1,-1,-1,-1,-1,-1,-1,-1,-1,-1,-1,-1,-1,-1,-1],"loss_changes":[6.319332E2,2.7178925E1,4.7659454E1,6.3440723E0,8.650665E0,1.1110596E1,1.6044918E1,7.0213637E0,3.0296292E0,5.752472E0,6.4798408E0,8.422179E0,5.6075134E0,2.5358272E0,0E0,0E0,0E0,0E0,0E0,0E0,0E0,0E0,0E0,0E0,0E0,0E0,0E0,0E0,0E0],"parents":[2147483647,0,0,1,1,2,2,3,3,4,4,5,5,6,6,7,7,8,8,9,9,10,10,11,11,12,12,13,13],"right_children":[2,4,6,8,10,12,14,16,18,20,22,24,26,28,-1,-1,-1,-1,-1,-1,-1,-1,-1,-1,-1,-1,-1,-1,-1],"split_conditions":[6.2839514E-1,2.8823808E-1,1.7349837E0,3.8851994E-1,3.2501048E-1,8.010838E-1,1.0948328E0,6.811179E-1,5.305797E-1,4.8895317E-1,6.937497E-1,5.779819E-1,8.46296E-1,1.1960129E0,9.9126644E-2,-4.332444E-2,-1.4722783E-3,9.62559E-2,-2.302701E-2,-4.5413908E-2,-6.496052E-2,2.7611088E-3,-5.380837E-2,8.028107E-2,6.0046994E-4,1.013692E-1,-1.09238885E-2,-5.2892495E-2,3.2107044E-2],"split_indices":[25,26,10,31,14,11,31,24,20,26,9,20,9,21,0,0,0,0,0,0,0,0,0,0,0,0,0,0,0],"split_type":[0,0,0,0,0,0,0,0,0,0,0,0,0,0,0,0,0,0,0,0,0,0,0,0,0,0,0,0,0],"sum_hessian":[1.6410044E3,1.1507837E3,4.902207E2,1.7237741E2,9.784063E2,4.45723E2,4.4497715E1,1.6348146E2,8.895951E0,8.9859357E2,7.981276E1,5.6146965E1,3.8957602E2,3.5595795E1,8.901917E0,6.838949E1,9.509197E1,6.366505E0,2.529446E0,2.0731967E2,6.9127386E2,4.0105347E1,3.9707413E1,3.5177418E1,2.0969545E1,3.8526437E2,4.3116417E0,3.233748E1,3.2583194E0],"tree_param":{"num_deleted":"0","num_feature":"32","num_nodes":"29","size_leaf_vector":"1"}},{"base_weights":[2.763752E-1,4.7376013E-1,-5.779073E-1,7.693821E-1,-3.863732E-1,3.088151E-1,-6.280379E-1,8.2969034E-1,1.1423705E-1,-5.3500694E-1,1.794519E-1,8.0990237E-1,-1.1868362E-1,-2.3655711E-1,-6.474136E-1,9.415584E-2,5.60853E-2,-7.620645E-3,4.2375226E-2,-5.8744814E-2,3.6390707E-2,-6.210431E-4,5.8082946E-2,-1.2909134E-2,1.07882336E-1,5.1470198E-2,-3.9854176E-2,9.785711E-3,-5.9455354E-2,-4.2679574E-2,-6.683919E-2],"categories":[],"categories_nodes":[],"categories_segments":[],"categories_sizes":[],"default_left":[0,0,0,0,0,0,0,0,0,0,0,0,0,0,0,0,0,0,0,0,0,0,0,0,0,0,0,0,0,0,0],"id":10,"left_children":[1,3,5,7,9,11,13,15,17,19,21,23,25,27,29,-1,-1,-1,-1,-1,-1,-1,-1,-1,-1,-1,-1,-1,-1,-1,-1],"loss_changes":[2.9480353E2,3.6121426E2,1.4786667E1,4.1655212E1,3.0685394E1,4.0026474E0,2.206192E0,2.856726E1,5.3509703E0,1.3804604E1,5.6982317E0,2.291573E0,2.1041076E0,2.0029469E0,1.0837479E0,0E0,0E0,0E0,0E0,0E0,0E0,0E0,0E0,0E0,0E0,0E0,0E0,0E0,0E0,0E0,0E0],"parents":[2147483647,0,0,1,1,2,2,3,3,4,4,5,5,6,6,7,7,8,8,9,9,10,10,11,11,12,12,13,13,14,14],"right_children":[2,4,6,8,10,12,14,16,18,20,22,24,26,28,30,-1,-1,-1,-1,-1,-1,-1,-1,-1,-1,-1,-1,-1,-1,-1,-1],"split_conditions":[8.161185E-1,1.5320846E0,8.625668E-2,5.9623015E-1,2.5388962E-1,8.9512295E-1,3.005829E-1,1.675475E-1,5.779819E-1,3.5938272E-1,8.038142E-1,4.5719936E-1,7.622047E-2,1.3473729E0,1.0501773E0,9.415584E-2,5.60853E-2,-7.620645E-3,4.2375226E-2,-5.8744814E-2,3.6390707E-2,-6.210431E-4,5.8082946E-2,-1.2909134E-2,1.07882336E-1,5.1470198E-2,-3.9854176E-2,9.785711E-3,-5.9455354E-2,-4.2679574E-2,-6.683919E-2],"split_indices":[11,13,2,25,7,16,17,30,20,3,9,19,17,11,25,0,0,0,0,0,0,0,0,0,0,0,0,0,0,0,0],"split_type":[0,0,0,0,0,0,0,0,0,0,0,0,0,0,0,0,0,0,0,0,0,0,0,0,0,0,0,0,0,0,0],"sum_hessian":[1.7456812E3,1.4184003E3,3.2728085E2,1.0556769E3,3.6272345E2,1.723654E1,3.100443E2,9.6644586E2,8.923096E1,2.8730676E2,7.541668E1,7.523477E0,9.713063E0,1.5244406E1,2.947999E2,6.8069434E2,2.8575153E2,5.5707893E1,3.3523064E1,2.7179703E2,1.5509712E1,5.22379E1,2.3178782E1,1.790731E0,5.732746E0,2.7193573E0,6.993706E0,8.257502E0,6.986904E0,2.7451431E1,2.6734845E2],"tree_param":{"num_deleted":"0","num_feature":"32","num_nodes":"31","size_leaf_vector":"1"}},{"base_weights":[-1.8848754E-1,-5.6140834E-1,6.6521865E-1,-3.1272638E-1,-6.3469595E-1,7.45122E-1,-6.0691786E-1,8.548507E-1,-4.0609232E-1,-6.4807004E-1,-4.4320807E-1,8.15701E-1,-9.956226E-2,-6.3752925E-1,5.311175E-3,9.519154E-2,-9.395986E-3,-5.3518392E-2,1.4168796E-2,-6.545656E-2,-3.4932688E-2,-4.8694257E-2,8.38285E-2,8.7320246E-2,3.8505424E-2,2.3007289E-2,-4.9747515E-2,1.0495012E-3,-6.692752E-2],"categories":[],"categories_nodes":[],"categories_segments":[],"categories_sizes":[],"default_left":[0,0,0,0,0,0,0,0,0,0,0,0,0,0,0,0,0,0,0,0,0,0,0,0,0,0,0,0,0],"id":11,"left_children":[1,3,5,7,9,11,13,15,17,19,21,23,25,27,-1,-1,-1,-1,-1,-1,-1,-1,-1,-1,-1,-1,-1,-1,-1],"loss_changes":[5.1748987E2,2.041452E1,5.0694397E1,2.8626516E1,1.9474487E0,2.783377E1,6.3518524E-1,1.8881083E0,1.710973E1,1.349884E0,3.7781792E0,1.0304962E1,4.939866E0,5.937376E-1,0E0,0E0,0E0,0E0,0E0,0E0,0E0,0E0,0E0,0E0,0E0,0E0,0E0,0E0,0E0],"parents":[2147483647,0,0,1,1,2,2,3,3,4,4,5,5,6,6,7,7,8,8,9,9,10,10,11,11,12,12,13,13],"right_children":[2,4,6,8,10,12,14,16,18,20,22,24,26,28,-1,-1,-1,-1,-1,-1,-1,-1,-1,-1,-1,-1,-1,-1,-1],"split_conditions":[7.862925E-1,2.1296257E-1,4.6214342E-1,6.8648577E-1,8.968788E-1,4.3849903E-1,1.0762291E0,5.095319E-1,2.583733E-1,1.2634935E0,1.6469256E0,2.5388962E-1,9.317317E-1,2.4441883E-1,5.311175E-3,9.519154E-2,-9.395986E-3,-5.3518392E-2,1.4168796E-2,-6.545656E-2,-3.4932688E-2,-4.8694257E-2,8.38285E-2,8.7320246E-2,3.8505424E-2,2.3007289E-2,-4.9747515E-2,1.0495012E-3,-6.692752E-2],"split_indices":[30,17,1,28,23,3,9,3,11,26,5,7,28,12,0,0,0,0,0,0,0,0,0,0,0,0,0,0,0],"split_type":[0,0,0,0,0,0,0,0,0,0,0,0,0,0,0,0,0,0,0,0,0,0,0,0,0,0,0,0,0],"sum_hessian":[1.6232886E3,1.1300125E3,4.932761E2,2.5841537E2,8.7159705E2,4.6451407E2,2.8762022E1,1.8530342E1,2.3988504E2,8.124676E2,5.912948E1,4.2872552E2,3.578856E1,2.7519775E1,1.242245E0,1.6807625E1,1.7227174E0,1.9415327E2,4.5731773E1,7.940122E2,1.8455381E1,5.7777676E1,1.3518033E0,3.773172E2,5.1408325E1,1.9804285E1,1.5984273E1,1.3164654E0,2.620331E1],"tree_param":{"num_deleted":"0","num_feature":"32","num_nodes":"29","size_leaf_vector":"1"}},{"base_weights":[-1.0183328E-1,-4.937141E-1,7.650136E-1,-1.2777619E-1,-5.6009215E-1,8.5803527E-1,-1.610848E-1,-1.7298543E-1,6.184453E-1,-4.3407512E-1,-6.2460625E-1,3.8592008E-1,9.0866786E-1,-5.202238E-1,6.956148E-1,-4.096234E-2,-4.535224E-4,9.2076026E-2,-2.1233518E-2,-4.6556775E-2,3.239673E-2,-6.304852E-2,1.771736E-2,4.7660496E-2,-6.1559357E-2,1.0950514E-2,9.1865964E-2,-5.946033E-2,1.639524E-2,-4.7445767E-2,9.001435E-2],"categories":[],"categories_nodes":[],"categories_segments":[],"categories_sizes":[],"default_left":[0,0,0,0,0,0,0,0,0,0,0,0,0,0,0,0,0,0,0,0,0,0,0,0,0,0,0,0,0,0,0],"id":12,"left_children":[1,3,5,7,9,11,13,15,17,19,21,23,25,27,29,-1,-1,-1,-1,-1,-1,-1,-1,-1,-1,-1,-1,-1,-1,-1,-1],"loss_changes":[5.431278E2,2.6669952E1,4.302359E1,5.853281E0,7.3025208E0,1.0466888E1,1.4601271E1,6.4311204E0,2.6941373E0,7.759403E0,3.005249E0,4.432163E0,3.1570435E0,1.786089E0,3.8010287E0,0E0,0E0,0E0,0E0,0E0,0E0,0E0,0E0,0E0,0E0,0E0,0E0,0E0,0E0,0E0,0E0],"parents":[2147483647,0,0,1,1,2,2,3,3,4,4,5,5,6,6,7,7,8,8,9,9,10,10,11,11,12,12,13,13,14,14],"right_children":[2,4,6,8,10,12,14,16,18,20,22,24,26,28,30,-1,-1,-1,-1,-1,-1,-1,-1,-1,-1,-1,-1,-1,-1,-1,-1],"split_conditions":[6.100633E-1,2.8823808E-1,1.7349837E0,3.8851994E-1,2.8869048E-1,3.9703494E-1,9.800414E-1,6.811179E-1,5.305797E-1,3.6555183E-1,6.279058E-1,9.199178E-1,2.8927103E-3,1.9407248E0,1.7679812E-1,-4.096234E-2,-4.535224E-4,9.2076026E-2,-2.1233518E-2,-4.6556775E-2,3.239673E-2,-6.304852E-2,1.771736E-2,4.7660496E-2,-6.1559357E-2,1.0950514E-2,9.1865964E-2,-5.946033E-2,1.639524E-2,-4.7445767E-2,9.001435E-2],"split_indices":[25,26,10,31,4,31,31,24,20,31,31,19,22,16,17,0,0,0,0,0,0,0,0,0,0,0,0,0,0,0,0],"split_type":[0,0,0,0,0,0,0,0,0,0,0,0,0,0,0,0,0,0,0,0,0,0,0,0,0,0,0,0,0,0,0],"sum_hessian":[1.5967303E3,1.0999153E3,4.9681506E2,1.6933083E2,9.305845E2,4.515343E2,4.5280746E1,1.6038237E2,8.948455E0,3.1771396E2,6.128705E2,4.4570057E1,4.0696426E2,3.2182293E1,1.30984535E1,6.609738E1,9.428498E1,6.4815564E0,2.4668984E0,3.0541156E2,1.2302401E1,6.086215E2,4.248975E0,4.135002E1,3.2200372E0,5.1730433E0,4.017912E2,2.9144772E1,3.0375214E0,1.7525668E0,1.1345887E1],"tree_param":{"num_deleted":"0","num_feature":"32","num_nodes":"31","size_leaf_vector":"1"}},{"base_weights":[2.5705895E-1,4.3878984E-1,-5.4896337E-1,7.032113E-1,-3.7649304E-1,-9.341964E-3,-5.926867E-1,7.535955E-1,1.1927018E-1,-5.149751E-1,1.4851183E-1,-4.1185376E-1,3.190963E-1,-6.3653165E-1,-1.288811E-1,8.613443E-2,5.0189424E-2,1.2827072E-3,7.4543856E-2,-5.683818E-2,3.6725678E-2,-1.2424428E-3,4.9787473E-2,-5.4591324E-2,1.980725E-2,7.077485E-3,9.829761E-2,7.3794867E-3,-6.400034E-2,3.6370296E-2,-6.1916824E-2],"categories":[],"categories_nodes":[],"categories_segments":[],"categories_sizes":[],"default_left":[0,0,0,0,0,0,0,0,0,0,0,0,0,0,0,0,0,0,0,0,0,0,0,0,0,0,0,0,0,0,0],"id":13,"left_children":[1,3,5,7,9,11,13,15,17,19,21,23,25,27,29,-1,-1,-1,-1,-1,-1,-1,-1,-1,-1,-1,-1,-1,-1,-1,-1],"loss_changes":[2.5322375E2,3.0420636E2,7.5021286E0,3.1242554E1,2.5227306E1,3.4187288E0,5.9034348E0,2.6150635E1,5.7075768E0,1.3116783E1,4.1094627E0,1.0574105E0,2.2806869E0,7.0975494E-1,6.667449E0,0E0,0E0,0E0,0E0,0E0,0E0,0E0,0E0,0E0,0E0,0E0,0E0,0E0,0E0,0E0,0E0],"parents":[2147483647,0,0,1,1,2,2,3,3,4,4,5,5,6,6,7,7,8,8,9,9,10,10,11,11,12,12,13,13,14,14],"right_children":[2,4,6,8,10,12,14,16,18,20,22,24,26,28,30,-1,-1,-1,-1,-1,-1,-1,-1,-1,-1,-1,-1,-1,-1,-1,-1],"split_conditions":[5.994713E-1,1.5641054E0,9.116705E-1,5.9623015E-1,2.5388962E-1,8.134789E-1,1.4932598E0,1.675475E-1,1.2072806E0,3.5938272E-1,7.998395E-1,7.1755886E-1,6.946647E-1,2.8927103E-3,1.3473729E0,8.613443E-2,5.0189424E-2,1.2827072E-3,7.4543856E-2,-5.683818E-2,3.6725678E-2,-1.2424428E-3,4.9787473E-2,-5.4591324E-2,1.980725E-2,7.077485E-3,9.829761E-2,7.3794867E-3,-6.400034E-2,3.6370296E-2,-6.1916824E-2],"split_indices":[14,13,25,25,7,16,28,30,1,3,9,3,14,22,11,0,0,0,0,0,0,0,0,0,0,0,0,0,0,0,0],"split_type":[0,0,0,0,0,0,0,0,0,0,0,0,0,0,0,0,0,0,0,0,0,0,0,0,0,0,0,0,0,0,0],"sum_hessian":[1.7260914E3,1.4088899E3,3.172016E2,1.0639541E3,3.4493576E2,2.3866117E1,2.9333548E2,9.7917725E2,8.477685E1,2.729564E2,7.1979385E1,1.0609659E1,1.3256459E1,2.676603E2,2.5675165E1,6.8396295E2,2.952143E2,7.3331604E1,1.1445244E1,2.5771133E2,1.5245052E1,4.993907E1,2.2040316E1,8.783936E0,1.8257232E0,1.0453121E1,2.8033383E0,1.2032924E0,2.6645703E2,1.2936371E1,1.2738793E1],"tree_param":{"num_deleted":"0","num_feature":"32","num_nodes":"31","size_leaf_vector":"1"}},{"base_weights":[-1.7826664E-1,-5.404704E-1,6.101579E-1,-2.922317E-1,-6.150997E-1,6.828777E-1,-5.921888E-1,8.114098E-1,-3.844832E-1,-6.287708E-1,-4.2371166E-1,7.307159E-1,-3.4639487E-1,-6.234524E-1,6.2837377E-3,9.011127E-2,-8.65744E-3,-5.126927E-2,1.3767372E-2,-6.354503E-2,-3.2877155E-2,-4.676367E-2,8.0667324E-2,2.7576808E-2,7.741376E-2,5.831721E-2,-5.2566588E-2,9.899153E-4,-6.554986E-2],"categories":[],"categories_nodes":[],"categories_segments":[],"categories_sizes":[],"default_left":[0,0,0,0,0,0,0,0,0,0,0,0,0,0,0,0,0,0,0,0,0,0,0,0,0,0,0,0,0],"id":14,"left_children":[1,3,5,7,9,11,13,15,17,19,21,23,25,27,-1,-1,-1,-1,-1,-1,-1,-1,-1,-1,-1,-1,-1,-1,-1],"loss_changes":[4.508915E2,1.9858429E1,4.3870636E1,2.5960468E1,1.907135E0,2.3357895E1,6.307583E-1,1.6692791E0,1.5679871E1,1.3405762E0,3.5361023E0,8.650848E0,3.8925815E0,5.6796074E-1,0E0,0E0,0E0,0E0,0E0,0E0,0E0,0E0,0E0,0E0,0E0,0E0,0E0,0E0,0E0],"parents":[2147483647,0,0,1,1,2,2,3,3,4,4,5,5,6,6,7,7,8,8,9,9,10,10,11,11,12,12,13,13],"right_children":[2,4,6,8,10,12,14,16,18,20,22,24,26,28,-1,-1,-1,-1,-1,-1,-1,-1,-1,-1,-1,-1,-1,-1,-1],"split_conditions":[7.862925E-1,2.1296257E-1,4.6214342E-1,6.8648577E-1,8.968788E-1,9.317317E-1,2.1073982E-1,5.095319E-1,2.583733E-1,1.2634935E0,1.6469256E0,4.1893423E-2,3.0548924E-1,2.4441883E-1,6.2837377E-3,9.011127E-2,-8.65744E-3,-5.126927E-2,1.3767372E-2,-6.354503E-2,-3.2877155E-2,-4.676367E-2,8.0667324E-2,2.7576808E-2,7.741376E-2,5.831721E-2,-5.2566588E-2,9.899153E-4,-6.554986E-2],"split_indices":[30,17,1,28,23,28,4,3,11,26,5,4,3,12,0,0,0,0,0,0,0,0,0,0,0,0,0,0,0],"split_type":[0,0,0,0,0,0,0,0,0,0,0,0,0,0,0,0,0,0,0,0,0,0,0,0,0,0,0,0,0],"sum_hessian":[1.5767611E3,1.0806315E3,4.9612967E2,2.5091878E2,8.297127E2,4.6824173E2,2.7887936E1,1.875458E1,2.321642E2,7.722634E2,5.744923E1,4.477227E2,2.0519041E1,2.6663519E1,1.2244174E0,1.70481E1,1.7064801E0,1.8641124E2,4.575296E1,7.543498E2,1.7913656E1,5.606753E1,1.3816979E0,3.9649437E1,4.0807327E2,2.953153E0,1.7565887E1,1.317422E0,2.5346096E1],"tree_param":{"num_deleted":"0","num_feature":"32","num_nodes":"29","size_leaf_vector":"1"}},{"base_weights":[-9.681697E-2,-4.7285908E-1,7.067784E-1,-1.11966975E-1,-5.402872E-1,-2.1715789E-1,7.881963E-1,-4.2841756E-3,-4.131831E-1,-5.6699586E-1,-2.2553396E-1,3.1718698E-1,-4.520281E-1,3.9258128E-1,8.4377825E-1,1.0202716E-2,-4.2633098E-2,-4.948865E-2,8.706409E-2,-4.0888067E-2,-6.1491948E-2,1.7051183E-2,-4.4091348E-2,-3.5933906E-3,9.037683E-2,-6.2753476E-2,5.6003448E-2,7.071703E-2,3.0382718E-3,8.5566215E-2,-1.7253352E-2],"categories":[],"categories_nodes":[],"categories_segments":[],"categories_sizes":[],"default_left":[0,0,0,0,0,0,0,0,0,0,0,0,0,0,0,0,0,0,0,0,0,0,0,0,0,0,0,0,0,0,0],"id":15,"left_children":[1,3,5,7,9,11,13,15,17,19,21,23,25,27,29,-1,-1,-1,-1,-1,-1,-1,-1,-1,-1,-1,-1,-1,-1,-1,-1],"loss_changes":[4.683538E2,2.5628326E1,3.734114E1,5.4295626E0,7.347412E0,5.2638173E0,9.658752E0,5.6234107E0,5.0552597E0,5.9544983E0,6.149708E0,2.7346125E0,5.4589067E0,6.568616E0,4.948303E0,0E0,0E0,0E0,0E0,0E0,0E0,0E0,0E0,0E0,0E0,0E0,0E0,0E0,0E0,0E0,0E0],"parents":[2147483647,0,0,1,1,2,2,3,3,4,4,5,5,6,6,7,7,8,8,9,9,10,10,11,11,12,12,13,13,14,14],"right_children":[2,4,6,8,10,12,14,16,18,20,22,24,26,28,30,-1,-1,-1,-1,-1,-1,-1,-1,-1,-1,-1,-1,-1,-1,-1,-1],"split_conditions":[6.100633E-1,2.8823808E-1,9.8786436E-2,1.9358839E-1,3.2501048E-1,1.8402704E0,8.010838E-1,1.1743324E0,2.9565728E-1,4.8895317E-1,1.0808388E0,5.157129E-1,1.0184859E0,9.030812E-1,8.46296E-1,1.0202716E-2,-4.2633098E-2,-4.948865E-2,8.706409E-2,-4.0888067E-2,-6.1491948E-2,1.7051183E-2,-4.4091348E-2,-3.5933906E-3,9.037683E-2,-6.2753476E-2,5.6003448E-2,7.071703E-2,3.0382718E-3,8.5566215E-2,-1.7253352E-2],"split_indices":[25,26,2,4,14,10,11,17,19,26,7,17,31,1,9,0,0,0,0,0,0,0,0,0,0,0,0,0,0,0,0],"split_type":[0,0,0,0,0,0,0,0,0,0,0,0,0,0,0,0,0,0,0,0,0,0,0,0,0,0,0,0,0,0,0],"sum_hessian":[1.5477812E3,1.0546635E3,4.9311774E2,1.6644873E2,8.882147E2,3.9799767E1,4.53318E2,1.23361885E2,4.308684E1,8.180012E2,7.021355E1,1.2045347E1,2.775442E1,5.683647E1,3.964815E2,9.914583E1,2.4216051E1,4.1086586E1,2.000255E0,1.924803E2,6.2552094E2,2.4806671E1,4.5406876E1,8.104933E0,3.9404144E0,2.3976486E1,3.7779331E0,2.9907637E1,2.6928833E1,3.9205524E2,4.426279E0],"tree_param":{"num_deleted":"0","num_feature":"32","num_nodes":"31","size_leaf_vector":"1"}},{"base_weights":[2.4030572E-1,4.0410647E-1,-5.4391086E-1,6.4131206E-1,-3.5770702E-1,-1.9067222E-2,-5.7971513E-1,6.9198614E-1,9.007131E-2,-4.948538E-1,1.4053907E-1,-2.2408758E-1,7.7924006E-2,-1.7693721E-1,-6.2133014E-1,7.726436E-2,3.9441854E-2,-2.2130355E-2,2.8760443E-2,-5.4878354E-2,3.519393E-2,3.1129612E-2,-1.4972548E-2,-5.821348E-2,-2.7531656E-3,7.4191648E-3,-5.926908E-2,-6.251367E-2,1.2653383E-3],"categories":[],"categories_nodes":[],"categories_segments":[],"categories_sizes":[],"default_left":[0,0,0,0,0,0,0,0,0,0,0,0,0,0,0,0,0,0,0,0,0,0,0,0,0,0,0,0,0],"id":16,"left_children":[1,3,5,7,9,11,13,15,17,19,21,23,-1,25,27,-1,-1,-1,-1,-1,-1,-1,-1,-1,-1,-1,-1,-1,-1],"loss_changes":[2.1842416E2,2.542577E2,5.5123444E0,2.9891754E1,2.292152E1,3.4160776E0,4.5015793E0,2.3261932E1,5.6870446E0,1.217894E1,3.6629603E0,1.1476202E0,0E0,2.8798954E0,6.087265E-1,0E0,0E0,0E0,0E0,0E0,0E0,0E0,0E0,0E0,0E0,0E0,0E0,0E0,0E0],"parents":[2147483647,0,0,1,1,2,2,3,3,4,4,5,5,6,6,7,7,8,8,9,9,10,10,11,11,13,13,14,14],"right_children":[2,4,6,8,10,12,14,16,18,20,22,24,-1,26,28,-1,-1,-1,-1,-1,-1,-1,-1,-1,-1,-1,-1,-1,-1],"split_conditions":[6.132604E-1,1.5641054E0,9.116705E-1,6.0328174E-1,2.5388962E-1,7.0452553E-1,2.83864E-1,6.8508065E-1,7.3750776E-1,3.5938272E-1,1.4184686E0,9.002223E-1,7.7924006E-2,1.3473729E0,1.4058667E-1,7.726436E-2,3.9441854E-2,-2.2130355E-2,2.8760443E-2,-5.4878354E-2,3.519393E-2,3.1129612E-2,-1.4972548E-2,-5.821348E-2,-2.7531656E-3,7.4191648E-3,-5.926908E-2,-6.251367E-2,1.2653383E-3],"split_indices":[14,13,25,25,7,14,6,13,26,3,23,1,0,11,24,0,0,0,0,0,0,0,0,0,0,0,0,0,0],"split_type":[0,0,0,0,0,0,0,0,0,0,0,0,0,0,0,0,0,0,0,0,0,0,0,0,0,0,0,0,0],"sum_hessian":[1.6976799E3,1.4047516E3,2.9292834E2,1.0713302E3,3.3342148E2,1.8804941E1,2.7412338E2,9.80903E2,9.042718E1,2.6145923E2,7.196222E1,1.5534647E1,3.2702937E0,2.6161999E1,2.479614E2,7.70467E2,2.1043604E2,3.5052685E1,5.5374493E1,2.4613553E2,1.5323713E1,4.5262634E1,2.6699589E1,4.810373E0,1.0724274E1,1.6822315E1,9.339684E0,2.4649533E2,1.4660589E0],"tree_param":{"num_deleted":"0","num_feature":"32","num_nodes":"29","size_leaf_vector":"1"}},{"base_weights":[-1.6904034E-1,-5.20971E-1,5.6224054E-1,-2.6451436E-1,-5.9476304E-1,6.290402E-1,-5.784599E-1,8.5300744E-1,-3.4897074E-1,-6.099232E-1,-3.6879027E-1,6.8881637E-1,-9.945013E-2,-6.104509E-1,7.2588236E-3,-1.2477515E-4,9.2690416E-2,-4.415117E-2,4.517726E-2,-6.3473515E-2,-5.2092563E-2,3.5703208E-3,-5.4615386E-2,3.9214127E-2,7.5666584E-2,3.4492653E-2,-3.5625357E-2,9.369356E-4,-6.428828E-2],"categories":[],"categories_nodes":[],"categories_segments":[],"categories_sizes":[],"default_left":[0,0,0,0,0,0,0,0,0,0,0,0,0,0,0,0,0,0,0,0,0,0,0,0,0,0,0,0,0],"id":17,"left_children":[1,3,5,7,9,11,13,15,17,19,21,23,25,27,-1,-1,-1,-1,-1,-1,-1,-1,-1,-1,-1,-1,-1,-1,-1],"loss_changes":[3.9347916E2,1.9371185E1,3.8222702E1,2.2229883E1,2.5175476E0,2.0528305E1,6.276274E-1,1.0502081E0,1.6261654E1,1.3226013E0,3.8117905E0,8.446121E0,4.288498E0,5.447798E-1,0E0,0E0,0E0,0E0,0E0,0E0,0E0,0E0,0E0,0E0,0E0,0E0,0E0,0E0,0E0],"parents":[2147483647,0,0,1,1,2,2,3,3,4,4,5,5,6,6,7,7,8,8,9,9,10,10,11,11,12,12,13,13],"right_children":[2,4,6,8,10,12,14,16,18,20,22,24,26,28,-1,-1,-1,-1,-1,-1,-1,-1,-1,-1,-1,-1,-1,-1,-1],"split_conditions":[7.862925E-1,1.9067451E-1,4.6214342E-1,6.5890616E-1,9.4611275E-1,4.3849903E-1,1.0762291E0,8.376493E-2,7.433417E-1,4.61479E-1,6.3542926E-1,1.5394185E-1,6.5215135E-1,2.4441883E-1,7.2588236E-3,-1.2477515E-4,9.2690416E-2,-4.415117E-2,4.517726E-2,-6.3473515E-2,-5.2092563E-2,3.5703208E-3,-5.4615386E-2,3.9214127E-2,7.5666584E-2,3.4492653E-2,-3.5625357E-2,9.369356E-4,-6.428828E-2],"split_indices":[30,17,1,28,23,3,9,23,27,4,4,4,4,12,0,0,0,0,0,0,0,0,0,0,0,0,0,0,0],"split_type":[0,0,0,0,0,0,0,0,0,0,0,0,0,0,0,0,0,0,0,0,0,0,0,0,0,0,0,0,0],"sum_hessian":[1.5267665E3,1.0309209E3,4.9584558E2,2.313774E2,7.995435E2,4.6883884E2,2.700674E1,1.5618208E1,2.1575919E2,7.476837E2,5.1859837E1,4.3333594E2,3.550289E1,2.5801281E1,1.20546E0,1.3217483E0,1.4296459E1,1.9380948E2,2.1949709E1,5.798837E2,1.6779997E2,1.6051546E1,3.5808292E1,8.191929E1,3.5141666E2,1.2877065E1,2.2625826E1,1.3182712E0,2.448301E1],"tree_param":{"num_deleted":"0","num_feature":"32","num_nodes":"29","size_leaf_vector":"1"}},{"base_weights":[-9.225158E-2,-4.5575964E-1,6.527995E-1,-2.4204896E-1,-5.739939E-1,7.3991543E-1,-1.902282E-1,-1.1604848E-1,-4.6954474E-1,-5.9208304E-1,-1.7752157E-1,7.6428133E-1,-3.3879515E-2,-5.093574E-1,5.94402E-1,-2.1360455E-2,1.6928308E-2,-7.6144408E-3,-5.450783E-2,-5.950625E-2,1.574303E-2,6.582754E-2,-4.223376E-2,7.8509025E-2,1.361914E-2,-3.8672514E-2,7.378569E-2,-5.7986762E-2,1.6212441E-2,-4.7677662E-2,7.8674845E-2],"categories":[],"categories_nodes":[],"categories_segments":[],"categories_sizes":[],"default_left":[0,0,0,0,0,0,0,0,0,0,0,0,0,0,0,0,0,0,0,0,0,0,0,0,0,0,0,0,0,0,0],"id":18,"left_children":[1,3,5,7,9,11,13,15,17,19,21,23,25,27,29,-1,-1,-1,-1,-1,-1,-1,-1,-1,-1,-1,-1,-1,-1,-1,-1],"loss_changes":[4.054781E2,2.528247E1,3.6199173E1,1.0267023E1,4.5350494E0,8.419846E0,1.2016492E1,6.5235887E0,3.762556E0,1.4745331E0,6.3468246E0,5.5348053E0,4.2469726E0,1.6939993E0,3.2569585E0,0E0,0E0,0E0,0E0,0E0,0E0,0E0,0E0,0E0,0E0,0E0,0E0,0E0,0E0,0E0,0E0],"parents":[2147483647,0,0,1,1,2,2,3,3,4,4,5,5,6,6,7,7,8,8,9,9,10,10,11,11,12,12,13,13,14,14],"right_children":[2,4,6,8,10,12,14,16,18,20,22,24,26,28,30,-1,-1,-1,-1,-1,-1,-1,-1,-1,-1,-1,-1,-1,-1,-1,-1],"split_conditions":[5.9623015E-1,4.8895317E-1,1.7349837E0,1.9960535E-1,3.6555183E-1,8.038142E-1,9.800414E-1,1.208691E0,6.281853E-1,1.5733975E0,3.4765732E-1,4.800968E-2,6.528089E-1,1.9407248E0,1.7679812E-1,-2.1360455E-2,1.6928308E-2,-7.6144408E-3,-5.450783E-2,-5.950625E-2,1.574303E-2,6.582754E-2,-4.223376E-2,7.8509025E-2,1.361914E-2,-3.8672514E-2,7.378569E-2,-5.7986762E-2,1.6212441E-2,-4.7677662E-2,7.8674845E-2],"split_indices":[25,26,10,4,31,9,31,24,23,24,4,24,31,16,17,0,0,0,0,0,0,0,0,0,0,0,0,0,0,0,0],"split_type":[0,0,0,0,0,0,0,0,0,0,0,0,0,0,0,0,0,0,0,0,0,0,0,0,0,0,0,0,0,0,0],"sum_hessian":[1.4950583E3,1.0050741E3,4.899842E2,3.5907904E2,6.4599506E2,4.4420383E2,4.5780365E1,2.3206047E2,1.27018555E2,6.1733563E2,2.8659437E1,4.306553E2,1.3548548E1,3.2793316E1,1.2987049E1,1.7312105E2,5.8939434E1,2.0782965E1,1.0623559E2,6.1509656E2,2.2390547E0,6.1102633E0,2.2549173E1,4.1660303E2,1.4052248E1,9.639955E0,3.9085937E0,2.9800495E1,2.9928224E0,1.7519097E0,1.123514E1],"tree_param":{"num_deleted":"0","num_feature":"32","num_nodes":"31","size_leaf_vector":"1"}},{"base_weights":[2.2534104E-1,3.71508E-1,-5.506898E-1,5.839684E-1,-3.3947328E-1,-3.1798456E-2,-5.732975E-1,6.401477E-1,7.171314E-2,-4.7840947E-1,1.2681155E-1,-4.082967E-1,7.370938E-2,-2.1240185E-1,-6.050966E-1,7.386532E-2,4.15493E-2,-1.727047E-2,2.742672E-2,-5.3330828E-2,3.3061385E-2,3.4795832E-2,-1.0247821E-2,1.4924477E-2,-6.0448576E-2,5.4356568E-3,-5.7270218E-2,-6.0910948E-2,2.0781308E-3],"categories":[],"categories_nodes":[],"categories_segments":[],"categories_sizes":[],"default_left":[0,0,0,0,0,0,0,0,0,0,0,0,0,0,0,0,0,0,0,0,0,0,0,0,0,0,0,0,0],"id":19,"left_children":[1,3,5,7,9,11,13,15,17,19,21,23,-1,25,27,-1,-1,-1,-1,-1,-1,-1,-1,-1,-1,-1,-1,-1,-1],"loss_changes":[1.8882059E2,2.1165755E2,3.07827E0,3.0981812E1,2.0966991E1,3.7976918E0,2.7735748E0,2.1191833E1,5.378539E0,1.1228249E1,3.8321905E0,1.0475566E0,0E0,2.1473846E0,5.950012E-1,0E0,0E0,0E0,0E0,0E0,0E0,0E0,0E0,0E0,0E0,0E0,0E0,0E0,0E0],"parents":[2147483647,0,0,1,1,2,2,3,3,4,4,5,5,6,6,7,7,8,8,9,9,10,10,11,11,13,13,14,14],"right_children":[2,4,6,8,10,12,14,16,18,20,22,24,-1,26,28,-1,-1,-1,-1,-1,-1,-1,-1,-1,-1,-1,-1,-1,-1],"split_conditions":[6.4631087E-1,1.5641054E0,9.116705E-1,5.9623015E-1,2.0758104E-1,7.0452553E-1,2.83864E-1,1.675475E-1,8.093774E-1,3.5938272E-1,1.3539226E-1,5.1303476E-1,7.370938E-2,1.3473729E0,1.4058667E-1,7.386532E-2,4.15493E-2,-1.727047E-2,2.742672E-2,-5.3330828E-2,3.3061385E-2,3.4795832E-2,-1.0247821E-2,1.4924477E-2,-6.0448576E-2,5.4356568E-3,-5.7270218E-2,-6.0910948E-2,2.0781308E-3],"split_indices":[14,13,25,25,7,14,6,30,26,3,6,29,0,11,24,0,0,0,0,0,0,0,0,0,0,0,0,0,0],"split_type":[0,0,0,0,0,0,0,0,0,0,0,0,0,0,0,0,0,0,0,0,0,0,0,0,0,0,0,0,0],"sum_hessian":[1.6618396E3,1.3988793E3,2.6296042E2,1.0771703E3,3.2170892E2,1.1079103E1,2.518813E2,9.704869E2,1.0668342E2,2.4783652E2,7.387241E1,7.7521443E0,3.3269591E0,2.101837E1,2.3086293E2,6.730732E2,2.974137E2,4.8412457E1,5.827096E1,2.3240663E2,1.5429882E1,3.7340485E1,3.653193E1,2.0800934E0,5.672051E0,1.2564801E1,8.4535675E0,2.294188E2,1.4441457E0],"tree_param":{"num_deleted":"0","num_feature":"32","num_nodes":"29","size_leaf_vector":"1"}},{"base_weights":[-1.6046283E-1,-5.1049906E-1,5.0579816E-1,-2.641325E-1,-5.8244187E-1,5.9668964E-1,-3.2726184E-1,6.925638E-1,-3.4586954E-1,-6.166582E-1,-4.9537593E-1,6.5371037E-1,-2.535168E-1,-4.0243605E-1,8.1662856E-2,8.133707E-2,-2.113483E-2,-4.904557E-2,2.0063074E-2,-6.2016495E-2,3.2465E-2,-5.2098226E-2,1.2530513E-2,6.757929E-2,-2.2606758E-2,1.7946663E-3,-6.400865E-2,-4.6657387E-2,3.5409443E-2],"categories":[],"categories_nodes":[],"categories_segments":[],"categories_sizes":[],"default_left":[0,0,0,0,0,0,0,0,0,0,0,0,0,0,0,0,0,0,0,0,0,0,0,0,0,0,0,0,0],"id":20,"left_children":[1,3,5,7,9,11,13,15,17,19,21,23,25,27,-1,-1,-1,-1,-1,-1,-1,-1,-1,-1,-1,-1,-1,-1,-1],"loss_changes":[3.4426505E2,1.6994644E1,3.8701447E1,1.7482288E1,1.9229126E0,2.2411682E1,4.6860538E0,2.103548E0,1.6202986E1,1.9603882E0,3.5000648E0,8.512756E0,3.1136656E0,2.504856E0,0E0,0E0,0E0,0E0,0E0,0E0,0E0,0E0,0E0,0E0,0E0,0E0,0E0,0E0,0E0],"parents":[2147483647,0,0,1,1,2,2,3,3,4,4,5,5,6,6,7,7,8,8,9,9,10,10,11,11,12,12,13,13],"right_children":[2,4,6,8,10,12,14,16,18,20,22,24,26,28,-1,-1,-1,-1,-1,-1,-1,-1,-1,-1,-1,-1,-1,-1,-1],"split_conditions":[7.211818E-1,1.9067451E-1,2.2587577E-1,7.2694814E-1,4.2620447E-1,5.2855957E-1,5.365509E-1,3.7604645E-2,2.583733E-1,1.1429268E0,8.984144E-1,5.2554466E-2,1.2845184E0,3.0058267E0,8.1662856E-2,8.133707E-2,-2.113483E-2,-4.904557E-2,2.0063074E-2,-6.2016495E-2,3.2465E-2,-5.2098226E-2,1.2530513E-2,6.757929E-2,-2.2606758E-2,1.7946663E-3,-6.400865E-2,-4.6657387E-2,3.5409443E-2],"split_indices":[30,17,1,28,4,3,26,21,11,23,13,14,23,5,0,0,0,0,0,0,0,0,0,0,0,0,0,0,0],"split_type":[0,0,0,0,0,0,0,0,0,0,0,0,0,0,0,0,0,0,0,0,0,0,0,0,0,0,0,0,0],"sum_hessian":[1.4740599E3,9.6651294E2,5.0754703E2,2.1950253E2,7.470104E2,4.5787418E2,4.9672867E1,1.6689236E1,2.028133E2,5.3189606E2,2.1511433E2,4.293126E2,2.8561573E1,4.7217983E1,2.454886E0,1.4810054E1,1.8791823E0,1.6046266E2,4.235063E1,5.302618E2,1.6342783E0,2.0674564E2,8.368701E0,4.1902686E2,1.0285739E1,1.7339039E1,1.1222535E1,4.3881065E1,3.3369172E0],"tree_param":{"num_deleted":"0","num_feature":"32","num_nodes":"29","size_leaf_vector":"1"}},{"base_weights":[-8.812917E-2,-4.3666303E-1,6.1071765E-1,-2.2307144E-1,-5.581867E-1,6.9311917E-1,-1.8822086E-1,-1.0063858E-1,-4.499566E-1,-5.9045804E-1,-3.0977228E-1,4.593049E-1,7.776747E-1,-4.9442518E-1,5.561529E-1,1.33372815E-2,-2.1912655E-2,-5.8495E-3,-5.2721646E-2,-5.93868E-2,1.6320715E-2,-4.1898932E-2,5.3409774E-2,5.7271775E-2,-3.9968207E-3,2.3909002E-3,7.905311E-2,-5.64968E-2,1.5749795E-2,-4.659943E-2,7.403741E-2],"categories":[],"categories_nodes":[],"categories_segments":[],"categories_sizes":[],"default_left":[0,0,0,0,0,0,0,0,0,0,0,0,0,0,0,0,0,0,0,0,0,0,0,0,0,0,0,0,0,0,0],"id":21,"left_children":[1,3,5,7,9,11,13,15,17,19,21,23,25,27,29,-1,-1,-1,-1,-1,-1,-1,-1,-1,-1,-1,-1,-1,-1,-1,-1],"loss_changes":[3.5137054E2,2.4855606E1,3.1736847E1,9.695364E0,4.729141E0,8.251205E0,1.0685282E1,6.3800387E0,3.6775455E0,1.4877167E0,6.910444E0,6.7093754E0,3.0660095E0,1.6015663E0,2.940299E0,0E0,0E0,0E0,0E0,0E0,0E0,0E0,0E0,0E0,0E0,0E0,0E0,0E0,0E0,0E0,0E0],"parents":[2147483647,0,0,1,1,2,2,3,3,4,4,5,5,6,6,7,7,8,8,9,9,10,10,11,11,12,12,13,13,14,14],"right_children":[2,4,6,8,10,12,14,16,18,20,22,24,26,28,30,-1,-1,-1,-1,-1,-1,-1,-1,-1,-1,-1,-1,-1,-1,-1,-1],"split_conditions":[5.9623015E-1,4.8895317E-1,1.7349837E0,1.9960535E-1,2.699839E-1,1.1160767E0,9.800414E-1,2.0629607E-1,6.281853E-1,1.5733975E0,3.745027E-3,1.2062422E0,1.2168767E-1,1.9407248E0,1.7679812E-1,1.33372815E-2,-2.1912655E-2,-5.8495E-3,-5.2721646E-2,-5.93868E-2,1.6320715E-2,-4.1898932E-2,5.3409774E-2,5.7271775E-2,-3.9968207E-3,2.3909002E-3,7.905311E-2,-5.64968E-2,1.5749795E-2,-4.659943E-2,7.403741E-2],"split_indices":[25,26,10,4,14,25,31,26,23,24,30,1,29,16,17,0,0,0,0,0,0,0,0,0,0,0,0,0,0,0,0],"split_type":[0,0,0,0,0,0,0,0,0,0,0,0,0,0,0,0,0,0,0,0,0,0,0,0,0,0,0,0,0,0,0],"sum_hessian":[1.4404801E3,9.6138605E2,4.7909412E2,3.4965802E2,6.11728E2,4.3442096E2,4.467317E1,2.2804358E2,1.21614426E2,5.40177E2,7.155101E1,1.1708575E2,3.173352E2,3.189052E1,1.2782647E1,7.661158E1,1.51432E2,2.0335464E1,1.0127896E2,5.379551E2,2.221951E0,6.379756E1,7.753444E0,9.529241E1,2.1793335E1,5.3697257E0,3.1196548E2,2.8897034E1,2.9934857E0,1.7184317E0,1.1064216E1],"tree_param":{"num_deleted":"0","num_feature":"32","num_nodes":"31","size_leaf_vector":"1"}},{"base_weights":[2.1203592E-1,3.4722298E-1,-5.344279E-1,5.2523226E-1,-3.893018E-1,-3.6403617E-1,-6.121403E-2,5.725281E-1,6.430475E-2,-4.7671038E-1,9.222193E-2,-4.4303104E-1,3.1776062E-1,6.526386E-2,2.1785226E-2,-1.6200347E-2,2.4304567E-2,-5.2874725E-2,4.9187873E-2,3.488566E-2,-3.7938688E-2,-1.7941807E-3,-5.1764827E-2,1.1185839E-1,-3.0494392E-2],"categories":[],"categories_nodes":[],"categories_segments":[],"categories_sizes":[],"default_left":[0,0,0,0,0,0,0,0,0,0,0,0,0,0,0,0,0,0,0,0,0,0,0,0,0],"id":22,"left_children":[1,3,5,7,9,11,-1,13,15,17,19,21,23,-1,-1,-1,-1,-1,-1,-1,-1,-1,-1,-1,-1],"loss_changes":[1.6388483E2,1.8035536E2,3.0760422E0,2.4096527E1,1.1325092E1,4.4764585E0,0E0,2.838144E1,4.252237E0,1.17020035E1,5.2176895E0,2.2922535E0,4.799764E0,0E0,0E0,0E0,0E0,0E0,0E0,0E0,0E0,0E0,0E0,0E0,0E0],"parents":[2147483647,0,0,1,1,2,2,3,3,4,4,5,5,7,7,8,8,9,9,10,10,11,11,12,12],"right_children":[2,4,6,8,10,12,-1,14,16,18,20,22,24,-1,-1,-1,-1,-1,-1,-1,-1,-1,-1,-1,-1],"split_conditions":[6.4631087E-1,1.2795336E0,1.3473729E0,6.0328174E-1,3.3220822E-1,1.4221634E0,-6.121403E-2,5.6356144E-1,8.093774E-1,4.3849903E-1,1.6618232E-1,9.116705E-1,9.6221125E-1,6.526386E-2,2.1785226E-2,-1.6200347E-2,2.4304567E-2,-5.2874725E-2,4.9187873E-2,3.488566E-2,-3.7938688E-2,-1.7941807E-3,-5.1764827E-2,1.1185839E-1,-3.0494392E-2],"split_indices":[14,30,11,25,7,28,0,30,26,3,6,25,3,0,0,0,0,0,0,0,0,0,0,0,0],"split_type":[0,0,0,0,0,0,0,0,0,0,0,0,0,0,0,0,0,0,0,0,0,0,0,0,0],"sum_hessian":[1.6211941E3,1.3730627E3,2.4813135E2,1.1060344E3,2.670284E2,7.95014E1,1.6862994E2,1.00288586E3,1.0314848E2,2.2601166E2,4.1016766E1,7.156042E1,7.940988E0,8.1741644E2,1.8546945E2,4.55589E1,5.7589584E1,2.1491934E2,1.1092308E1,2.6730923E1,1.4285843E1,1.0870777E1,6.0689636E1,3.1253412E0,4.815647E0],"tree_param":{"num_deleted":"0","num_feature":"32","num_nodes":"25","size_leaf_vector":"1"}},{"base_weights":[-1.5266462E-1,-5.038293E-1,4.5194545E-1,-5.315431E-1,5.9107304E-2,5.253563E-1,-5.517863E-1,-3.5330084E-1,-5.781175E-1,-2.1534634E-1,9.6682805E-1,5.886995E-1,-3.1075048E-1,1.713978E-2,-5.7771856E-1,6.534538E-2,-4.409803E-2,-5.831666E-2,-2.0419179E-2,5.1698603E-2,-3.699381E-2,1.2110973E-3,1.1249781E-1,6.1239976E-2,-2.7905349E-2,1.9509742E-2,-4.7023915E-2,-6.0261406E-2,5.7557463E-3],"categories":[],"categories_nodes":[],"categories_segments":[],"categories_sizes":[],"default_left":[0,0,0,0,0,0,0,0,0,0,0,0,0,0,0,0,0,0,0,0,0,0,0,0,0,0,0,0,0],"id":23,"left_children":[1,3,5,7,9,11,13,15,17,19,21,23,25,-1,27,-1,-1,-1,-1,-1,-1,-1,-1,-1,-1,-1,-1,-1,-1],"loss_changes":[3.0191797E2,1.4062088E1,3.8797516E1,6.912155E0,1.0944994E1,2.6001465E1,7.761164E-1,1.6191454E1,1.1611176E0,4.03028E0,1.524601E0,9.497726E0,2.914309E0,0E0,5.8955E-1,0E0,0E0,0E0,0E0,0E0,0E0,0E0,0E0,0E0,0E0,0E0,0E0,0E0,0E0],"parents":[2147483647,0,0,1,1,2,2,3,3,4,4,5,5,6,6,7,7,8,8,9,9,10,10,11,11,12,12,14,14],"right_children":[2,4,6,8,10,12,14,16,18,20,22,24,26,-1,28,-1,-1,-1,-1,-1,-1,-1,-1,-1,-1,-1,-1,-1,-1],"split_conditions":[6.420931E-1,1.1772186E0,4.6214342E-1,2.0083854E-1,8.563676E-1,5.2855957E-1,4.60158E-1,7.2694814E-1,1.3113534E0,3.8952938E-1,1.018533E0,5.2554466E-2,7.7080303E-1,1.713978E-2,2.679753E-1,6.534538E-2,-4.409803E-2,-5.831666E-2,-2.0419179E-2,5.1698603E-2,-3.699381E-2,1.2110973E-3,1.1249781E-1,6.1239976E-2,-2.7905349E-2,1.9509742E-2,-4.7023915E-2,-6.0261406E-2,5.7557463E-3],"split_indices":[30,4,1,17,19,3,20,28,26,15,8,14,28,0,4,0,0,0,0,0,0,0,0,0,0,0,0,0,0],"split_type":[0,0,0,0,0,0,0,0,0,0,0,0,0,0,0,0,0,0,0,0,0,0,0,0,0,0,0,0,0],"sum_hessian":[1.419938E3,8.9833887E2,5.215991E2,8.562413E2,4.2097614E1,4.8649454E2,3.5104603E1,1.7916298E2,6.770783E2,3.2909912E1,9.187704E0,4.525085E2,3.3986015E1,1.0210361E0,3.408357E1,1.3836504E1,1.6532648E2,6.6750543E2,9.572882E0,5.3276334E0,2.7582277E1,1.4586614E0,7.729043E0,4.4076453E2,1.1743975E1,8.093309E0,2.5892704E1,3.284773E1,1.2358388E0],"tree_param":{"num_deleted":"0","num_feature":"32","num_nodes":"29","size_leaf_vector":"1"}},{"base_weights":[-8.434777E-2,-4.1823453E-1,5.7413614E-1,-2.0393363E-1,-5.4359186E-1,6.530529E-1,-1.8834208E-1,-8.4480345E-2,-4.31042E-1,-5.774541E-1,-2.882787E-1,3.246749E-1,7.1216863E-1,-4.175901E-1,7.17245E-2,-1.2470036E-2,5.7476558E-2,-3.9591636E-3,-5.104235E-2,-5.810198E-2,1.6788185E-2,-3.983791E-2,5.1596325E-2,4.317936E-2,-5.7103675E-2,7.242594E-2,-2.0284956E-2,-4.9013503E-2,2.3990942E-2],"categories":[],"categories_nodes":[],"categories_segments":[],"categories_sizes":[],"default_left":[0,0,0,0,0,0,0,0,0,0,0,0,0,0,0,0,0,0,0,0,0,0,0,0,0,0,0,0,0],"id":24,"left_children":[1,3,5,7,9,11,13,15,17,19,21,23,25,27,-1,-1,-1,-1,-1,-1,-1,-1,-1,-1,-1,-1,-1,-1,-1],"loss_changes":[3.048541E2,2.460205E1,2.8198013E1,9.21762E0,4.8462067E0,7.980942E0,9.545722E0,6.0317492E0,3.6257534E0,1.4553528E0,6.3942776E0,6.6152143E0,4.103836E0,1.8429618E0,0E0,0E0,0E0,0E0,0E0,0E0,0E0,0E0,0E0,0E0,0E0,0E0,0E0,0E0,0E0],"parents":[2147483647,0,0,1,1,2,2,3,3,4,4,5,5,6,6,7,7,8,8,9,9,10,10,11,11,12,12,13,13],"right_children":[2,4,6,8,10,12,14,16,18,20,22,24,26,28,-1,-1,-1,-1,-1,-1,-1,-1,-1,-1,-1,-1,-1,-1,-1],"split_conditions":[5.9623015E-1,4.8895317E-1,1.7349837E0,1.9960535E-1,2.699839E-1,8.010838E-1,1.0948328E0,2.7980375E-1,6.281853E-1,1.5733975E0,3.745027E-3,8.563676E-1,8.46296E-1,1.1960129E0,7.17245E-2,-1.2470036E-2,5.7476558E-2,-3.9591636E-3,-5.104235E-2,-5.810198E-2,1.6788185E-2,-3.983791E-2,5.1596325E-2,4.317936E-2,-5.7103675E-2,7.242594E-2,-2.0284956E-2,-4.9013503E-2,2.3990942E-2],"split_indices":[25,26,10,4,14,11,31,25,23,24,30,19,9,21,0,0,0,0,0,0,0,0,0,0,0,0,0,0,0],"split_type":[0,0,0,0,0,0,0,0,0,0,0,0,0,0,0,0,0,0,0,0,0,0,0,0,0,0,0,0,0],"sum_hessian":[1.3844966E3,9.1891974E2,4.6557687E2,3.401143E2,5.788054E2,4.2203918E2,4.353771E1,2.2378238E2,1.1633191E2,5.0991373E2,6.889172E1,6.537637E1,3.566628E2,3.5172672E1,8.365037E0,2.1167888E2,1.2103496E1,1.9866053E1,9.646585E1,5.0770532E2,2.2083771E0,6.104002E1,7.8517017E0,5.8855713E1,6.5206585E0,3.522172E2,4.445607E0,3.1906797E1,3.2658756E0],"tree_param":{"num_deleted":"0","num_feature":"32","num_nodes":"29","size_leaf_vector":"1"}},{"base_weights":[1.999861E-1,3.309626E-1,-4.8914668E-1,5.2893466E-1,-2.6958558E-1,2.4645129E-1,-5.4439574E-1,5.988935E-1,2.5189093E-1,-4.2007077E-1,1.703051E-1,6.8925667E-1,-1.3825914E-1,-1.6275327E-1,-5.667575E-1,7.0046715E-2,3.8592454E-2,1.6454529E-2,6.731493E-2,-4.6336602E-2,6.0089547E-2,2.399328E-3,4.8914164E-2,-1.2722666E-2,9.141886E-2,4.2192727E-2,-3.989538E-2,1.0460153E-2,-5.1700063E-2,-3.282428E-2,-5.9259605E-2],"categories":[],"categories_nodes":[],"categories_segments":[],"categories_sizes":[],"default_left":[0,0,0,0,0,0,0,0,0,0,0,0,0,0,0,0,0,0,0,0,0,0,0,0,0,0,0,0,0,0,0],"id":25,"left_children":[1,3,5,7,9,11,13,15,17,19,21,23,25,27,29,-1,-1,-1,-1,-1,-1,-1,-1,-1,-1,-1,-1,-1,-1,-1,-1],"loss_changes":[1.42595E2,1.5786487E2,1.0392967E1,1.9192932E1,2.188736E1,3.2166345E0,1.9141617E0,1.695102E1,7.3564577E0,1.114547E1,3.9401898E0,1.711401E0,1.7218099E0,1.4193931E0,1.1716995E0,0E0,0E0,0E0,0E0,0E0,0E0,0E0,0E0,0E0,0E0,0E0,0E0,0E0,0E0,0E0,0E0],"parents":[2147483647,0,0,1,1,2,2,3,3,4,4,5,5,6,6,7,7,8,8,9,9,10,10,11,11,12,12,13,13,14,14],"right_children":[2,4,6,8,10,12,14,16,18,20,22,24,26,28,30,-1,-1,-1,-1,-1,-1,-1,-1,-1,-1,-1,-1,-1,-1,-1,-1],"split_conditions":[8.161185E-1,1.4165237E0,8.625668E-2,2.746354E-1,2.5388962E-1,8.9512295E-1,3.005829E-1,1.675475E-1,8.3276695E-1,5.5127674E-1,8.038142E-1,4.5719936E-1,7.622047E-2,1.3473729E0,1.0501773E0,7.0046715E-2,3.8592454E-2,1.6454529E-2,6.731493E-2,-4.6336602E-2,6.0089547E-2,2.399328E-3,4.8914164E-2,-1.2722666E-2,9.141886E-2,4.2192727E-2,-3.989538E-2,1.0460153E-2,-5.1700063E-2,-3.282428E-2,-5.9259605E-2],"split_indices":[11,13,2,25,7,16,17,30,20,3,9,19,17,11,25,0,0,0,0,0,0,0,0,0,0,0,0,0,0,0,0],"split_type":[0,0,0,0,0,0,0,0,0,0,0,0,0,0,0,0,0,0,0,0,0,0,0,0,0,0,0,0,0,0,0],"sum_hessian":[1.5770282E3,1.3256039E3,2.5142438E2,9.97045E2,3.285589E2,1.732289E1,2.3410149E2,7.951042E2,2.0194075E2,2.448437E2,8.371519E1,7.6853514E0,9.637538E0,1.3415775E1,2.206857E2,5.367954E2,2.5830878E2,1.6841205E2,3.3528717E1,2.3540714E2,9.436569E0,5.8119717E1,2.559547E1,1.7537539E0,5.9315977E0,2.8642662E0,6.773272E0,8.047187E0,5.3685884E0,2.2909834E1,1.9777588E2],"tree_param":{"num_deleted":"0","num_feature":"32","num_nodes":"31","size_leaf_vector":"1"}},{"base_weights":[-1.4542489E-1,-4.8717743E-1,4.2060795E-1,-2.5975505E-1,-5.5915886E-1,4.8941144E-1,-5.396274E-1,6.3538724E-1,-3.2748902E-1,-5.9100914E-1,-4.6459407E-1,5.4892606E-1,-2.9897067E-1,1.6715076E-2,-5.66024E-1,-9.332427E-3,7.35656E-2,-5.350088E-2,4.9329763E-3,-5.9480745E-2,2.206834E-2,-4.8341967E-2,1.7440425E-2,5.7152517E-2,-2.7410451E-2,1.8969353E-2,-4.5710932E-2,-5.913293E-2,5.5548633E-3],"categories":[],"categories_nodes":[],"categories_segments":[],"categories_sizes":[],"default_left":[0,0,0,0,0,0,0,0,0,0,0,0,0,0,0,0,0,0,0,0,0,0,0,0,0,0,0,0,0],"id":26,"left_children":[1,3,5,7,9,11,13,15,17,19,21,23,25,-1,27,-1,-1,-1,-1,-1,-1,-1,-1,-1,-1,-1,-1,-1,-1],"loss_changes":[2.6454108E2,1.3810471E1,3.4287117E1,1.2748121E1,1.6731873E0,2.2735817E1,7.4586964E-1,1.1565652E0,1.5113352E1,1.6113434E0,2.100544E0,8.48288E0,2.7460961E0,0E0,5.657301E-1,0E0,0E0,0E0,0E0,0E0,0E0,0E0,0E0,0E0,0E0,0E0,0E0,0E0,0E0],"parents":[2147483647,0,0,1,1,2,2,3,3,4,4,5,5,6,6,7,7,8,8,9,9,10,10,11,11,12,12,14,14],"right_children":[2,4,6,8,10,12,14,16,18,20,22,24,26,-1,28,-1,-1,-1,-1,-1,-1,-1,-1,-1,-1,-1,-1,-1,-1],"split_conditions":[6.420931E-1,2.0876911E-1,4.6214342E-1,7.2694814E-1,4.61479E-1,5.2855957E-1,4.60158E-1,8.376493E-2,6.2931055E-1,1.1143404E0,8.984144E-1,5.2554466E-2,7.7080303E-1,1.6715076E-2,2.679753E-1,-9.332427E-3,7.35656E-2,-5.350088E-2,4.9329763E-3,-5.9480745E-2,2.206834E-2,-4.8341967E-2,1.7440425E-2,5.7152517E-2,-2.7410451E-2,1.8969353E-2,-4.5710932E-2,-5.913293E-2,5.5548633E-3],"split_indices":[30,17,1,28,4,3,20,23,16,23,13,14,28,0,4,0,0,0,0,0,0,0,0,0,0,0,0,0,0],"split_type":[0,0,0,0,0,0,0,0,0,0,0,0,0,0,0,0,0,0,0,0,0,0,0,0,0,0,0,0,0],"sum_hessian":[1.3654799E3,8.5150665E2,5.139732E2,2.0582367E2,6.45683E2,4.800655E2,3.3907684E1,1.3889223E1,1.9193445E2,4.7907593E2,1.6660703E2,4.466517E2,3.3413807E1,1.0288066E0,3.2878876E1,1.6883392E0,1.2200884E1,1.2350087E2,6.843358E1,4.7711053E2,1.9654096E0,1.6207558E2,4.5314465E0,4.350125E2,1.1639167E1,8.120651E0,2.5293158E1,3.1639439E1,1.2394377E0],"tree_param":{"num_deleted":"0","num_feature":"32","num_nodes":"29","size_leaf_vector":"1"}},{"base_weights":[-8.07402E-2,-3.8922247E-1,5.67366E-1,-2.0018491E-1,-5.300127E-1,-1.6899082E-1,6.445026E-1,-2.4238305E-1,6.504325E-1,-5.4677165E-1,6.0234267E-1,-2.5898427E-1,5.7306584E-2,2.5126144E-1,6.83602E-1,-4.2596295E-2,-8.875816E-3,-1.7220985E-2,7.5302504E-2,-4.380393E-2,-5.793516E-2,6.504476E-3,7.050703E-2,-4.2938557E-2,2.348787E-2,5.7689603E-2,2.4643124E-3,1.8657392E-2,6.989054E-2],"categories":[],"categories_nodes":[],"categories_segments":[],"categories_sizes":[],"default_left":[0,0,0,0,0,0,0,0,0,0,0,0,0,0,0,0,0,0,0,0,0,0,0,0,0,0,0,0,0],"id":27,"left_children":[1,3,5,7,9,11,13,15,17,19,21,23,-1,25,27,-1,-1,-1,-1,-1,-1,-1,-1,-1,-1,-1,-1,-1,-1],"loss_changes":[2.6598575E2,2.3879425E1,2.4480682E1,1.40236635E1,1.0119888E1,2.9183407E0,5.803177E0,1.03624E1,1.6935172E0,1.549057E0,3.9570355E-1,3.2718725E0,0E0,2.6958952E0,2.55365E0,0E0,0E0,0E0,0E0,0E0,0E0,0E0,0E0,0E0,0E0,0E0,0E0,0E0,0E0],"parents":[2147483647,0,0,1,1,2,2,3,3,4,4,5,5,6,6,7,7,8,8,9,9,10,10,11,11,13,13,14,14],"right_children":[2,4,6,8,10,12,14,16,18,20,22,24,-1,26,28,-1,-1,-1,-1,-1,-1,-1,-1,-1,-1,-1,-1,-1,-1],"split_conditions":[3.9703494E-1,2.6391166E-1,9.8786436E-2,7.135496E-1,6.8801147E-1,1.3193833E0,6.0495865E-1,1.675475E-1,5.076005E-1,4.1941887E-1,7.1512383E-1,6.170794E-2,5.7306584E-2,6.125819E-2,8.112544E-2,-4.2596295E-2,-8.875816E-3,-1.7220985E-2,7.5302504E-2,-4.380393E-2,-5.793516E-2,6.504476E-3,7.050703E-2,-4.2938557E-2,2.348787E-2,5.7689603E-2,2.4643124E-3,1.8657392E-2,6.989054E-2],"split_indices":[31,4,2,18,14,11,21,30,14,4,14,22,0,3,9,0,0,0,0,0,0,0,0,0,0,0,0,0,0],"split_type":[0,0,0,0,0,0,0,0,0,0,0,0,0,0,0,0,0,0,0,0,0,0,0,0,0,0,0,0,0],"sum_hessian":[1.3282947E3,9.002146E2,4.2808008E2,3.8529926E2,5.1491534E2,4.0478233E1,3.8760184E2,3.6776968E2,1.7529577E1,5.079153E2,7.0000334E0,3.6680744E1,3.7974916E0,3.5724983E1,3.5187686E2,1.6674211E2,2.0102756E2,1.8684831E0,1.5661095E1,1.204317E2,3.874836E2,1.385678E0,5.614355E0,2.7368229E1,9.312513E0,1.4025562E1,2.1699419E1,1.0904609E1,3.4097226E2],"tree_param":{"num_deleted":"0","num_feature":"32","num_nodes":"29","size_leaf_vector":"1"}},{"base_weights":[1.892169E-1,3.0568215E-1,-5.046911E-1,4.5918086E-1,-3.5621673E-1,-3.2758477E-1,-5.896951E-2,4.9392965E-1,-5.063067E-2,-4.4604418E-1,9.9535346E-2,-4.0731466E-1,2.9649377E-1,5.5318456E-2,1.1646813E-2,4.95623E-2,-2.7976802E-2,-4.98437E-2,4.4574942E-2,3.4395907E-2,-3.6070615E-2,-1.3041885E-4,-4.8592374E-2,1.0263436E-1,-3.0109528E-2],"categories":[],"categories_nodes":[],"categories_segments":[],"categories_sizes":[],"default_left":[0,0,0,0,0,0,0,0,0,0,0,0,0,0,0,0,0,0,0,0,0,0,0,0,0],"id":28,"left_children":[1,3,5,7,9,11,-1,13,15,17,19,21,23,-1,-1,-1,-1,-1,-1,-1,-1,-1,-1,-1,-1],"loss_changes":[1.2387081E2,1.33408E2,3.1246872E0,1.8891983E1,1.017453E1,3.7890272E0,0E0,2.2238113E1,8.758412E0,9.888634E0,4.7991214E0,2.0991964E0,4.2039657E0,0E0,0E0,0E0,0E0,0E0,0E0,0E0,0E0,0E0,0E0,0E0,0E0],"parents":[2147483647,0,0,1,1,2,2,3,3,4,4,5,5,7,7,8,8,9,9,10,10,11,11,12,12],"right_children":[2,4,6,8,10,12,-1,14,16,18,20,22,24,-1,-1,-1,-1,-1,-1,-1,-1,-1,-1,-1,-1],"split_conditions":[6.4631087E-1,1.2795336E0,1.3473729E0,5.043404E-1,3.3220822E-1,1.4221634E0,-5.896951E-2,1.3709967E0,2.8927103E-3,4.3849903E-1,1.6618232E-1,9.116705E-1,9.6221125E-1,5.5318456E-2,1.1646813E-2,4.95623E-2,-2.7976802E-2,-4.98437E-2,4.4574942E-2,3.4395907E-2,-3.6070615E-2,-1.3041885E-4,-4.8592374E-2,1.0263436E-1,-3.0109528E-2],"split_indices":[14,30,11,31,7,28,0,5,22,3,6,25,3,0,0,0,0,0,0,0,0,0,0,0,0],"split_type":[0,0,0,0,0,0,0,0,0,0,0,0,0,0,0,0,0,0,0,0,0,0,0,0,0],"sum_hessian":[1.5298391E3,1.3104528E3,2.1938638E2,1.0640084E3,2.4644432E2,7.272245E1,1.4666394E2,9.9614246E2,6.786595E1,2.0588605E2,4.0558266E1,6.479218E1,7.930268E0,8.605806E2,1.3556183E2,1.9711523E1,4.8154427E1,1.9487807E2,1.1007985E1,2.6655039E1,1.3903226E1,1.0674699E1,5.4117485E1,3.2470696E0,4.6831985E0],"tree_param":{"num_deleted":"0","num_feature":"32","num_nodes":"25","size_leaf_vector":"1"}},{"base_weights":[-1.3899887E-1,-4.716275E-1,3.925086E-1,-2.2658788E-1,-5.416711E-1,4.818787E-1,-2.8464496E-1,-3.1364325E-1,4.4572544E-1,-5.781014E-1,-4.4576037E-1,5.428481E-1,-2.831703E-1,-4.18234E-1,3.934787E-1,5.7618685E-2,-3.9528344E-2,7.827057E-2,-2.8230105E-2,-5.8565564E-2,4.3137153E-3,-4.630347E-2,1.7227484E-2,5.652494E-2,-2.5048498E-2,1.884015E-2,-4.4065673E-2,-4.520172E-2,5.6009054E-2,-1.570955E-2,8.230244E-2],"categories":[],"categories_nodes":[],"categories_segments":[],"categories_sizes":[],"default_left":[0,0,0,0,0,0,0,0,0,0,0,0,0,0,0,0,0,0,0,0,0,0,0,0,0,0,0,0,0,0,0],"id":29,"left_children":[1,3,5,7,9,11,13,15,17,19,21,23,25,27,29,-1,-1,-1,-1,-1,-1,-1,-1,-1,-1,-1,-1,-1,-1,-1,-1],"loss_changes":[2.3209712E2,1.37330475E1,3.0727226E1,1.0743976E1,1.9334259E0,2.0999825E1,5.560362E0,1.1923452E1,5.41799E0,2.1423187E0,1.9693909E0,7.50383E0,2.5816612E0,1.9138126E0,2.5694475E0,0E0,0E0,0E0,0E0,0E0,0E0,0E0,0E0,0E0,0E0,0E0,0E0,0E0,0E0,0E0,0E0],"parents":[2147483647,0,0,1,1,2,2,3,3,4,4,5,5,6,6,7,7,8,8,9,9,10,10,11,11,12,12,13,13,14,14],"right_children":[2,4,6,8,10,12,14,16,18,20,22,24,26,28,30,-1,-1,-1,-1,-1,-1,-1,-1,-1,-1,-1,-1,-1,-1,-1,-1],"split_conditions":[6.420931E-1,1.7274421E-1,6.7484593E-1,5.8790207E-1,4.61479E-1,5.2855957E-1,1.4184686E0,7.2694814E-1,6.825896E-1,9.4611275E-1,8.984144E-1,5.2554466E-2,7.7080303E-1,3.6090904E-1,4.2629935E-2,5.7618685E-2,-3.9528344E-2,7.827057E-2,-2.8230105E-2,-5.8565564E-2,4.3137153E-3,-4.630347E-2,1.7227484E-2,5.652494E-2,-2.5048498E-2,1.884015E-2,-4.4065673E-2,-4.520172E-2,5.6009054E-2,-1.570955E-2,8.230244E-2],"split_indices":[30,17,7,18,4,3,23,28,31,23,13,14,28,19,6,0,0,0,0,0,0,0,0,0,0,0,0,0,0,0,0],"split_type":[0,0,0,0,0,0,0,0,0,0,0,0,0,0,0,0,0,0,0,0,0,0,0,0,0,0,0,0,0,0,0],"sum_hessian":[1.3107596E3,8.062832E2,5.0447644E2,1.8017975E2,6.2610345E2,4.4591357E2,5.8562893E1,1.5999594E2,2.0183798E1,4.501088E2,1.7599464E2,4.1326913E2,3.2644413E1,4.9244976E1,9.317916E0,1.2936632E1,1.4705931E2,1.3746074E1,6.437725E0,4.4475784E2,5.350967E0,1.7145325E2,4.5413857E0,4.0219977E2,1.1069366E1,8.123471E0,2.4520943E1,4.812124E1,1.1237392E0,4.3616314E0,4.956285E0],"tree_param":{"num_deleted":"0","num_feature":"32","num_nodes":"31","size_leaf_vector":"1"}},{"base_weights":[-7.743112E-2,-3.8404804E-1,5.172255E-1,-1.6828468E-1,-5.17738E-1,5.9121144E-1,-1.8326433E-1,-5.4514665E-2,-3.9612678E-1,-5.5489105E-1,-2.5026336E-1,3.7517056E-1,6.767963E-1,-3.9594716E-1,6.6266805E-2,2.4805556E-3,-3.907482E-2,7.609126E-4,-4.8128422E-2,-5.588081E-2,1.7634032E-2,-3.642216E-2,5.1673915E-2,4.8284285E-2,-8.392832E-3,-5.0579193E-3,6.906802E-2,-4.6645965E-2,2.1968352E-2],"categories":[],"categories_nodes":[],"categories_segments":[],"categories_sizes":[],"default_left":[0,0,0,0,0,0,0,0,0,0,0,0,0,0,0,0,0,0,0,0,0,0,0,0,0,0,0,0,0],"id":30,"left_children":[1,3,5,7,9,11,13,15,17,19,21,23,25,27,-1,-1,-1,-1,-1,-1,-1,-1,-1,-1,-1,-1,-1,-1,-1],"loss_changes":[2.325182E2,2.417929E1,2.259581E1,8.359397E0,5.0180664E0,7.00679E0,7.8573246E0,5.7918286E0,3.7002773E0,1.4012909E0,5.879431E0,5.659314E0,2.8628082E0,1.5939798E0,0E0,0E0,0E0,0E0,0E0,0E0,0E0,0E0,0E0,0E0,0E0,0E0,0E0,0E0,0E0],"parents":[2147483647,0,0,1,1,2,2,3,3,4,4,5,5,6,6,7,7,8,8,9,9,10,10,11,11,12,12,13,13],"right_children":[2,4,6,8,10,12,14,16,18,20,22,24,26,28,-1,-1,-1,-1,-1,-1,-1,-1,-1,-1,-1,-1,-1,-1,-1],"split_conditions":[5.9623015E-1,4.8895317E-1,1.7349837E0,1.9960535E-1,2.699839E-1,1.1160767E0,1.0948328E0,1.1743324E0,6.281853E-1,1.5733975E0,3.745027E-3,1.2062422E0,1.2168767E-1,1.1960129E0,6.6266805E-2,2.4805556E-3,-3.907482E-2,7.609126E-4,-4.8128422E-2,-5.588081E-2,1.7634032E-2,-3.642216E-2,5.1673915E-2,4.8284285E-2,-8.392832E-3,-5.0579193E-3,6.906802E-2,-4.6645965E-2,2.1968352E-2],"split_indices":[25,26,10,4,14,25,31,17,23,24,30,1,29,21,0,0,0,0,0,0,0,0,0,0,0,0,0,0,0],"split_type":[0,0,0,0,0,0,0,0,0,0,0,0,0,0,0,0,0,0,0,0,0,0,0,0,0,0,0,0,0],"sum_hessian":[1.2731583E3,8.4025836E2,4.3289996E2,3.223208E2,5.1793756E2,3.9168597E2,4.1213993E1,2.1580208E2,1.0651873E2,4.5382526E2,6.411231E1,1.1266657E2,2.7901938E2,3.33589E1,7.855096E0,1.7535956E2,4.0442524E1,1.8712488E1,8.780624E1,4.5164172E2,2.183535E0,5.6276157E1,7.836154E0,9.122086E1,2.144571E1,5.1765785E0,2.738428E2,3.014813E1,3.2107687E0],"tree_param":{"num_deleted":"0","num_feature":"32","num_nodes":"29","size_leaf_vector":"1"}},{"base_weights":[1.7868598E-1,2.9216936E-1,-4.6067685E-1,4.3824777E-1,-3.4016848E-1,-5.062432E-1,3.8868466E-1,4.8827395E-1,1.0720285E-1,-4.305224E-1,9.620182E-2,-5.425175E-1,-1.7533416E-1,-3.3079135E-1,7.310908E-1,5.6898054E-2,2.054036E-2,-1.9749826E-2,4.874322E-2,-4.830136E-2,4.191788E-2,3.2895308E-2,-3.5028875E-2,-2.9529989E-2,-5.7178225E-2,3.952643E-2,-3.3315603E-2,-4.840138E-2,8.101951E-3,8.703204E-2,-1.7655006E-3],"categories":[],"categories_nodes":[],"categories_segments":[],"categories_sizes":[],"default_left":[0,0,0,0,0,0,0,0,0,0,0,0,0,0,0,0,0,0,0,0,0,0,0,0,0,0,0,0,0,0,0],"id":31,"left_children":[1,3,5,7,9,11,13,15,17,19,21,23,25,27,29,-1,-1,-1,-1,-1,-1,-1,-1,-1,-1,-1,-1,-1,-1,-1,-1],"loss_changes":[1.07770996E2,1.16579544E2,8.8663025E0,1.6912048E1,9.389879E0,2.4620323E0,3.1909814E0,2.0192368E1,1.5824622E1,8.971798E0,4.426916E0,1.2166901E0,2.159971E0,3.262268E-1,8.933983E-1,0E0,0E0,0E0,0E0,0E0,0E0,0E0,0E0,0E0,0E0,0E0,0E0,0E0,0E0,0E0,0E0],"parents":[2147483647,0,0,1,1,2,2,3,3,4,4,5,5,6,6,7,7,8,8,9,9,10,10,11,11,12,12,13,13,14,14],"right_children":[2,4,6,8,10,12,14,16,18,20,22,24,26,28,30,-1,-1,-1,-1,-1,-1,-1,-1,-1,-1,-1,-1,-1,-1,-1,-1],"split_conditions":[8.161185E-1,1.2795336E0,8.4382665E-1,1.3709967E0,3.3220822E-1,1.4932598E0,4.5719936E-1,2.746354E-1,1.1339697E0,4.3849903E-1,1.6618232E-1,1.0501773E0,1.2039177E0,1.1522241E0,2.4238997E0,5.6898054E-2,2.054036E-2,-1.9749826E-2,4.874322E-2,-4.830136E-2,4.191788E-2,3.2895308E-2,-3.5028875E-2,-2.9529989E-2,-5.7178225E-2,3.952643E-2,-3.3315603E-2,-4.840138E-2,8.101951E-3,8.703204E-2,-1.7655006E-3],"split_indices":[11,30,23,5,7,28,19,25,20,3,6,25,16,23,10,0,0,0,0,0,0,0,0,0,0,0,0,0,0,0,0],"split_type":[0,0,0,0,0,0,0,0,0,0,0,0,0,0,0,0,0,0,0,0,0,0,0,0,0,0,0,0,0,0,0],"sum_hessian":[1.4824724E3,1.2594669E3,2.2300542E2,1.0233634E3,2.3610356E2,2.1203421E2,1.0971205E1,8.8860596E2,1.3475745E2,1.9561362E2,4.0489952E1,1.9051094E2,2.1523272E1,3.5486262E0,7.422579E0,6.9056683E2,1.9803911E2,7.507546E1,5.968199E1,1.846389E2,1.0974712E1,2.6788574E1,1.3701378E1,2.1338867E1,1.6917207E2,4.337332E0,1.718594E1,2.458545E0,1.090081E0,6.121848E0,1.3007308E0],"tree_param":{"num_deleted":"0","num_feature":"32","num_nodes":"31","size_leaf_vector":"1"}},{"base_weights":[-1.3223207E-1,-4.565451E-1,3.6915025E-1,-2.2317995E-1,-5.342827E-1,4.3115056E-1,-5.185836E-1,6.021023E-1,-2.9081613E-1,-5.6980985E-1,-4.322508E-1,4.833878E-1,-2.6780674E-1,1.7042128E-2,-5.4614145E-1,-8.957109E-3,6.9663376E-2,-5.0653066E-2,7.5118314E-3,-5.740557E-2,2.2782415E-2,-4.5206558E-2,1.7458616E-2,5.040223E-2,-2.5699973E-2,4.9380044E-4,-5.4529276E-2,-5.7307273E-2,7.432706E-3],"categories":[],"categories_nodes":[],"categories_segments":[],"categories_sizes":[],"default_left":[0,0,0,0,0,0,0,0,0,0,0,0,0,0,0,0,0,0,0,0,0,0,0,0,0,0,0,0,0],"id":32,"left_children":[1,3,5,7,9,11,13,15,17,19,21,23,25,-1,27,-1,-1,-1,-1,-1,-1,-1,-1,-1,-1,-1,-1,-1,-1],"loss_changes":[2.0480934E2,1.3752426E1,2.7460983E1,1.0936203E1,1.8302765E0,1.7038254E1,7.151003E-1,1.0385098E0,1.4156564E1,1.5591583E0,1.9077625E0,6.7181168E0,2.4886837E0,0E0,5.7293224E-1,0E0,0E0,0E0,0E0,0E0,0E0,0E0,0E0,0E0,0E0,0E0,0E0,0E0,0E0],"parents":[2147483647,0,0,1,1,2,2,3,3,4,4,5,5,6,6,7,7,8,8,9,9,10,10,11,11,12,12,14,14],"right_children":[2,4,6,8,10,12,14,16,18,20,22,24,26,-1,28,-1,-1,-1,-1,-1,-1,-1,-1,-1,-1,-1,-1,-1,-1],"split_conditions":[6.420931E-1,2.0876911E-1,4.6214342E-1,7.2694814E-1,4.61479E-1,5.2855957E-1,4.60158E-1,8.376493E-2,6.2931055E-1,1.1143404E0,8.984144E-1,5.2554466E-2,1.1591427E0,1.7042128E-2,2.679753E-1,-8.957109E-3,6.9663376E-2,-5.0653066E-2,7.5118314E-3,-5.740557E-2,2.2782415E-2,-4.5206558E-2,1.7458616E-2,5.040223E-2,-2.5699973E-2,4.9380044E-4,-5.4529276E-2,-5.7307273E-2,7.432706E-3],"split_indices":[30,17,1,28,4,3,20,23,16,23,13,14,10,0,4,0,0,0,0,0,0,0,0,0,0,0,0,0,0],"split_type":[0,0,0,0,0,0,0,0,0,0,0,0,0,0,0,0,0,0,0,0,0,0,0,0,0,0,0,0,0],"sum_hessian":[1.2575161E3,7.636487E2,4.9386743E2,1.9178584E2,5.7186285E2,4.6210764E2,3.1759787E1,1.3928704E1,1.7785715E2,4.2076816E2,1.510947E2,4.3026016E2,3.1847485E1,1.0220579E0,3.0737728E1,1.6810651E0,1.224764E1,1.11654045E2,6.62031E1,4.1881906E2,1.949084E0,1.4656406E2,4.5306487E0,4.189046E2,1.1355572E1,1.6556288E1,1.5291197E1,2.9532274E1,1.2054534E0],"tree_param":{"num_deleted":"0","num_feature":"32","num_nodes":"29","size_leaf_vector":"1"}},{"base_weights":[-7.411871E-2,-3.575664E-1,5.1593685E-1,-1.685882E-1,-5.0654864E-1,-6.116876E-2,6.0241944E-1,-2.0821455E-1,6.054511E-1,-5.2316004E-1,5.4918253E-1,-4.0474725E-1,1.6134785E-1,1.6145526E-1,6.346441E-1,-3.938474E-2,-6.066963E-3,-1.6247263E-2,7.033246E-2,-4.0498883E-2,-5.5923622E-2,4.2395727E-3,6.496816E-2,-5.0486326E-2,-3.30726E-4,2.9515183E-2,-5.801174E-2,9.484769E-2,3.73617E-4,6.416101E-2,-3.1960364E-2],"categories":[],"categories_nodes":[],"categories_segments":[],"categories_sizes":[],"default_left":[0,0,0,0,0,0,0,0,0,0,0,0,0,0,0,0,0,0,0,0,0,0,0,0,0,0,0,0,0,0,0],"id":33,"left_children":[1,3,5,7,9,11,13,15,17,19,21,23,25,27,29,-1,-1,-1,-1,-1,-1,-1,-1,-1,-1,-1,-1,-1,-1,-1,-1],"loss_changes":[2.0420207E2,2.3130623E1,1.9813057E1,1.1321579E1,8.364807E0,4.082712E0,4.795578E0,9.506761E0,1.4695401E0,1.7088547E0,3.6069703E-1,8.399322E-1,3.4062827E0,3.0767152E0,2.3380585E0,0E0,0E0,0E0,0E0,0E0,0E0,0E0,0E0,0E0,0E0,0E0,0E0,0E0,0E0,0E0,0E0],"parents":[2147483647,0,0,1,1,2,2,3,3,4,4,5,5,6,6,7,7,8,8,9,9,10,10,11,11,12,12,13,13,14,14],"right_children":[2,4,6,8,10,12,14,16,18,20,22,24,26,28,30,-1,-1,-1,-1,-1,-1,-1,-1,-1,-1,-1,-1,-1,-1,-1,-1],"split_conditions":[3.9703494E-1,2.6391166E-1,3.6192754E-1,7.135496E-1,6.8801147E-1,6.420127E-1,5.495071E-1,1.675475E-1,5.076005E-1,4.1941887E-1,7.1512383E-1,4.9054736E-1,7.686747E-1,2.9051664E-1,1.3289499E0,-3.938474E-2,-6.066963E-3,-1.6247263E-2,7.033246E-2,-4.0498883E-2,-5.5923622E-2,4.2395727E-3,6.496816E-2,-5.0486326E-2,-3.30726E-4,2.9515183E-2,-5.801174E-2,9.484769E-2,3.73617E-4,6.416101E-2,-3.1960364E-2],"split_indices":[31,4,2,18,14,21,21,30,14,4,14,17,19,20,1,0,0,0,0,0,0,0,0,0,0,0,0,0,0,0,0],"split_type":[0,0,0,0,0,0,0,0,0,0,0,0,0,0,0,0,0,0,0,0,0,0,0,0,0,0,0,0,0,0,0],"sum_hessian":[1.2188369E3,8.2359625E2,3.952407E2,3.6400354E2,4.5959274E2,5.1548153E1,3.4369254E2,3.469716E2,1.7031939E1,4.5296994E2,6.6227937E0,1.9940271E1,3.1607882E1,2.3815119E1,3.198774E2,1.5291414E2,1.9405746E2,1.850752E0,1.5181187E1,1.088024E2,3.4416754E2,1.331299E0,5.291495E0,1.5753772E1,4.1864986E0,2.7285843E1,4.322037E0,3.1387887E0,2.067633E1,3.1788446E2,1.9929379E0],"tree_param":{"num_deleted":"0","num_feature":"32","num_nodes":"31","size_leaf_vector":"1"}},{"base_weights":[1.69237E-1,2.744869E-1,-4.519896E-1,4.4097486E-1,-2.1517722E-1,-2.5680977E-1,-5.7226546E-2,4.9950495E-1,1.2965961E-1,-4.196508E-1,1.8024597E-1,-3.464352E-1,2.5704542E-1,5.717776E-2,3.20668E-2,5.3002946E-3,5.7935327E-2,-4.6063247E-3,-4.885971E-2,-1.852453E-2,3.043349E-2,-4.3850305E-4,-4.653259E-2,6.6590026E-2,-3.001749E-2],"categories":[],"categories_nodes":[],"categories_segments":[],"categories_sizes":[],"default_left":[0,0,0,0,0,0,0,0,0,0,0,0,0,0,0,0,0,0,0,0,0,0,0,0,0],"id":34,"left_children":[1,3,5,7,9,11,-1,13,15,17,19,21,23,-1,-1,-1,-1,-1,-1,-1,-1,-1,-1,-1,-1],"loss_changes":[9.392326E1,1.0015419E2,4.74102E0,1.663092E1,2.5309875E1,3.828783E0,0E0,9.780762E0,5.0144806E0,5.2840576E0,4.912706E0,2.827077E0,3.0781386E0,0E0,0E0,0E0,0E0,0E0,0E0,0E0,0E0,0E0,0E0,0E0,0E0],"parents":[2147483647,0,0,1,1,2,2,3,3,4,4,5,5,7,7,8,8,9,9,10,10,11,11,12,12],"right_children":[2,4,6,8,10,12,-1,14,16,18,20,22,24,-1,-1,-1,-1,-1,-1,-1,-1,-1,-1,-1,-1],"split_conditions":[6.132604E-1,1.6115737E0,1.3473729E0,2.7484864E-1,2.0758104E-1,1.4511904E0,-5.7226546E-2,1.675475E-1,8.3775985E-1,4.7001205E-3,2.1727675E-1,9.116705E-1,1.0947223E0,5.717776E-2,3.20668E-2,5.3002946E-3,5.7935327E-2,-4.6063247E-3,-4.885971E-2,-1.852453E-2,3.043349E-2,-4.3850305E-4,-4.653259E-2,6.6590026E-2,-3.001749E-2],"split_indices":[14,5,11,31,7,28,0,30,22,24,26,25,8,0,0,0,0,0,0,0,0,0,0,0,0],"split_type":[0,0,0,0,0,0,0,0,0,0,0,0,0,0,0,0,0,0,0,0,0,0,0,0,0],"sum_hessian":[1.433589E3,1.226372E3,2.0721707E2,9.1527405E2,3.1109784E2,8.020238E1,1.27014694E2,7.69918E2,1.4535606E2,2.050204E2,1.0607745E2,6.856861E1,1.1633764E1,5.467608E2,2.2315724E2,1.2514174E2,2.0214321E1,3.2201843E1,1.7281856E2,2.6761465E1,7.931599E1,1.7953382E1,5.061523E1,6.597717E0,5.0360475E0],"tree_param":{"num_deleted":"0","num_feature":"32","num_nodes":"25","size_leaf_vector":"1"}},{"base_weights":[-1.2633403E-1,-4.4207984E-1,3.464166E-1,-2.0636629E-1,-5.228156E-1,4.2843863E-1,-2.7134782E-1,5.869585E-1,-2.7384192E-1,-5.6052434E-1,-4.163378E-1,4.8264313E-1,-2.5375617E-1,-4.000366E-1,3.567715E-1,6.857213E-2,-3.5884902E-3,-4.9179625E-2,7.7778916E-3,-5.65026E-2,2.3082921E-2,-1.918692E-2,-4.7970403E-2,5.1699646E-2,3.0712527E-3,9.270426E-4,-5.3124975E-2,-4.3444637E-2,5.4405678E-2,-1.5781308E-2,7.634801E-2],"categories":[],"categories_nodes":[],"categories_segments":[],"categories_sizes":[],"default_left":[0,0,0,0,0,0,0,0,0,0,0,0,0,0,0,0,0,0,0,0,0,0,0,0,0,0,0,0,0,0,0],"id":35,"left_children":[1,3,5,7,9,11,13,15,17,19,21,23,25,27,29,-1,-1,-1,-1,-1,-1,-1,-1,-1,-1,-1,-1,-1,-1,-1,-1],"loss_changes":[1.8018808E2,1.3662079E1,2.461718E1,1.0131128E1,1.9280701E0,1.5921265E1,4.773383E0,9.422879E-1,1.3245874E1,1.5362854E0,1.9657402E0,6.134384E0,2.3481429E0,1.7962685E0,2.2698212E0,0E0,0E0,0E0,0E0,0E0,0E0,0E0,0E0,0E0,0E0,0E0,0E0,0E0,0E0,0E0,0E0],"parents":[2147483647,0,0,1,1,2,2,3,3,4,4,5,5,6,6,7,7,8,8,9,9,10,10,11,11,12,12,13,13,14,14],"right_children":[2,4,6,8,10,12,14,16,18,20,22,24,26,28,30,-1,-1,-1,-1,-1,-1,-1,-1,-1,-1,-1,-1,-1,-1,-1,-1],"split_conditions":[6.420931E-1,2.0876911E-1,6.7484593E-1,7.2694814E-1,4.61479E-1,5.2855957E-1,1.4184686E0,9.621862E-1,6.2931055E-1,1.1143404E0,1.7100734E-1,8.002209E-1,1.1591427E0,3.6090904E-1,4.2629935E-2,6.857213E-2,-3.5884902E-3,-4.9179625E-2,7.7778916E-3,-5.65026E-2,2.3082921E-2,-1.918692E-2,-4.7970403E-2,5.1699646E-2,3.0712527E-3,9.270426E-4,-5.3124975E-2,-4.3444637E-2,5.4405678E-2,-1.5781308E-2,7.634801E-2],"split_indices":[30,17,7,28,4,3,23,13,16,23,3,4,10,19,6,0,0,0,0,0,0,0,0,0,0,0,0,0,0,0,0],"split_type":[0,0,0,0,0,0,0,0,0,0,0,0,0,0,0,0,0,0,0,0,0,0,0,0,0,0,0,0,0,0,0],"sum_hessian":[1.2051105E3,7.2257446E2,4.8253598E2,1.8525774E2,5.373167E2,4.2624844E2,5.628755E1,1.3918324E1,1.7133942E2,3.9364444E2,1.4367226E2,3.9514438E2,3.1104074E1,4.7017708E1,9.269843E0,1.1926256E1,1.9920683E0,1.0552836E2,6.581106E1,3.9170227E2,1.9421959E0,3.251589E1,1.1115636E2,3.6709576E2,2.8048595E1,1.6464518E1,1.4639558E1,4.588514E1,1.1325678E0,4.3623686E0,4.907475E0],"tree_param":{"num_deleted":"0","num_feature":"32","num_nodes":"31","size_leaf_vector":"1"}},{"base_weights":[-7.0989616E-2,-3.4211966E-1,4.9163762E-1,-1.5368171E-1,-4.9520066E-1,-1.5711612E-1,5.6562215E-1,-1.914511E-1,5.787472E-1,-5.117102E-1,5.2488023E-1,-4.0161592E-1,8.1628606E-2,2.1398209E-1,6.0589343E-1,-1.7741862E-4,-3.304093E-2,-1.4908015E-2,6.722349E-2,-3.8842313E-2,-5.498567E-2,3.420064E-3,6.2431928E-2,9.302198E-3,-4.722683E-2,-5.2900013E-2,2.5197927E-2,9.808295E-3,8.594624E-2,1.1868784E-2,6.2219262E-2],"categories":[],"categories_nodes":[],"categories_segments":[],"categories_sizes":[],"default_left":[0,0,0,0,0,0,0,0,0,0,0,0,0,0,0,0,0,0,0,0,0,0,0,0,0,0,0,0,0,0,0],"id":36,"left_children":[1,3,5,7,9,11,13,15,17,19,21,23,25,27,29,-1,-1,-1,-1,-1,-1,-1,-1,-1,-1,-1,-1,-1,-1,-1,-1],"loss_changes":[1.7827243E2,2.2668137E1,1.8332191E1,9.927646E0,7.5876617E0,2.3496659E0,4.7048492E0,8.913854E0,1.3012252E0,1.800148E0,3.4046435E-1,7.351217E-1,2.308679E0,2.6557531E0,2.3542786E0,0E0,0E0,0E0,0E0,0E0,0E0,0E0,0E0,0E0,0E0,0E0,0E0,0E0,0E0,0E0,0E0],"parents":[2147483647,0,0,1,1,2,2,3,3,4,4,5,5,6,6,7,7,8,8,9,9,10,10,11,11,12,12,13,13,14,14],"right_children":[2,4,6,8,10,12,14,16,18,20,22,24,26,28,30,-1,-1,-1,-1,-1,-1,-1,-1,-1,-1,-1,-1,-1,-1,-1,-1],"split_conditions":[3.9703494E-1,2.6391166E-1,9.8786436E-2,7.135496E-1,6.8801147E-1,7.0918787E-1,6.1148316E-1,2.2716203E-1,5.076005E-1,4.1941887E-1,1.2027E0,3.7382692E-3,5.504546E-1,2.4886616E-2,8.112544E-2,-1.7741862E-4,-3.304093E-2,-1.4908015E-2,6.722349E-2,-3.8842313E-2,-5.498567E-2,3.420064E-3,6.2431928E-2,9.302198E-3,-4.722683E-2,-5.2900013E-2,2.5197927E-2,9.808295E-3,8.594624E-2,1.1868784E-2,6.2219262E-2],"split_indices":[31,4,2,18,14,21,21,19,14,4,8,12,23,30,9,0,0,0,0,0,0,0,0,0,0,0,0,0,0,0,0],"split_type":[0,0,0,0,0,0,0,0,0,0,0,0,0,0,0,0,0,0,0,0,0,0,0,0,0,0,0,0,0,0,0],"sum_hessian":[1.1665509E3,7.874639E2,3.790869E2,3.5386774E2,4.3359622E2,3.869097E1,3.4039594E2,3.3721698E2,1.6650763E1,4.2718085E2,6.4153795E0,1.8778057E1,1.9912912E1,3.5626507E1,3.0476944E2,1.4301514E2,1.9420184E2,1.8276165E0,1.4823146E1,1.0358435E2,3.235965E2,1.3074975E0,5.107882E0,2.3073895E0,1.6470669E1,3.8842618E0,1.602865E1,3.1179947E1,4.4465585E0,1.0133898E1,2.9463553E2],"tree_param":{"num_deleted":"0","num_feature":"32","num_nodes":"31","size_leaf_vector":"1"}},{"base_weights":[1.6011669E-1,2.5091976E-1,-4.8759517E-1,3.732012E-1,-3.092067E-1,-7.4692674E-2,-5.5323833E-1,4.376948E-1,1.1799316E-1,-4.0118363E-1,9.542009E-2,1.1360429E-1,-5.1511455E-2,-5.5995077E-1,1.8144032E-2,5.7221092E-2,2.3381919E-2,-6.553147E-3,2.7247572E-2,-4.5530602E-2,3.9668724E-2,3.17811E-2,-3.3943288E-2,6.843974E-2,-5.232973E-3,-5.666564E-2,1.309291E-2],"categories":[],"categories_nodes":[],"categories_segments":[],"categories_sizes":[],"default_left":[0,0,0,0,0,0,0,0,0,0,0,0,0,0,0,0,0,0,0,0,0,0,0,0,0,0,0],"id":37,"left_children":[1,3,5,7,9,11,13,15,17,19,21,23,-1,25,-1,-1,-1,-1,-1,-1,-1,-1,-1,-1,-1,-1,-1],"loss_changes":[8.164909E1,8.3430275E1,4.5873985E0,1.6389267E1,8.170599E0,2.0970783E0,8.274803E-1,2.1723831E1,5.769626E0,7.8772945E0,4.0998945E0,1.7443529E0,0E0,7.510681E-1,0E0,0E0,0E0,0E0,0E0,0E0,0E0,0E0,0E0,0E0,0E0,0E0,0E0],"parents":[2147483647,0,0,1,1,2,2,3,3,4,4,5,5,6,6,7,7,8,8,9,9,10,10,11,11,13,13],"right_children":[2,4,6,8,10,12,14,16,18,20,22,24,-1,26,-1,-1,-1,-1,-1,-1,-1,-1,-1,-1,-1,-1,-1],"split_conditions":[1.0501773E0,1.2795336E0,2.83864E-1,3.3028808E-1,3.3220822E-1,1.3473729E0,2.0901613E0,1.675475E-1,8.093774E-1,4.3849903E-1,1.6618232E-1,8.9512295E-1,-5.1511455E-2,6.33754E-2,1.8144032E-2,5.7221092E-2,2.3381919E-2,-6.553147E-3,2.7247572E-2,-4.5530602E-2,3.9668724E-2,3.17811E-2,-3.3943288E-2,6.843974E-2,-5.232973E-3,-5.666564E-2,1.309291E-2],"split_indices":[25,30,6,25,7,11,7,30,26,3,6,16,0,24,0,0,0,0,0,0,0,0,0,0,0,0,0],"split_type":[0,0,0,0,0,0,0,0,0,0,0,0,0,0,0,0,0,0,0,0,0,0,0,0,0,0,0],"sum_hessian":[1.3851738E3,1.2153989E3,1.6977484E2,9.978842E2,2.1751474E2,2.3581654E1,1.4619319E2,7.960096E2,2.0187462E2,1.7723535E2,4.027938E1,1.7038925E1,6.542728E0,1.4510526E2,1.0879271E0,4.784946E2,3.17515E2,9.252779E1,1.0934683E2,1.6637865E2,1.0856706E1,2.682817E1,1.3451211E1,3.1339614E0,1.3904964E1,1.4388849E2,1.216778E0],"tree_param":{"num_deleted":"0","num_feature":"32","num_nodes":"27","size_leaf_vector":"1"}},{"base_weights":[-1.2030371E-1,-4.27911E-1,3.2581788E-1,-1.728305E-1,-5.067605E-1,3.820493E-1,-4.9811044E-1,-3.428268E-1,1.4218956E-1,-5.4989433E-1,-3.9971915E-1,4.4053605E-1,-1.4580661E-1,1.7151302E-2,-5.269559E-1,5.225531E-2,-4.689504E-2,-1.07933255E-2,5.212913E-2,-5.5901002E-2,9.46081E-3,-4.44198E-2,-1.1159929E-2,2.158181E-2,5.008892E-2,6.4240173E-3,-4.912437E-2,-5.5589605E-2,9.678503E-3],"categories":[],"categories_nodes":[],"categories_segments":[],"categories_sizes":[],"default_left":[0,0,0,0,0,0,0,0,0,0,0,0,0,0,0,0,0,0,0,0,0,0,0,0,0,0,0,0,0],"id":38,"left_children":[1,3,5,7,9,11,13,15,17,19,21,23,25,-1,27,-1,-1,-1,-1,-1,-1,-1,-1,-1,-1,-1,-1,-1,-1],"loss_changes":[1.5877133E2,1.3682274E1,2.2073593E1,8.787151E0,2.192398E0,1.3732109E1,6.816325E-1,1.1844548E1,5.546377E0,2.2250748E0,1.9204082E0,5.3006897E0,3.2902684E0,0E0,5.879631E-1,0E0,0E0,0E0,0E0,0E0,0E0,0E0,0E0,0E0,0E0,0E0,0E0,0E0,0E0],"parents":[2147483647,0,0,1,1,2,2,3,3,4,4,5,5,6,6,7,7,8,8,9,9,10,10,11,11,12,12,14,14],"right_children":[2,4,6,8,10,12,14,16,18,20,22,24,26,-1,28,-1,-1,-1,-1,-1,-1,-1,-1,-1,-1,-1,-1,-1,-1],"split_conditions":[6.420931E-1,1.7274421E-1,4.6214342E-1,6.2931055E-1,4.61479E-1,1.7520975E-2,4.60158E-1,7.2694814E-1,1.1460606E0,9.4611275E-1,8.508184E-1,1.7711641E-1,5.884087E-1,1.7151302E-2,2.679753E-1,5.225531E-2,-4.689504E-2,-1.07933255E-2,5.212913E-2,-5.5901002E-2,9.46081E-3,-4.44198E-2,-1.1159929E-2,2.158181E-2,5.008892E-2,6.4240173E-3,-4.912437E-2,-5.5589605E-2,9.678503E-3],"split_indices":[30,17,1,16,4,21,20,28,4,23,9,4,3,0,4,0,0,0,0,0,0,0,0,0,0,0,0,0,0],"split_type":[0,0,0,0,0,0,0,0,0,0,0,0,0,0,0,0,0,0,0,0,0,0,0,0,0,0,0,0,0],"sum_hessian":[1.1549543E3,6.836255E2,4.7132883E2,1.6217534E2,5.2145013E2,4.4171875E2,2.9610077E1,1.052762E2,5.6899136E1,3.687285E2,1.5272166E2,3.9780692E2,4.3911835E1,1.0185846E0,2.8591494E1,1.2991769E1,9.228443E1,3.471214E1,2.2186996E1,3.6371683E2,5.0116544E0,1.3182872E2,2.0892935E1,8.51895E1,3.126174E2,2.7813541E1,1.6098295E1,2.7427685E1,1.1638082E0],"tree_param":{"num_deleted":"0","num_feature":"32","num_nodes":"29","size_leaf_vector":"1"}},{"base_weights":[-6.8252206E-2,-3.2721183E-1,4.6929857E-1,-1.4041358E-1,-4.841707E-1,-6.499124E-2,5.5513465E-1,-1.7658895E-1,5.5555767E-1,-5.0067884E-1,5.042439E-1,-3.833861E-1,1.359429E-1,6.1950904E-1,3.1312272E-1,-3.5997618E-2,-3.98723E-3,-1.4613735E-2,6.4739816E-2,-3.722397E-2,-5.4101236E-2,1.7771183E-3,6.0568172E-2,-5.9491146E-2,-1.7300626E-2,2.630268E-2,-5.715124E-2,3.1866084E-4,6.3290074E-2,-1.0802477E-2,5.1379185E-2],"categories":[],"categories_nodes":[],"categories_segments":[],"categories_sizes":[],"default_left":[0,0,0,0,0,0,0,0,0,0,0,0,0,0,0,0,0,0,0,0,0,0,0,0,0,0,0,0,0,0,0],"id":39,"left_children":[1,3,5,7,9,11,13,15,17,19,21,23,25,27,29,-1,-1,-1,-1,-1,-1,-1,-1,-1,-1,-1,-1,-1,-1,-1,-1],"loss_changes":[1.556867E2,2.2057724E1,1.6714294E1,8.808716E0,6.9368744E0,3.3298113E0,4.68911E0,8.250384E0,1.2117977E0,1.8885803E0,3.4590757E-1,7.908423E-1,3.0406737E0,2.032959E0,5.791875E0,0E0,0E0,0E0,0E0,0E0,0E0,0E0,0E0,0E0,0E0,0E0,0E0,0E0,0E0,0E0,0E0],"parents":[2147483647,0,0,1,1,2,2,3,3,4,4,5,5,6,6,7,7,8,8,9,9,10,10,11,11,12,12,13,13,14,14],"right_children":[2,4,6,8,10,12,14,16,18,20,22,24,26,28,30,-1,-1,-1,-1,-1,-1,-1,-1,-1,-1,-1,-1,-1,-1,-1,-1],"split_conditions":[3.9703494E-1,2.6391166E-1,3.6192754E-1,7.135496E-1,6.8801147E-1,6.420127E-1,6.3207287E-1,1.675475E-1,5.076005E-1,4.1941887E-1,7.1512383E-1,2.5875473E-1,7.686747E-1,1.7606476E-1,8.0630565E-1,-3.5997618E-2,-3.98723E-3,-1.4613735E-2,6.4739816E-2,-3.722397E-2,-5.4101236E-2,1.7771183E-3,6.0568172E-2,-5.9491146E-2,-1.7300626E-2,2.630268E-2,-5.715124E-2,3.1866084E-4,6.3290074E-2,-1.0802477E-2,5.1379185E-2],"split_indices":[31,4,2,18,14,21,9,30,14,4,14,17,19,29,11,0,0,0,0,0,0,0,0,0,0,0,0,0,0,0,0],"split_type":[0,0,0,0,0,0,0,0,0,0,0,0,0,0,0,0,0,0,0,0,0,0,0,0,0,0,0,0,0,0,0],"sum_hessian":[1.1163041E3,7.536379E2,3.626661E2,3.4497476E2,4.0866315E2,5.023284E1,3.124333E2,3.2863895E2,1.6335804E1,4.0243527E2,6.2278633E0,1.908432E1,3.114852E1,2.4555627E2,6.6877E1,1.3966452E2,1.8897443E2,1.8222148E0,1.451359E1,9.861905E1,3.0381622E2,1.2773194E0,4.950544E0,8.6048355E0,1.0479485E1,2.6937757E1,4.210763E0,5.248399E0,2.4030788E2,2.1731155E1,4.5145847E1],"tree_param":{"num_deleted":"0","num_feature":"32","num_nodes":"31","size_leaf_vector":"1"}},{"base_weights":[1.5180041E-1,2.3666783E-1,-4.766255E-1,3.7858167E-1,-1.9479118E-1,-6.81116E-2,-5.4545206E-1,4.6164498E-1,1.22943155E-1,-3.9150152E-1,1.5683098E-1,1.12947136E-1,-5.072468E-2,-5.599577E-2,-9.228313E-2,5.5808242E-2,2.7932173E-2,5.2806237E-3,4.8604757E-2,-2.9486143E-3,-4.6324898E-2,-1.9675467E-2,2.7858187E-2,6.549289E-2,-4.5899595E-3,6.59862E-2,-4.327137E-2],"categories":[],"categories_nodes":[],"categories_segments":[],"categories_sizes":[],"default_left":[0,0,0,0,0,0,0,0,0,0,0,0,0,0,0,0,0,0,0,0,0,0,0,0,0,0,0],"id":40,"left_children":[1,3,5,7,9,11,13,15,17,19,21,23,-1,-1,25,-1,-1,-1,-1,-1,-1,-1,-1,-1,-1,-1,-1],"loss_changes":[7.152456E1,7.234588E1,4.451481E0,1.8810577E1,2.031387E1,1.9783386E0,8.454895E-1,1.1629303E1,5.5584307E0,4.870634E0,4.607485E0,1.5733081E0,0E0,0E0,1.676033E0,0E0,0E0,0E0,0E0,0E0,0E0,0E0,0E0,0E0,0E0,0E0,0E0],"parents":[2147483647,0,0,1,1,2,2,3,3,4,4,5,5,6,6,7,7,8,8,9,9,10,10,11,11,14,14],"right_children":[2,4,6,8,10,12,14,16,18,20,22,24,-1,-1,26,-1,-1,-1,-1,-1,-1,-1,-1,-1,-1,-1,-1],"split_conditions":[1.0501773E0,1.6115737E0,2.83864E-1,2.746354E-1,2.0758104E-1,1.3473729E0,9.695294E-1,1.675475E-1,8.279294E-1,4.7001205E-3,2.1727675E-1,8.9512295E-1,-5.072468E-2,-5.599577E-2,1.0999097E0,5.5808242E-2,2.7932173E-2,5.2806237E-3,4.8604757E-2,-2.9486143E-3,-4.6324898E-2,-1.9675467E-2,2.7858187E-2,6.549289E-2,-4.5899595E-3,6.59862E-2,-4.327137E-2],"split_indices":[25,5,6,25,7,11,22,30,20,24,26,16,0,0,18,0,0,0,0,0,0,0,0,0,0,0,0],"split_type":[0,0,0,0,0,0,0,0,0,0,0,0,0,0,0,0,0,0,0,0,0,0,0,0,0,0,0],"sum_hessian":[1.3379818E3,1.1793384E3,1.5864343E2,8.8753595E2,2.9180237E2,2.316129E1,1.3548215E2,6.6926825E2,2.1826773E2,1.8704765E2,1.0475473E2,1.6925554E1,6.235736E0,1.3105162E2,4.4305186E0,4.363865E2,2.3288174E2,1.8389262E2,3.4375103E1,3.117239E1,1.5587526E2,2.6673683E1,7.808105E1,3.1284218E0,1.37971325E1,1.0881191E0,3.3423996E0],"tree_param":{"num_deleted":"0","num_feature":"32","num_nodes":"27","size_leaf_vector":"1"}},{"base_weights":[-1.1462072E-1,-4.1535735E-1,3.0551746E-1,-4.5045435E-1,1.6244261E-1,3.597041E-1,-4.892475E-1,-2.5647554E-1,-5.0863427E-1,-4.6908852E-1,4.9158815E-1,4.0776148E-1,-2.5227416E-1,-5.194793E-1,1.6012155E-2,5.4927804E-2,-3.4806482E-2,-5.4415267E-2,-4.0642746E-2,-5.362291E-2,1.1556166E-2,1.0491069E-1,1.6205989E-2,1.674293E-2,4.6795215E-2,-3.3725847E-2,4.8827343E-2,-5.5058893E-2,9.431489E-3],"categories":[],"categories_nodes":[],"categories_segments":[],"categories_sizes":[],"default_left":[0,0,0,0,0,0,0,0,0,0,0,0,0,0,0,0,0,0,0,0,0,0,0,0,0,0,0,0,0],"id":41,"left_children":[1,3,5,7,9,11,13,15,17,19,21,23,25,27,-1,-1,-1,-1,-1,-1,-1,-1,-1,-1,-1,-1,-1,-1,-1],"loss_changes":[1.4012349E2,1.3177155E1,2.0107353E1,6.747566E0,8.075055E0,1.2862423E1,6.71422E-1,1.0717265E1,1.4771042E0,5.8959556E-1,4.4774327E0,5.7462006E0,2.1915886E0,6.031356E-1,0E0,0E0,0E0,0E0,0E0,0E0,0E0,0E0,0E0,0E0,0E0,0E0,0E0,0E0,0E0],"parents":[2147483647,0,0,1,1,2,2,3,3,4,4,5,5,6,6,7,7,8,8,9,9,10,10,11,11,12,12,13,13],"right_children":[2,4,6,8,10,12,14,16,18,20,22,24,26,28,-1,-1,-1,-1,-1,-1,-1,-1,-1,-1,-1,-1,-1,-1,-1],"split_conditions":[6.3163507E-1,1.1772186E0,4.6214342E-1,2.0083854E-1,6.5617883E-1,5.2855957E-1,4.487943E-3,7.2694814E-1,4.61479E-1,4.2187697E-1,6.0495865E-1,1.5394185E-1,2.1227404E-2,1.0762291E0,1.6012155E-2,5.4927804E-2,-3.4806482E-2,-5.4415267E-2,-4.0642746E-2,-5.362291E-2,1.1556166E-2,1.0491069E-1,1.6205989E-2,1.674293E-2,4.6795215E-2,-3.3725847E-2,4.8827343E-2,-5.5058893E-2,9.431489E-3],"split_indices":[30,4,1,17,16,3,21,28,4,14,21,4,24,9,0,0,0,0,0,0,0,0,0,0,0,0,0,0,0],"split_type":[0,0,0,0,0,0,0,0,0,0,0,0,0,0,0,0,0,0,0,0,0,0,0,0,0,0,0,0,0],"sum_hessian":[1.1069979E3,6.4518396E2,4.6181393E2,6.0844586E2,3.673811E1,4.3284988E2,2.8964046E1,1.4163295E2,4.6681293E2,1.2441482E1,2.4296627E1,4.0164337E2,3.1206516E1,2.7866718E1,1.0973282E0,1.3946032E1,1.2768691E2,3.4321616E2,1.2359676E2,1.1234182E1,1.2072992E0,8.214724E0,1.6081902E1,8.120119E1,3.2044217E2,2.8482485E1,2.7240312E0,2.6620459E1,1.2462604E0],"tree_param":{"num_deleted":"0","num_feature":"32","num_nodes":"29","size_leaf_vector":"1"}},{"base_weights":[-6.551624E-2,-3.128327E-1,4.4954565E-1,-1.2770972E-1,-4.7371703E-1,-6.5039776E-2,5.355594E-1,-2.086659E-2,-3.5018447E-1,-4.885306E-1,5.8734406E-2,-5.6090165E-2,5.258422E-2,6.0064137E-1,2.9600152E-1,-6.5025114E-3,6.1031092E-2,-4.665156E-2,-3.644279E-3,-3.5208233E-2,-5.321321E-2,2.3389282E-2,-2.5607336E-2,-1.09673E-3,6.145903E-2,3.9326684E-3,6.1534584E-2],"categories":[],"categories_nodes":[],"categories_segments":[],"categories_sizes":[],"default_left":[0,0,0,0,0,0,0,0,0,0,0,0,0,0,0,0,0,0,0,0,0,0,0,0,0,0,0],"id":42,"left_children":[1,3,5,7,9,11,13,15,17,19,-1,-1,21,23,25,-1,-1,-1,-1,-1,-1,-1,-1,-1,-1,-1,-1],"loss_changes":[1.3629048E2,2.146347E1,1.5399612E1,8.012609E0,6.3586044E0,2.9811227E0,4.4609756E0,6.422251E0,3.9759169E0,2.0823975E0,0E0,0E0,2.4001155E0,1.9944916E0,5.347533E0,0E0,0E0,0E0,0E0,0E0,0E0,0E0,0E0,0E0,0E0,0E0,0E0],"parents":[2147483647,0,0,1,1,2,2,3,3,4,4,5,5,6,6,7,7,8,8,9,9,12,12,13,13,14,14],"right_children":[2,4,6,8,10,12,14,16,18,20,-1,-1,22,24,26,-1,-1,-1,-1,-1,-1,-1,-1,-1,-1,-1,-1],"split_conditions":[3.9703494E-1,2.6391166E-1,3.6192754E-1,8.07072E-1,7.1512383E-1,1.7274421E-1,6.3207287E-1,7.3291725E-1,1.2125046E0,4.1941887E-1,5.8734406E-2,-5.6090165E-2,2.8333002E-1,1.7606476E-1,1.1429584E0,-6.5025114E-3,6.1031092E-2,-4.665156E-2,-3.644279E-3,-3.5208233E-2,-5.321321E-2,2.3389282E-2,-2.5607336E-2,-1.09673E-3,6.145903E-2,3.9326684E-3,6.1534584E-2],"split_indices":[31,4,2,9,14,17,9,8,24,4,0,0,0,29,11,0,0,0,0,0,0,0,0,0,0,0,0],"split_type":[0,0,0,0,0,0,0,0,0,0,0,0,0,0,0,0,0,0,0,0,0,0,0,0,0,0,0],"sum_hessian":[1.0678204E3,7.216835E2,3.46137E2,3.3639795E2,3.852855E2,4.9606346E1,2.9653064E2,2.2799672E2,1.08401245E2,3.8051273E2,4.772784E0,8.788497E0,4.081785E1,2.3199586E2,6.45348E1,2.1392691E2,1.4069805E1,7.872438E1,2.9676863E1,9.434399E1,2.8616873E2,2.586608E1,1.4951771E1,5.1779013E0,2.2681796E2,3.6400684E1,2.813411E1],"tree_param":{"num_deleted":"0","num_feature":"32","num_nodes":"27","size_leaf_vector":"1"}},{"base_weights":[1.4386392E-1,2.2312146E-1,-4.6594465E-1,3.6411563E-1,-1.643731E-1,-6.424247E-2,-5.380401E-1,4.5427403E-1,1.2122812E-1,-3.519356E-1,1.5578336E-1,1.0929749E-1,-4.9996477E-2,-5.5364855E-2,-6.9592044E-2,5.4360565E-2,2.794984E-2,5.0930404E-3,4.768253E-2,-4.7268577E-2,-2.822567E-3,-2.1670936E-2,2.7476152E-2,4.346282E-2,-1.4180682E-2,6.5015726E-2,-4.2118922E-2],"categories":[],"categories_nodes":[],"categories_segments":[],"categories_sizes":[],"default_left":[0,0,0,0,0,0,0,0,0,0,0,0,0,0,0,0,0,0,0,0,0,0,0,0,0,0,0],"id":43,"left_children":[1,3,5,7,9,11,13,15,17,19,21,23,-1,-1,25,-1,-1,-1,-1,-1,-1,-1,-1,-1,-1,-1,-1],"loss_changes":[6.2558266E1,6.2574852E1,4.2792816E0,1.8323853E1,1.8427414E1,1.85438E0,8.83873E-1,9.398796E0,5.6893125E0,7.5399246E0,5.099479E0,1.519212E0,0E0,0E0,1.5926912E0,0E0,0E0,0E0,0E0,0E0,0E0,0E0,0E0,0E0,0E0,0E0,0E0],"parents":[2147483647,0,0,1,1,2,2,3,3,4,4,5,5,6,6,7,7,8,8,9,9,10,10,11,11,14,14],"right_children":[2,4,6,8,10,12,14,16,18,20,22,24,-1,-1,26,-1,-1,-1,-1,-1,-1,-1,-1,-1,-1,-1,-1],"split_conditions":[1.0501773E0,1.46533E0,2.83864E-1,2.4861324E-1,2.0758104E-1,1.3473729E0,9.695294E-1,1.675475E-1,8.279294E-1,5.917988E-1,2.0629607E-1,9.423849E-1,-4.9996477E-2,-5.5364855E-2,1.0999097E0,5.4360565E-2,2.794984E-2,5.0930404E-3,4.768253E-2,-4.7268577E-2,-2.822567E-3,-2.1670936E-2,2.7476152E-2,4.346282E-2,-1.4180682E-2,6.5015726E-2,-4.2118922E-2],"split_indices":[25,5,6,25,7,11,22,30,20,4,26,3,0,0,18,0,0,0,0,0,0,0,0,0,0,0,0],"split_type":[0,0,0,0,0,0,0,0,0,0,0,0,0,0,0,0,0,0,0,0,0,0,0,0,0,0,0],"sum_hessian":[1.2911956E3,1.1432412E3,1.479543E2,8.382831E2,3.0495816E2,2.280123E1,1.2515307E2,6.1071783E2,2.2756522E2,1.9223735E2,1.1272082E2,1.6842384E1,5.9588456E0,1.2094149E2,4.2115803E0,4.0275226E2,2.0796559E2,1.9095808E2,3.6607124E1,1.3967545E2,5.2561905E1,2.7089266E1,8.563155E1,7.018434E0,9.823949E0,1.1034896E0,3.1080906E0],"tree_param":{"num_deleted":"0","num_feature":"32","num_nodes":"27","size_leaf_vector":"1"}},{"base_weights":[-1.0912704E-1,-4.0207157E-1,2.876967E-1,-1.6256532E-1,-4.9134013E-1,3.636814E-1,-2.374339E-1,5.3065604E-1,-2.2894616E-1,-5.3663915E-1,-3.7109643E-1,4.1541126E-1,-2.4291176E-1,-4.7869685E-1,9.4825946E-2,-1.0793637E-2,6.2184494E-2,-4.6303883E-2,1.0166108E-2,-5.4213792E-2,2.5970448E-2,-3.9549045E-2,3.1951174E-2,4.510834E-2,-2.6081603E-3,-6.8926224E-6,-5.1133532E-2,-5.3082675E-2,5.4285105E-2,-2.026475E-2,4.5565058E-2],"categories":[],"categories_nodes":[],"categories_segments":[],"categories_sizes":[],"default_left":[0,0,0,0,0,0,0,0,0,0,0,0,0,0,0,0,0,0,0,0,0,0,0,0,0,0,0,0,0,0,0],"id":44,"left_children":[1,3,5,7,9,11,13,15,17,19,21,23,25,27,29,-1,-1,-1,-1,-1,-1,-1,-1,-1,-1,-1,-1,-1,-1,-1,-1],"loss_changes":[1.2355149E2,1.2989792E1,1.810387E1,7.827981E0,2.223755E0,1.249128E1,4.66939E0,9.369154E-1,1.192959E1,1.5458069E0,2.2315636E0,5.7476044E0,2.063621E0,2.0765605E0,2.786479E0,0E0,0E0,0E0,0E0,0E0,0E0,0E0,0E0,0E0,0E0,0E0,0E0,0E0,0E0,0E0,0E0],"parents":[2147483647,0,0,1,1,2,2,3,3,4,4,5,5,6,6,7,7,8,8,9,9,10,10,11,11,12,12,13,13,14,14],"right_children":[2,4,6,8,10,12,14,16,18,20,22,24,26,28,30,-1,-1,-1,-1,-1,-1,-1,-1,-1,-1,-1,-1,-1,-1,-1,-1],"split_conditions":[6.3163507E-1,2.0876911E-1,1.7142862E-1,7.2694814E-1,4.61479E-1,5.2855957E-1,1.1522241E0,8.376493E-2,6.2931055E-1,1.1143404E0,8.984144E-1,8.002209E-1,1.1591427E0,3.6705318E-1,2.0329672E-1,-1.0793637E-2,6.2184494E-2,-4.6303883E-2,1.0166108E-2,-5.4213792E-2,2.5970448E-2,-3.9549045E-2,3.1951174E-2,4.510834E-2,-2.6081603E-3,-6.8926224E-6,-5.1133532E-2,-5.3082675E-2,5.4285105E-2,-2.026475E-2,4.5565058E-2],"split_indices":[30,17,2,28,4,3,23,23,16,23,13,4,10,19,6,0,0,0,0,0,0,0,0,0,0,0,0,0,0,0,0],"split_type":[0,0,0,0,0,0,0,0,0,0,0,0,0,0,0,0,0,0,0,0,0,0,0,0,0,0,0,0,0,0,0],"sum_hessian":[1.0608378E3,6.102924E2,4.5054532E2,1.6647188E2,4.4382053E2,3.9386218E2,5.668316E1,1.3936596E1,1.525353E2,3.1985843E2,1.2396211E2,3.6320358E2,3.0658587E1,3.258301E1,2.4100145E1,1.7184813E0,1.2218115E1,8.906826E1,6.3467026E1,3.1798196E2,1.8764465E0,1.201456E2,3.816512E0,3.3603094E2,2.7172638E1,1.6621431E1,1.4037155E1,3.1458067E1,1.1249447E0,1.3449991E1,1.0650154E1],"tree_param":{"num_deleted":"0","num_feature":"32","num_nodes":"31","size_leaf_vector":"1"}},{"base_weights":[-6.2495332E-2,-2.8986722E-1,4.500429E-1,-9.9518694E-2,-4.6402124E-1,-1.8585627E-1,5.0916594E-1,5.309788E-3,-3.3472776E-1,-4.79085E-1,4.6464998E-1,-3.8651454E-1,4.6259835E-1,2.8011238E-2,5.461267E-1,-4.031434E-3,5.8935132E-2,-4.5328643E-2,-2.8361771E-3,-3.3421736E-2,-5.257828E-2,5.6743324E-2,-6.2948454E-4,-1.2846184E-2,-6.387187E-2,-9.256103E-3,5.931432E-2,-1.1234519E-2,7.13106E-2,5.6577403E-2,-4.344038E-3],"categories":[],"categories_nodes":[],"categories_segments":[],"categories_sizes":[],"default_left":[0,0,0,0,0,0,0,0,0,0,0,0,0,0,0,0,0,0,0,0,0,0,0,0,0,0,0,0,0,0,0],"id":45,"left_children":[1,3,5,7,9,11,13,15,17,19,21,23,25,27,29,-1,-1,-1,-1,-1,-1,-1,-1,-1,-1,-1,-1,-1,-1,-1,-1],"loss_changes":[1.19347336E2,2.3465172E1,1.1928276E1,8.388445E0,5.4000854E0,3.7580428E0,5.1108627E0,6.3193264E0,3.7964592E0,2.2913895E0,3.1410027E-1,1.3205965E0,5.590029E-1,2.1587288E0,3.1246643E0,0E0,0E0,0E0,0E0,0E0,0E0,0E0,0E0,0E0,0E0,0E0,0E0,0E0,0E0,0E0,0E0],"parents":[2147483647,0,0,1,1,2,2,3,3,4,4,5,5,6,6,7,7,8,8,9,9,10,10,11,11,12,12,13,13,14,14],"right_children":[2,4,6,8,10,12,14,16,18,20,22,24,26,28,30,-1,-1,-1,-1,-1,-1,-1,-1,-1,-1,-1,-1,-1,-1,-1,-1],"split_conditions":[4.380505E-1,2.6391166E-1,2.6438639E-2,8.07072E-1,7.3279136E-1,1.2438638E0,5.4490775E-1,7.3291725E-1,1.2125046E0,4.1941887E-1,3.6555183E-1,4.5923543E-1,2.0876911E-1,9.4611275E-1,1.8875169E0,-4.031434E-3,5.8935132E-2,-4.5328643E-2,-2.8361771E-3,-3.3421736E-2,-5.257828E-2,5.6743324E-2,-6.2948454E-4,-1.2846184E-2,-6.387187E-2,-9.256103E-3,5.931432E-2,-1.1234519E-2,7.13106E-2,5.6577403E-2,-4.344038E-3],"split_indices":[31,4,22,9,14,25,21,8,24,4,31,14,17,23,10,0,0,0,0,0,0,0,0,0,0,0,0,0,0,0,0],"split_type":[0,0,0,0,0,0,0,0,0,0,0,0,0,0,0,0,0,0,0,0,0,0,0,0,0,0,0,0,0,0,0],"sum_hessian":[1.0219979E3,7.082424E2,3.1375558E2,3.3913873E2,3.6910364E2,2.6507708E1,2.8724786E2,2.3526346E2,1.0387529E2,3.6368845E2,5.415183E0,2.055202E1,5.955687E0,2.0616783E1,2.6663107E2,2.1908032E2,1.6183132E1,7.454719E1,2.9328104E1,9.064463E1,2.7304382E2,4.276877E0,1.1383066E0,1.0904254E1,9.647766E0,1.1892419E0,4.766445E0,1.780505E1,2.811733E0,2.580712E2,8.559873E0],"tree_param":{"num_deleted":"0","num_feature":"32","num_nodes":"31","size_leaf_vector":"1"}},{"base_weights":[1.3614865E-1,2.1007828E-1,-4.549718E-1,3.4317762E-1,-1.5491924E-1,-5.8078263E-2,-5.3116345E-1,4.3173432E-1,1.1150677E-1,-4.1921103E-1,5.585905E-2,1.0811152E-1,-4.9267974E-2,-5.4797936E-2,-4.7964644E-2,5.2335363E-2,2.5879825E-2,4.479167E-3,4.542709E-2,-4.8137795E-2,4.1610535E-2,1.7650662E-2,-3.6285877E-2,6.233524E-2,-4.4999146E-3,6.365086E-2,-4.0983047E-2],"categories":[],"categories_nodes":[],"categories_segments":[],"categories_sizes":[],"default_left":[0,0,0,0,0,0,0,0,0,0,0,0,0,0,0,0,0,0,0,0,0,0,0,0,0,0,0],"id":46,"left_children":[1,3,5,7,9,11,13,15,17,19,21,23,-1,-1,25,-1,-1,-1,-1,-1,-1,-1,-1,-1,-1,-1,-1],"loss_changes":[5.460977E1,5.3950874E1,4.1720486E0,1.6637367E1,1.6576702E1,1.7510636E0,9.2015076E-1,9.181541E0,5.153632E0,7.0526695E0,8.459665E0,1.4341923E0,0E0,0E0,1.5025643E0,0E0,0E0,0E0,0E0,0E0,0E0,0E0,0E0,0E0,0E0,0E0,0E0],"parents":[2147483647,0,0,1,1,2,2,3,3,4,4,5,5,6,6,7,7,8,8,9,9,10,10,11,11,14,14],"right_children":[2,4,6,8,10,12,14,16,18,20,22,24,-1,-1,26,-1,-1,-1,-1,-1,-1,-1,-1,-1,-1,-1,-1],"split_conditions":[1.0501773E0,1.46533E0,2.83864E-1,2.4861324E-1,3.375196E-1,1.3473729E0,9.695294E-1,1.675475E-1,8.279294E-1,6.455563E-1,3.032146E0,8.9512295E-1,-4.9267974E-2,-5.4797936E-2,1.0999097E0,5.2335363E-2,2.5879825E-2,4.479167E-3,4.542709E-2,