{"learner":{"attributes":{},"feature_names":[],"feature_types":[],"gradient_booster":{"model":{"gbtree_model_param":{"num_parallel_tree":"1","num_trees":"300"},"iteration_indptr":[0,3,6,9,12,15,18,21,24,27,30,33,36,39,42,45,48,51,54,57,60,63,66,69,72,75,78,81,84,87,90,93,96,99,102,105,108,111,114,117,120,123,126,129,132,135,138,141,144,147,150,153,156,159,162,165,168,171,174,177,180,183,186,189,192,195,198,201,204,207,210,213,216,219,222,225,228,231,234,237,240,243,246,249,252,255,258,261,264,267,270,273,276,279,282,285,288,291,294,297,300],"tree_info":[0,1,2,0,1,2,0,1,2,0,1,2,0,1,2,0,1,2,0,1,2,0,1,2,0,1,2,0,1,2,0,1,2,0,1,2,0,1,2,0,1,2,0,1,2,0,1,2,0,1,2,0,1,2,0,1,2,0,1,2,0,1,2,0,1,2,0,1,2,0,1,2,0,1,2,0,1,2,0,1,2,0,1,2,0,1,2,0,1,2,0,1,2,0,1,2,0,1,2,0,1,2,0,1,2,0,1,2,0,1,2,0,1,2,0,1,2,0,1,2,0,1,2,0,1,2,0,1,2,0,1,2,0,1,2,0,1,2,0,1,2,0,1,2,0,1,2,0,1,2,0,1,2,0,1,2,0,1,2,0,1,2,0,1,2,0,1,2,0,1,2,0,1,2,0,1,2,0,1,2,0,1,2,0,1,2,0,1,2,0,1,2,0,1,2,0,1,2,0,1,2,0,1,2,0,1,2,0,1,2,0,1,2,0,1,2,0,1,2,0,1,2,0,1,2,0,1,2,0,1,2,0,1,2,0,1,2,0,1,2,0,1,2,0,1,2,0,1,2,0,1,2,0,1,2,0,1,2,0,1,2,0,1,2,0,1,2,0,1,2,0,1,2,0,1,2,0,1,2,0,1,2,0,1,2,0,1,2,0,1,2,0,1,2,0,1,2,0,1,2],"trees":[{"base_weights":[-1.3581046E-1,-5.4243004E-1,1.3355126E0,-6.086206E-1,7.5949326E-2,4.8066294E-1,1.3802067E0,-6.258811E-1,-9.041101E-2,-4.653062E-1,2.1496308E-1,8.297872E-1,-6.1224498E-2,1.1373844E0,1.4503068E0,-5.3209353E-2,-6.9123544E-2,-5.2849747E-2,3.8121544E-2,-6.292684E-2,3.0612243E-2,9.702454E-3,6.972973E-2,1.04494385E-1,3.9344262E-2,1.16599195E-1,-1.2000003E-2,2.3999998E-2,1.4573899E-1],"categories":[],"categories_nodes":[],"categories_segments":[],"categories_sizes":[],"default_left":[0,0,0,0,0,0,0,0,0,0,0,0,0,0,0,0,0,0,0,0,0,0,0,0,0,0,0,0,0],"id":0,"left_children":[1,3,5,7,9,11,13,15,17,19,21,23,-1,25,27,-1,-1,-1,-1,-1,-1,-1,-1,-1,-1,-1,-1,-1,-1],"loss_changes":[1.0330039E3,5.540753E1,1.3621643E1,1.087265E1,1.0006882E1,8.181641E0,4.3894043E0,6.8792114E0,8.580783E0,3.635839E0,5.9306355E0,1.0597E0,0E0,3.1654587E0,1.979065E0,0E0,0E0,0E0,0E0,0E0,0E0,0E0,0E0,0E0,0E0,0E0,0E0,0E0,0E0],"parents":[2147483647,0,0,1,1,2,2,3,3,4,4,5,5,6,6,7,7,8,8,9,9,10,10,11,11,13,13,14,14],"right_children":[2,4,6,8,10,12,14,16,18,20,22,24,-1,26,28,-1,-1,-1,-1,-1,-1,-1,-1,-1,-1,-1,-1,-1,-1],"split_conditions":[7.2803557E-1,3.0831406E-1,5.4293585E-1,7.000541E-1,3.0302888E-1,3.5957178E-1,9.149581E-1,4.8676267E-1,2.4882339E-1,4.3023732E-1,2.2515129E-1,6.857286E-1,-6.1224498E-2,2.4830236E0,2.0940116E-1,-5.3209353E-2,-6.9123544E-2,-5.2849747E-2,3.8121544E-2,-6.292684E-2,3.0612243E-2,9.702454E-3,6.972973E-2,1.04494385E-1,3.9344262E-2,1.16599195E-1,-1.2000003E-2,2.3999998E-2,1.4573899E-1],"split_indices":[3,3,21,28,11,19,17,29,11,21,29,23,0,14,10,0,0,0,0,0,0,0,0,0,0,0,0,0,0],"split_type":[0,0,0,0,0,0,0,0,0,0,0,0,0,0,0,0,0,0,0,0,0,0,0,0,0,0,0,0,0],"sum_hessian":[1.7244443E3,1.3515554E3,3.7288885E2,1.2208888E3,1.3066666E2,1.911111E1,3.5377777E2,1.1813333E3,3.9555553E1,2.6222221E1,1.04444435E2,1.4666666E1,4.444444E0,8.311111E1,2.7066666E2,4.8888885E2,6.924444E2,2.0444443E1,1.911111E1,2.1777777E1,4.444444E0,8.4888885E1,1.9555553E1,8.888888E0,5.7777777E0,8.133333E1,1.7777777E0,1.7777777E0,2.688889E2],"tree_param":{"num_deleted":"0","num_feature":"32","num_nodes":"29","size_leaf_vector":"1"}},{"base_weights":[3.4348634E-1,-1.9116674E-1,8.4415907E-1,-4.6778005E-1,5.651958E-1,1.0663671E0,-5.2081496E-1,-2.913703E-1,-7.155362E-1,-4.3165472E-1,8.2038534E-1,1.1576917E0,-3.356644E-1,-3.3393183E-1,-6.9191056E-1,8.465605E-3,-7.047372E-2,-7.193138E-2,-2.5544848E-9,-6.217621E-3,-7.2103016E-2,9.3943566E-2,-2.7272731E-2,1.2163389E-1,4.935305E-2,3.1578943E-2,-6.098361E-2,-4.5194812E-2,-6.629839E-3,-7.0588246E-2,-2.0689659E-2],"categories":[],"categories_nodes":[],"categories_segments":[],"categories_sizes":[],"default_left":[0,0,0,0,0,0,0,0,0,0,0,0,0,0,0,0,0,0,0,0,0,0,0,0,0,0,0,0,0,0,0],"id":1,"left_children":[1,3,5,7,9,11,13,15,17,19,21,23,25,27,29,-1,-1,-1,-1,-1,-1,-1,-1,-1,-1,-1,-1,-1,-1,-1,-1],"loss_changes":[4.6203906E2,1.7500952E2,2.7087042E2,2.6544815E1,5.7364807E1,9.856659E1,3.7800217E0,5.5896027E1,6.8626404E-1,4.9090357E0,2.352153E1,2.7449036E1,8.706335E0,1.9248037E0,2.9141998E-1,0E0,0E0,0E0,0E0,0E0,0E0,0E0,0E0,0E0,0E0,0E0,0E0,0E0,0E0,0E0,0E0],"parents":[2147483647,0,0,1,1,2,2,3,3,4,4,5,5,6,6,7,7,8,8,9,9,10,10,11,11,12,12,13,13,14,14],"right_children":[2,4,6,8,10,12,14,16,18,20,22,24,26,28,30,-1,-1,-1,-1,-1,-1,-1,-1,-1,-1,-1,-1,-1,-1,-1,-1],"split_conditions":[4.609509E-1,7.360141E-1,4.7064975E-1,9.149581E-1,1.7043948E-1,4.2448062E-1,9.036485E-1,8.0407006E-1,2.3878121E-1,1.1308322E0,5.6628215E-1,2.231468E-1,4.3023732E-1,1.4273394E0,2.3773153E0,8.465605E-3,-7.047372E-2,-7.193138E-2,-2.5544848E-9,-6.217621E-3,-7.2103016E-2,9.3943566E-2,-2.7272731E-2,1.2163389E-1,4.935305E-2,3.1578943E-2,-6.098361E-2,-4.5194812E-2,-6.629839E-3,-7.0588246E-2,-2.0689659E-2],"split_indices":[30,7,22,17,15,17,6,26,8,8,1,22,21,13,27,0,0,0,0,0,0,0,0,0,0,0,0,0,0,0,0],"split_type":[0,0,0,0,0,0,0,0,0,0,0,0,0,0,0,0,0,0,0,0,0,0,0,0,0,0,0,0,0,0,0],"sum_hessian":[1.7244443E3,8.3422217E2,8.9022217E2,6.111111E2,2.231111E2,7.657777E2,1.24444435E2,3.582222E2,2.5288887E2,4.5333332E1,1.7777777E2,7.191111E2,4.6666664E1,6.0888885E1,6.3555553E1,1.8799998E2,1.7022221E2,2.5155554E2,1.3333333E0,2.0444443E1,2.4888887E1,1.6044443E2,1.7333332E1,6.5999994E2,5.9111107E1,1.3777777E1,3.2888885E1,4.1777775E1,1.911111E1,6.133333E1,2.222222E0],"tree_param":{"num_deleted":"0","num_feature":"32","num_nodes":"31","size_leaf_vector":"1"}},{"base_weights":[-2.0767601E-1,-6.115297E-1,1.073557E0,-6.7833555E-1,-2.0523503E-1,1.2216351E0,1.3346224E-1,-6.937785E-1,-7.924533E-2,-4.3609762E-1,1.5338342E-1,7.1971494E-1,1.2930481E0,-4.873097E-1,5.0151974E-1,-6.0438108E-2,-7.320158E-2,-6.52174E-2,1.1707313E-2,2.2222219E-2,-4.879329E-2,6.719996E-3,1.2244898E-1,3.8028166E-2,1.0230415E-1,8.059701E-2,1.326062E-1,-6.1016954E-2,4.137931E-2,8.93617E-2,1.979695E-2],"categories":[],"categories_nodes":[],"categories_segments":[],"categories_sizes":[],"default_left":[0,0,0,0,0,0,0,0,0,0,0,0,0,0,0,0,0,0,0,0,0,0,0,0,0,0,0,0,0,0,0],"id":2,"left_children":[1,3,5,7,9,11,13,15,17,19,21,23,25,27,29,-1,-1,-1,-1,-1,-1,-1,-1,-1,-1,-1,-1,-1,-1,-1,-1],"loss_changes":[8.9345447E2,3.5487305E1,5.745331E1,1.036969E1,1.5530516E1,1.1881531E1,1.33692875E1,3.3120117E0,3.388159E0,3.9947968E0,6.7385187E0,4.4271545E0,3.9429321E0,2.675788E0,4.173978E0,0E0,0E0,0E0,0E0,0E0,0E0,0E0,0E0,0E0,0E0,0E0,0E0,0E0,0E0,0E0,0E0],"parents":[2147483647,0,0,1,1,2,2,3,3,4,4,5,5,6,6,7,7,8,8,9,9,10,10,11,11,12,12,13,13,14,14],"right_children":[2,4,6,8,10,12,14,16,18,20,22,24,26,28,30,-1,-1,-1,-1,-1,-1,-1,-1,-1,-1,-1,-1,-1,-1,-1,-1],"split_conditions":[5.113058E-1,1.089332E0,1.3504152E-1,2.2811058E0,3.198887E-1,6.9028395E-1,7.267708E-1,4.1452447E-1,8.271527E-1,8.4679353E-1,5.920038E-1,5.385541E-1,1.5373263E-1,3.9765164E-3,1.0069602E-1,-6.0438108E-2,-7.320158E-2,-6.52174E-2,1.1707313E-2,2.2222219E-2,-4.879329E-2,6.719996E-3,1.2244898E-1,3.8028166E-2,1.0230415E-1,8.059701E-2,1.326062E-1,-6.1016954E-2,4.137931E-2,8.93617E-2,1.979695E-2],"split_indices":[26,27,14,20,2,26,2,10,23,15,6,22,29,20,15,0,0,0,0,0,0,0,0,0,0,0,0,0,0,0,0],"split_type":[0,0,0,0,0,0,0,0,0,0,0,0,0,0,0,0,0,0,0,0,0,0,0,0,0,0,0,0,0,0,0],"sum_hessian":[1.7244443E3,1.3115554E3,4.1288885E2,1.1257777E3,1.8577777E2,3.5644443E2,5.6444443E1,1.0973333E3,2.8444443E1,1.12888885E2,7.2888885E1,4.5777775E1,3.1066666E2,2.0888887E1,3.5555553E1,3.3377777E2,7.635555E2,6.666666E0,2.1777777E1,7.9999995E0,1.04888885E2,6.844444E1,4.444444E0,2.2666666E1,2.311111E1,2.1333332E1,2.893333E2,1.8666666E1,2.222222E0,1.4666666E1,2.0888887E1],"tree_param":{"num_deleted":"0","num_feature":"32","num_nodes":"31","size_leaf_vector":"1"}},{"base_weights":[-1.2674668E-1,-5.166311E-1,1.1688999E0,-5.817355E-1,6.996652E-2,4.344508E-1,1.2059655E0,-5.989529E-1,-7.6968245E-2,-4.4566396E-1,1.984781E-1,7.5186896E-1,-6.0161542E-2,4.6661517E-1,1.2215432E0,-5.0742097E-2,-6.634464E-2,-5.0460495E-2,3.6787193E-2,-6.0771614E-2,2.8983817E-2,8.820876E-3,6.408878E-2,-3.7025101E-3,8.283575E-2,-5.098101E-2,7.744005E-2,1.0436429E-1,1.2686856E-1],"categories":[],"categories_nodes":[],"categories_segments":[],"categories_sizes":[],"default_left":[0,0,0,0,0,0,0,0,0,0,0,0,0,0,0,0,0,0,0,0,0,0,0,0,0,0,0,0,0],"id":3,"left_children":[1,3,5,7,9,11,13,15,17,19,21,23,-1,25,27,-1,-1,-1,-1,-1,-1,-1,-1,-1,-1,-1,-1,-1,-1],"loss_changes":[8.631214E2,5.0191162E1,1.0236145E1,1.0227295E1,8.840541E0,7.211321E0,3.7572021E0,6.410553E0,7.8211703E0,3.353592E0,5.135052E0,1.0068083E0,0E0,3.210965E0,1.7565918E0,0E0,0E0,0E0,0E0,0E0,0E0,0E0,0E0,0E0,0E0,0E0,0E0,0E0,0E0],"parents":[2147483647,0,0,1,1,2,2,3,3,4,4,5,5,6,6,7,7,8,8,9,9,10,10,11,11,13,13,14,14],"right_children":[2,4,6,8,10,12,14,16,18,20,22,24,-1,26,28,-1,-1,-1,-1,-1,-1,-1,-1,-1,-1,-1,-1,-1,-1],"split_conditions":[7.2803557E-1,3.0831406E-1,5.4293585E-1,7.000541E-1,3.0302888E-1,3.5957178E-1,2.880761E-1,4.8676267E-1,2.4882339E-1,5.311044E-1,2.2515129E-1,4.5745587E-1,-6.0161542E-2,2.5513038E-1,1.1271248E0,-5.0742097E-2,-6.634464E-2,-5.0460495E-2,3.6787193E-2,-6.0771614E-2,2.8983817E-2,8.820876E-3,6.408878E-2,-3.7025101E-3,8.283575E-2,-5.098101E-2,7.744005E-2,1.0436429E-1,1.2686856E-1],"split_indices":[3,3,21,28,11,19,10,29,11,24,29,7,0,0,3,0,0,0,0,0,0,0,0,0,0,0,0,0,0],"split_type":[0,0,0,0,0,0,0,0,0,0,0,0,0,0,0,0,0,0,0,0,0,0,0,0,0,0,0,0,0],"sum_hessian":[1.70644E3,1.3121812E3,3.942588E2,1.1811031E3,1.310781E2,1.9552383E1,3.747064E2,1.1419646E3,3.9138474E1,2.5658781E1,1.0541931E2,1.5176948E1,4.375436E0,8.37069E0,3.663357E2,4.756997E2,6.662649E2,1.9886602E1,1.9251871E1,2.1168495E1,4.490286E0,8.534636E1,2.0072952E1,1.3870463E0,1.3789901E1,1.84888E0,6.5218105E0,8.158769E1,2.8474802E2],"tree_param":{"num_deleted":"0","num_feature":"32","num_nodes":"29","size_leaf_vector":"1"}},{"base_weights":[3.130899E-1,-1.7880593E-1,7.519594E-1,-4.6894503E-1,4.504648E-1,9.4014627E-1,-4.9460495E-1,-2.9342905E-1,-6.787841E-1,6.7176336E-1,-4.8380134E-1,1.0159899E0,-3.5137063E-1,-3.1159714E-1,-6.650955E-1,1.0145278E-2,-6.75306E-2,-6.859151E-2,-1.2372603E-2,8.256794E-2,-2.2542693E-2,-1.4444835E-2,-7.013627E-2,1.0650859E-1,4.429495E-2,1.746928E-2,-5.8264077E-2,-4.2724784E-2,-5.391018E-3,-6.7917995E-2,-1.8983904E-2],"categories":[],"categories_nodes":[],"categories_segments":[],"categories_sizes":[],"default_left":[0,0,0,0,0,0,0,0,0,0,0,0,0,0,0,0,0,0,0,0,0,0,0,0,0,0,0,0,0,0,0],"id":4,"left_children":[1,3,5,7,9,11,13,15,17,19,21,23,25,27,29,-1,-1,-1,-1,-1,-1,-1,-1,-1,-1,-1,-1,-1,-1,-1,-1],"loss_changes":[3.7753622E2,1.5085799E2,2.172467E2,2.061811E1,5.426516E1,7.903668E1,3.595028E0,4.674684E1,9.3110657E-1,2.937175E1,3.630373E0,2.0880127E1,5.6126533E0,1.7846041E0,2.8746605E-1,0E0,0E0,0E0,0E0,0E0,0E0,0E0,0E0,0E0,0E0,0E0,0E0,0E0,0E0,0E0,0E0],"parents":[2147483647,0,0,1,1,2,2,3,3,4,4,5,5,6,6,7,7,8,8,9,9,10,10,11,11,12,12,13,13,14,14],"right_children":[2,4,6,8,10,12,14,16,18,20,22,24,26,28,30,-1,-1,-1,-1,-1,-1,-1,-1,-1,-1,-1,-1,-1,-1,-1,-1],"split_conditions":[4.609509E-1,6.621426E-1,4.7064975E-1,8.2460004E-1,6.1480916E-1,3.1524515E-1,9.036485E-1,8.0407006E-1,3.593868E-1,5.962539E-1,1.1308322E0,2.231468E-1,7.476965E-1,1.4273394E0,2.3773153E0,1.0145278E-2,-6.75306E-2,-6.859151E-2,-1.2372603E-2,8.256794E-2,-2.2542693E-2,-1.4444835E-2,-7.013627E-2,1.0650859E-1,4.429495E-2,1.746928E-2,-5.8264077E-2,-4.2724784E-2,-5.391018E-3,-6.7917995E-2,-1.8983904E-2],"split_indices":[30,7,22,17,22,21,6,26,2,23,8,22,3,13,27,0,0,0,0,0,0,0,0,0,0,0,0,0,0,0,0],"split_type":[0,0,0,0,0,0,0,0,0,0,0,0,0,0,0,0,0,0,0,0,0,0,0,0,0,0,0,0,0,0,0],"sum_hessian":[1.7472172E3,8.2411786E2,9.2309924E2,5.6422455E2,2.5989334E2,8.0223596E2,1.2086328E2,3.0854565E2,2.556789E2,2.1034915E2,4.9544193E1,7.5793964E2,4.429628E1,5.965555E1,6.1207733E1,1.5205093E2,1.5649472E2,2.5220299E2,3.4759102E0,1.7961525E2,3.0733902E1,2.0004717E1,2.9539476E1,6.973359E2,6.0603813E1,1.3601647E1,3.0694633E1,4.0721573E1,1.8933973E1,5.9029297E1,2.1784372E0],"tree_param":{"num_deleted":"0","num_feature":"32","num_nodes":"31","size_leaf_vector":"1"}},{"base_weights":[-1.945123E-1,-5.8456576E-1,9.486928E-1,-6.5111935E-1,-1.8932217E-1,1.0722679E0,1.2510827E-1,-6.666928E-1,-6.2285855E-2,-4.113617E-1,1.4572065E-1,5.585809E-1,1.1205561E0,-4.6267268E-1,4.5741883E-1,-6.9671504E-2,-5.5458486E-2,-6.2943E-2,1.269493E-2,9.535055E-3,-4.800129E-2,6.4229234E-3,1.1254586E-1,7.680136E-2,-6.0916413E-3,7.1170524E-2,1.1466453E-1,2.1298183E-2,-6.290371E-2,2.3536662E-2,9.320457E-2],"categories":[],"categories_nodes":[],"categories_segments":[],"categories_sizes":[],"default_left":[0,0,0,0,0,0,0,0,0,0,0,0,0,0,0,0,0,0,0,0,0,0,0,0,0,0,0,0,0,0,0],"id":5,"left_children":[1,3,5,7,9,11,13,15,17,19,21,23,25,27,29,-1,-1,-1,-1,-1,-1,-1,-1,-1,-1,-1,-1,-1,-1,-1,-1],"loss_changes":[7.592132E2,3.3261963E1,4.395468E1,9.9158325E0,1.3772045E1,8.714386E0,1.1472448E1,3.173767E0,3.2010374E0,3.911108E0,5.8521824E0,4.5033636E0,2.844696E0,2.530353E0,3.715147E0,0E0,0E0,0E0,0E0,0E0,0E0,0E0,0E0,0E0,0E0,0E0,0E0,0E0,0E0,0E0,0E0],"parents":[2147483647,0,0,1,1,2,2,3,3,4,4,5,5,6,6,7,7,8,8,9,9,10,10,11,11,12,12,13,13,14,14],"right_children":[2,4,6,8,10,12,14,16,18,20,22,24,26,28,30,-1,-1,-1,-1,-1,-1,-1,-1,-1,-1,-1,-1,-1,-1,-1,-1],"split_conditions":[5.113058E-1,1.089332E0,1.3504152E-1,2.2811058E0,3.198887E-1,5.385541E-1,7.267708E-1,6.3146794E-1,8.271527E-1,2.1234833E-1,5.920038E-1,9.578778E-1,1.5373263E-1,4.1967082E-1,9.8749304E-1,-6.9671504E-2,-5.5458486E-2,-6.2943E-2,1.269493E-2,9.535055E-3,-4.800129E-2,6.4229234E-3,1.1254586E-1,7.680136E-2,-6.0916413E-3,7.1170524E-2,1.1466453E-1,2.1298183E-2,-6.290371E-2,2.3536662E-2,9.320457E-2],"split_indices":[26,27,14,20,2,22,2,27,23,19,6,5,29,14,2,0,0,0,0,0,0,0,0,0,0,0,0,0,0,0,0],"split_type":[0,0,0,0,0,0,0,0,0,0,0,0,0,0,0,0,0,0,0,0,0,0,0,0,0,0,0,0,0,0,0],"sum_hessian":[1.7003672E3,1.2681664E3,4.3220074E2,1.084846E3,1.833204E2,3.7554932E2,5.6651436E1,1.0567645E3,2.8081505E1,1.1011634E2,7.320406E1,3.3349285E1,3.4220004E2,2.0319183E1,3.6332253E1,8.294302E2,2.2733432E2,6.4436107E0,2.1637894E1,1.3092455E1,9.702388E1,6.856648E1,4.637579E0,2.474428E1,8.605007E0,2.2222643E1,3.199774E2,3.95926E0,1.6359924E1,2.57712E1,1.0561051E1],"tree_param":{"num_deleted":"0","num_feature":"32","num_nodes":"31","size_leaf_vector":"1"}},{"base_weights":[-1.1887733E-1,-5.357369E-1,9.266006E-1,-4.1402358E-1,-6.3620883E-1,3.4546718E-1,1.0688007E0,-4.37574E-1,3.4071735E-1,-6.4117545E-1,-1.7587158E-1,-1.7558616E-1,4.6354654E-1,1.1052156E-1,1.0791776E0,-4.5020472E-2,7.391817E-2,5.8260407E-2,-2.683869E-2,-3.1933047E-2,-6.450182E-2,-6.062297E-2,4.4327866E-2,-5.8510542E-2,2.7448772E-2,5.6306005E-2,-1.2202623E-2,8.385323E-2,-5.5802345E-2,2.7795812E-2,1.0895776E-1],"categories":[],"categories_nodes":[],"categories_segments":[],"categories_sizes":[],"default_left":[0,0,0,0,0,0,0,0,0,0,0,0,0,0,0,0,0,0,0,0,0,0,0,0,0,0,0,0,0,0,0],"id":6,"left_children":[1,3,5,7,9,11,13,15,17,19,21,23,25,27,29,-1,-1,-1,-1,-1,-1,-1,-1,-1,-1,-1,-1,-1,-1,-1,-1],"loss_changes":[7.3246155E2,1.442807E1,3.922531E1,9.856216E0,1.3876038E0,5.9676256E0,3.703888E0,8.210953E0,2.6739483E0,5.965576E-1,2.5023744E0,3.5520663E0,4.629732E0,3.0147688E0,2.8654785E0,0E0,0E0,0E0,0E0,0E0,0E0,0E0,0E0,0E0,0E0,0E0,0E0,0E0,0E0,0E0,0E0],"parents":[2147483647,0,0,1,1,2,2,3,3,4,4,5,5,6,6,7,7,8,8,9,9,10,10,11,11,12,12,13,13,14,14],"right_children":[2,4,6,8,10,12,14,16,18,20,22,24,26,28,30,-1,-1,-1,-1,-1,-1,-1,-1,-1,-1,-1,-1,-1,-1,-1,-1],"split_conditions":[4.875564E-1,4.8676267E-1,6.820707E-1,4.1030285E-1,2.0922619E-1,9.253231E-2,4.619879E-1,5.728479E-1,8.811208E-1,6.999571E-1,6.355121E-1,4.498595E-1,4.4339412E-1,2.6362112E-1,2.589221E-1,-4.5020472E-2,7.391817E-2,5.8260407E-2,-2.683869E-2,-3.1933047E-2,-6.450182E-2,-6.062297E-2,4.4327866E-2,-5.8510542E-2,2.7448772E-2,5.6306005E-2,-1.2202623E-2,8.385323E-2,-5.5802345E-2,2.7795812E-2,1.0895776E-1],"split_indices":[3,29,21,19,11,1,17,20,24,13,0,0,28,31,10,0,0,0,0,0,0,0,0,0,0,0,0,0,0,0,0],"split_type":[0,0,0,0,0,0,0,0,0,0,0,0,0,0,0,0,0,0,0,0,0,0,0,0,0,0,0,0,0,0,0],"sum_hessian":[1.6785221E3,1.2003846E3,4.7813742E2,5.451284E2,6.552563E2,9.4671196E1,3.8346622E2,5.2904083E2,1.6087578E1,6.4787354E2,7.382782E0,1.7400469E1,7.727072E1,4.232806E0,3.7923343E2,5.240335E2,5.0073175E0,1.1545965E1,4.5416117E0,8.636507E0,6.39237E2,4.367732E0,3.0150495E0,8.953614E0,8.446856E0,6.6079475E1,1.1191246E1,1.9045672E0,2.3282387E0,5.2146764E0,3.7401874E2],"tree_param":{"num_deleted":"0","num_feature":"32","num_nodes":"31","size_leaf_vector":"1"}},{"base_weights":[2.876463E-1,4.9913818E-1,-5.63444E-1,8.1838244E-1,-5.0314647E-1,-3.2599893E-1,-6.5747577E-1,9.1071796E-1,4.6783802E-1,-5.8406997E-1,1.5742278E-1,-1.7334297E-1,-4.9025255E-1,-9.86788E-2,-6.647505E-1,9.8929755E-2,4.4489432E-2,5.4532733E-2,8.00437E-3,-4.2459693E-2,-6.8255775E-2,-2.9234106E-2,4.487784E-2,-2.532264E-2,7.65452E-2,3.899548E-2,-5.4201424E-2,-4.869332E-2,4.760046E-2,-6.686538E-2,6.3977703E-3],"categories":[],"categories_nodes":[],"categories_segments":[],"categories_sizes":[],"default_left":[0,0,0,0,0,0,0,0,0,0,0,0,0,0,0,0,0,0,0,0,0,0,0,0,0,0,0,0,0,0,0],"id":7,"left_children":[1,3,5,7,9,11,13,15,17,19,21,23,25,27,29,-1,-1,-1,-1,-1,-1,-1,-1,-1,-1,-1,-1,-1,-1,-1,-1],"loss_changes":[3.1633325E2,4.505856E2,7.599083E0,3.412384E1,1.8292992E1,2.4539185E0,9.494324E-1,3.0447266E1,6.7056046E0,4.477661E0,5.103856E0,4.245565E0,2.4086685E0,1.2097787E0,7.433777E-1,0E0,0E0,0E0,0E0,0E0,0E0,0E0,0E0,0E0,0E0,0E0,0E0,0E0,0E0,0E0,0E0],"parents":[2147483647,0,0,1,1,2,2,3,3,4,4,5,5,6,6,7,7,8,8,9,9,10,10,11,11,12,12,13,13,14,14],"right_children":[2,4,6,8,10,12,14,16,18,20,22,24,26,28,30,-1,-1,-1,-1,-1,-1,-1,-1,-1,-1,-1,-1,-1,-1,-1,-1],"split_conditions":[7.2803557E-1,5.385541E-1,9.149581E-1,2.6951164E-2,8.759187E-2,5.8168113E-1,2.589221E-1,2.94704E-1,7.0649093E-1,9.425933E-1,1.0069602E-1,1.036007E0,7.91232E-2,1.3528553E0,5.1083535E-1,9.8929755E-2,4.4489432E-2,5.4532733E-2,8.00437E-3,-4.2459693E-2,-6.8255775E-2,-2.9234106E-2,4.487784E-2,-2.532264E-2,7.65452E-2,3.899548E-2,-5.4201424E-2,-4.869332E-2,4.760046E-2,-6.686538E-2,6.3977703E-3],"split_indices":[3,22,17,22,14,19,10,3,2,6,15,21,10,3,28,0,0,0,0,0,0,0,0,0,0,0,0,0,0,0,0],"split_type":[0,0,0,0,0,0,0,0,0,0,0,0,0,0,0,0,0,0,0,0,0,0,0,0,0,0,0,0,0,0,0],"sum_hessian":[1.7548573E3,1.4059092E3,3.4894818E2,1.0664202E3,3.39489E2,1.002551E2,2.4869308E2,8.4281866E2,2.2360144E2,3.0254172E2,3.69473E1,5.30273E1,4.72278E1,3.3832092E0,2.4530988E2,7.202039E2,1.22614746E2,1.8602382E2,3.7577625E1,1.1753616E2,1.8500555E2,1.4523728E1,2.242357E1,4.9541965E1,3.485334E0,2.2601576E0,4.496764E1,2.1102343E0,1.272975E0,2.4408496E2,1.2249184E0],"tree_param":{"num_deleted":"0","num_feature":"32","num_nodes":"31","size_leaf_vector":"1"}},{"base_weights":[-1.8305151E-1,-5.599285E-1,8.510261E-1,-6.266713E-1,-1.7365992E-1,-6.7524575E-2,9.359186E-1,-6.424889E-1,-4.540771E-2,-3.8741374E-1,1.3961662E-1,-4.5810524E-1,8.501481E-1,6.820439E-1,1.0233145E0,-5.535499E-2,-6.8119615E-2,-6.0850013E-2,1.37004545E-2,1.0587755E-2,-4.558226E-2,6.2452364E-3,1.0447259E-1,-6.317006E-2,-1.228443E-2,-7.766422E-3,9.849207E-2,7.427636E-2,-2.5124779E-2,6.263801E-2,1.0528387E-1],"categories":[],"categories_nodes":[],"categories_segments":[],"categories_sizes":[],"default_left":[0,0,0,0,0,0,0,0,0,0,0,0,0,0,0,0,0,0,0,0,0,0,0,0,0,0,0,0,0,0,0],"id":8,"left_children":[1,3,5,7,9,11,13,15,17,19,21,23,25,27,29,-1,-1,-1,-1,-1,-1,-1,-1,-1,-1,-1,-1,-1,-1,-1,-1],"loss_changes":[6.506974E2,3.1430786E1,3.4845123E1,9.558136E0,1.221652E1,1.4249361E1,8.363007E0,3.11734E0,3.03131E0,3.70043E0,5.1309605E0,1.5388432E0,1.5638647E0,6.2831E0,2.8773499E0,0E0,0E0,0E0,0E0,0E0,0E0,0E0,0E0,0E0,0E0,0E0,0E0,0E0,0E0,0E0,0E0],"parents":[2147483647,0,0,1,1,2,2,3,3,4,4,5,5,6,6,7,7,8,8,9,9,10,10,11,11,12,12,13,13,14,14],"right_children":[2,4,6,8,10,12,14,16,18,20,22,24,26,28,30,-1,-1,-1,-1,-1,-1,-1,-1,-1,-1,-1,-1,-1,-1,-1,-1],"split_conditions":[5.113058E-1,1.089332E0,2.5742829E-2,2.2811058E0,3.198887E-1,7.0250833E-1,8.292325E-1,4.1452447E-1,8.271527E-1,2.1234833E-1,5.920038E-1,1.1861488E0,1.6950978E-1,5.1083535E-1,1.5373263E-1,-5.535499E-2,-6.8119615E-2,-6.0850013E-2,1.37004545E-2,1.0587755E-2,-4.558226E-2,6.2452364E-3,1.0447259E-1,-6.317006E-2,-1.228443E-2,-7.766422E-3,9.849207E-2,7.427636E-2,-2.5124779E-2,6.263801E-2,1.0528387E-1],"split_indices":[26,27,29,20,2,6,8,10,23,19,6,12,7,28,29,0,0,0,0,0,0,0,0,0,0,0,0,0,0,0,0],"split_type":[0,0,0,0,0,0,0,0,0,0,0,0,0,0,0,0,0,0,0,0,0,0,0,0,0,0,0,0,0,0,0],"sum_hessian":[1.6674308E3,1.222383E3,4.4504767E2,1.0417568E3,1.8062624E2,3.766889E1,4.0737878E2,1.0140566E3,2.7700232E1,1.0722688E2,7.3399345E1,2.677408E1,1.0894812E1,1.0658007E2,3.007987E2,3.1214087E2,7.019157E2,6.20623E0,2.1494001E1,1.2992341E1,9.423454E1,6.8618355E1,4.7809944E0,1.7057592E1,9.716487E0,1.4355848E0,9.459227E0,1.00261246E2,6.3188233E0,2.2362688E1,2.7843604E2],"tree_param":{"num_deleted":"0","num_feature":"32","num_nodes":"31","size_leaf_vector":"1"}},{"base_weights":[-1.1200291E-1,-5.122847E-1,8.387415E-1,-3.911516E-1,-6.139371E-1,3.1602633E-1,9.6578884E-1,-4.1437134E-1,3.2576662E-1,-6.189594E-1,-1.6452283E-1,1.097961E-1,5.79395E-1,9.322645E-2,9.7513366E-1,-4.2701595E-2,7.112484E-2,-1.4074584E-2,6.3724376E-2,-6.230716E-2,-2.8781611E-2,-5.900667E-2,4.292396E-2,2.5943631E-2,-4.468567E-2,3.2175183E-2,9.908558E-2,7.826802E-2,-5.5047948E-2,2.5028834E-2,9.844871E-2],"categories":[],"categories_nodes":[],"categories_segments":[],"categories_sizes":[],"default_left":[0,0,0,0,0,0,0,0,0,0,0,0,0,0,0,0,0,0,0,0,0,0,0,0,0,0,0,0,0,0,0],"id":9,"left_children":[1,3,5,7,9,11,13,15,17,19,21,23,25,27,29,-1,-1,-1,-1,-1,-1,-1,-1,-1,-1,-1,-1,-1,-1,-1,-1],"loss_changes":[6.2604614E2,1.401239E1,3.2065277E1,8.972496E0,1.3146667E0,5.1937313E0,3.1025085E0,7.629051E0,2.5911603E0,6.653595E-1,2.3499465E0,4.7405934E0,4.162731E0,2.7633207E0,2.3799744E0,0E0,0E0,0E0,0E0,0E0,0E0,0E0,0E0,0E0,0E0,0E0,0E0,0E0,0E0,0E0,0E0],"parents":[2147483647,0,0,1,1,2,2,3,3,4,4,5,5,6,6,7,7,8,8,9,9,10,10,11,11,12,12,13,13,14,14],"right_children":[2,4,6,8,10,12,14,16,18,20,22,24,26,28,30,-1,-1,-1,-1,-1,-1,-1,-1,-1,-1,-1,-1,-1,-1,-1,-1],"split_conditions":[4.875564E-1,4.8676267E-1,6.820707E-1,4.1030285E-1,2.0922619E-1,1.8297755E0,4.619879E-1,5.728479E-1,1.7914394E-1,1.2278498E0,6.355121E-1,6.621426E-1,6.048451E-1,2.6362112E-1,2.589221E-1,-4.2701595E-2,7.112484E-2,-1.4074584E-2,6.3724376E-2,-6.230716E-2,-2.8781611E-2,-5.900667E-2,4.292396E-2,2.5943631E-2,-4.468567E-2,3.2175183E-2,9.908558E-2,7.826802E-2,-5.5047948E-2,2.5028834E-2,9.844871E-2],"split_indices":[3,29,21,19,11,14,17,20,1,23,0,7,1,31,10,0,0,0,0,0,0,0,0,0,0,0,0,0,0,0,0],"split_type":[0,0,0,0,0,0,0,0,0,0,0,0,0,0,0,0,0,0,0,0,0,0,0,0,0,0,0,0,0,0,0],"sum_hessian":[1.642912E3,1.1564749E3,4.864371E2,5.2988745E2,6.265874E2,9.57944E1,3.906427E2,5.136725E2,1.6214962E1,6.192894E2,7.2979794E0,5.4519737E1,4.127467E1,4.255616E0,3.863871E2,5.0858005E2,5.0924664E0,6.7113E0,9.503662E0,6.108225E2,8.466861E0,4.254817E0,3.043162E0,4.3389614E1,1.1130123E1,2.647738E1,1.4797287E1,1.9505475E0,2.305069E0,5.2760377E0,3.8111105E2],"tree_param":{"num_deleted":"0","num_feature":"32","num_nodes":"31","size_leaf_vector":"1"}},{"base_weights":[2.6606408E-1,4.570669E-1,-5.394472E-1,7.396102E-1,-4.8038134E-1,-3.0406198E-1,-6.351404E-1,8.0875057E-1,3.6259452E-1,-5.606724E-1,1.474055E-1,-1.571815E-1,-4.6505105E-1,-9.730918E-2,-6.4246494E-1,8.7898366E-2,3.7448816E-2,2.6912928E-2,7.5761564E-2,-4.0113326E-2,-6.610566E-2,-2.7588328E-2,4.1288E-2,-2.360081E-2,7.432538E-2,3.6160726E-2,-5.160712E-2,-4.8130017E-2,4.634146E-2,-6.464877E-2,7.431604E-3],"categories":[],"categories_nodes":[],"categories_segments":[],"categories_sizes":[],"default_left":[0,0,0,0,0,0,0,0,0,0,0,0,0,0,0,0,0,0,0,0,0,0,0,0,0,0,0,0,0,0,0],"id":10,"left_children":[1,3,5,7,9,11,13,15,17,19,21,23,25,27,29,-1,-1,-1,-1,-1,-1,-1,-1,-1,-1,-1,-1,-1,-1,-1,-1],"loss_changes":[2.6958133E2,3.7530023E2,7.375046E0,2.8071167E1,1.6638245E1,2.268632E0,8.749008E-1,2.7690674E1,6.0888767E0,4.401848E0,4.38804E0,3.9582543E0,2.1577787E0,1.165179E0,7.244568E-1,0E0,0E0,0E0,0E0,0E0,0E0,0E0,0E0,0E0,0E0,0E0,0E0,0E0,0E0,0E0,0E0],"parents":[2147483647,0,0,1,1,2,2,3,3,4,4,5,5,6,6,7,7,8,8,9,9,10,10,11,11,12,12,13,13,14,14],"right_children":[2,4,6,8,10,12,14,16,18,20,22,24,26,28,30,-1,-1,-1,-1,-1,-1,-1,-1,-1,-1,-1,-1,-1,-1,-1,-1],"split_conditions":[7.2803557E-1,5.385541E-1,9.149581E-1,2.837202E-1,8.759187E-2,5.8168113E-1,2.589221E-1,3.0831406E-1,1.1767505E0,9.425933E-1,1.0069602E-1,1.036007E0,7.91232E-2,1.1800182E0,5.1083535E-1,8.7898366E-2,3.7448816E-2,2.6912928E-2,7.5761564E-2,-4.0113326E-2,-6.610566E-2,-2.7588328E-2,4.1288E-2,-2.360081E-2,7.432538E-2,3.6160726E-2,-5.160712E-2,-4.8130017E-2,4.634146E-2,-6.464877E-2,7.431604E-3],"split_indices":[3,22,17,8,14,19,10,3,7,6,15,21,10,23,28,0,0,0,0,0,0,0,0,0,0,0,0,0,0,0,0],"split_type":[0,0,0,0,0,0,0,0,0,0,0,0,0,0,0,0,0,0,0,0,0,0,0,0,0,0,0,0,0,0,0],"sum_hessian":[1.7495759E3,1.4145826E3,3.3499323E2,1.0871354E3,3.2744736E2,9.803217E1,2.3696104E2,9.176953E2,1.6944002E2,2.9041193E2,3.703545E1,5.2295788E1,4.573639E1,3.375668E0,2.3358539E2,7.8905725E2,1.2863805E2,1.3837956E2,3.1060448E1,1.1408855E2,1.7632336E2,1.4259701E1,2.277575E1,4.8764687E1,3.531099E0,2.3048196E0,4.3431572E1,2.0876577E0,1.2880104E0,2.3237927E2,1.2061033E0],"tree_param":{"num_deleted":"0","num_feature":"32","num_nodes":"31","size_leaf_vector":"1"}},{"base_weights":[-1.7293113E-1,-5.369759E-1,7.70998E-1,-6.041893E-1,-1.5908158E-1,-6.9080874E-2,8.46699E-1,-6.2036514E-1,-2.7659705E-2,-3.6529103E-1,1.3460895E-1,-4.450323E-1,7.825186E-1,5.043084E-1,9.004651E-1,-6.515667E-2,-5.0624132E-2,-5.887429E-2,1.4826474E-2,2.6595086E-2,-4.18193E-2,6.0869986E-3,9.867125E-2,-5.817135E-2,1.6018833E-4,-9.154341E-3,9.096709E-2,-4.159394E-2,5.8007013E-2,9.228771E-2,4.607461E-2],"categories":[],"categories_nodes":[],"categories_segments":[],"categories_sizes":[],"default_left":[0,0,0,0,0,0,0,0,0,0,0,0,0,0,0,0,0,0,0,0,0,0,0,0,0,0,0,0,0,0,0],"id":11,"left_children":[1,3,5,7,9,11,13,15,17,19,21,23,25,27,29,-1,-1,-1,-1,-1,-1,-1,-1,-1,-1,-1,-1,-1,-1,-1,-1],"loss_changes":[5.600674E2,2.9772064E1,2.8911774E1,9.290131E0,1.088542E1,1.2651729E1,7.2091675E0,3.126709E0,2.8791418E0,3.6305952E0,4.623474E0,1.6673336E0,1.431602E0,4.338666E0,3.1078186E0,0E0,0E0,0E0,0E0,0E0,0E0,0E0,0E0,0E0,0E0,0E0,0E0,0E0,0E0,0E0,0E0],"parents":[2147483647,0,0,1,1,2,2,3,3,4,4,5,5,6,6,7,7,8,8,9,9,10,10,11,11,12,12,13,13,14,14],"right_children":[2,4,6,8,10,12,14,16,18,20,22,24,26,28,30,-1,-1,-1,-1,-1,-1,-1,-1,-1,-1,-1,-1,-1,-1,-1,-1],"split_conditions":[5.113058E-1,1.089332E0,2.5742829E-2,2.2811058E0,3.198887E-1,9.5678663E-1,6.9028395E-1,6.3146794E-1,8.271527E-1,8.4679353E-1,5.920038E-1,5.7739335E-1,1.6950978E-1,2.1762238E-1,1.03435084E-1,-6.515667E-2,-5.0624132E-2,-5.887429E-2,1.4826474E-2,2.6595086E-2,-4.18193E-2,6.0869986E-3,9.867125E-2,-5.817135E-2,1.6018833E-4,-9.154341E-3,9.096709E-2,-4.159394E-2,5.8007013E-2,9.228771E-2,4.607461E-2],"split_indices":[26,27,29,20,2,8,26,27,23,15,6,6,7,29,14,0,0,0,0,0,0,0,0,0,0,0,0,0,0,0,0],"split_type":[0,0,0,0,0,0,0,0,0,0,0,0,0,0,0,0,0,0,0,0,0,0,0,0,0,0,0,0,0,0,0],"sum_hessian":[1.6276394E3,1.1749341E3,4.527053E2,9.9700525E2,1.7792886E2,3.742916E1,4.1527612E2,9.697214E2,2.7283875E1,1.04389725E2,7.353914E1,2.6297256E1,1.1131905E1,5.776964E1,3.5750647E2,7.578229E2,2.118985E2,5.952559E0,2.1331314E1,7.760609E0,9.662912E1,6.86682E1,4.8709435E0,1.9903769E1,6.393487E0,1.4492958E0,9.682609E0,4.0527215E0,5.3716923E1,3.3912296E2,1.8383532E1],"tree_param":{"num_deleted":"0","num_feature":"32","num_nodes":"31","size_leaf_vector":"1"}},{"base_weights":[-1.05849184E-1,-4.9268028E-1,7.618964E-1,-3.7529147E-1,-5.9033614E-1,2.0554891E-1,8.7043506E-1,-4.1464E-1,6.767488E-2,-5.944055E-1,3.0896205E-2,-5.3261228E-2,3.3418286E-1,1.914488E-1,8.925645E-1,-4.2849835E-2,6.8510965E-2,5.820298E-2,-2.4188813E-3,-5.971113E-2,-1.117868E-2,2.8240098E-2,-3.33112E-2,4.360076E-2,-2.3316491E-2,5.063951E-2,-4.6240736E-2,7.383723E-2,9.396849E-2],"categories":[],"categories_nodes":[],"categories_segments":[],"categories_sizes":[],"default_left":[0,0,0,0,0,0,0,0,0,0,0,0,0,0,0,0,0,0,0,0,0,0,0,0,0,0,0,0,0],"id":12,"left_children":[1,3,5,7,9,11,13,15,17,19,-1,21,23,25,27,-1,-1,-1,-1,-1,-1,-1,-1,-1,-1,-1,-1,-1,-1],"loss_changes":[5.380959E2,1.2487152E1,2.967099E1,8.850868E0,2.3918762E0,2.747879E0,6.0394897E0,7.380905E0,2.0059445E0,7.1813965E-1,0E0,2.732583E0,3.2741613E0,3.1828153E0,2.2124023E0,0E0,0E0,0E0,0E0,0E0,0E0,0E0,0E0,0E0,0E0,0E0,0E0,0E0,0E0],"parents":[2147483647,0,0,1,1,2,2,3,3,4,4,5,5,6,6,7,7,8,8,9,9,11,11,12,12,13,13,14,14],"right_children":[2,4,6,8,10,12,14,16,18,20,-1,22,24,26,28,-1,-1,-1,-1,-1,-1,-1,-1,-1,-1,-1,-1,-1,-1],"split_conditions":[2.8726014E-1,4.8676267E-1,7.2803557E-1,2.94704E-1,3.986871E-1,2.3525266E-1,2.880761E-1,5.728479E-1,6.75149E-1,1.4184982E-1,3.0896205E-2,4.2255363E-1,2.2393286E-1,7.917833E-1,1.1271248E0,-4.2849835E-2,6.8510965E-2,5.820298E-2,-2.4188813E-3,-5.971113E-2,-1.117868E-2,2.8240098E-2,-3.33112E-2,4.360076E-2,-2.3316491E-2,5.063951E-2,-4.6240736E-2,7.383723E-2,9.396849E-2],"split_indices":[21,29,3,3,11,17,10,20,15,1,0,3,8,13,3,0,0,0,0,0,0,0,0,0,0,0,0,0,0],"split_type":[0,0,0,0,0,0,0,0,0,0,0,0,0,0,0,0,0,0,0,0,0,0,0,0,0,0,0,0,0],"sum_hessian":[1.6009272E3,1.1076028E3,4.9332446E2,5.051827E2,6.0242004E2,8.100464E1,4.1231982E2,4.6402728E2,4.1155415E1,6.000439E2,2.3761537E0,2.7088604E1,5.3916035E1,1.3318751E1,3.9900107E2,4.5885547E2,5.1718354E0,5.427947E0,3.5727467E1,5.964626E2,3.5813355E0,1.2312033E1,1.4776571E1,4.590817E1,8.007868E0,9.1411915E0,4.177561E0,9.7294334E1,3.0170673E2],"tree_param":{"num_deleted":"0","num_feature":"32","num_nodes":"29","size_leaf_vector":"1"}},{"base_weights":[2.4740918E-1,4.2111748E-1,-5.169492E-1,6.738774E-1,-4.589842E-1,-2.8283566E-1,-6.148823E-1,7.5083333E-1,3.838229E-1,-5.385825E-1,1.3573422E-1,-3.1663153E-1,3.6642116E-1,-9.6726276E-2,-6.222909E-1,8.158067E-2,3.658524E-2,3.23021E-2,7.8252435E-2,-3.024894E-2,-6.082502E-2,-2.6137108E-2,3.777346E-2,-1.876036E-2,-5.373571E-2,-1.7229185E-2,7.8715526E-2,-4.7482964E-2,4.465065E-2,-6.2652424E-2,1.0148988E-2],"categories":[],"categories_nodes":[],"categories_segments":[],"categories_sizes":[],"default_left":[0,0,0,0,0,0,0,0,0,0,0,0,0,0,0,0,0,0,0,0,0,0,0,0,0,0,0,0,0,0,0],"id":13,"left_children":[1,3,5,7,9,11,13,15,17,19,21,23,25,27,29,-1,-1,-1,-1,-1,-1,-1,-1,-1,-1,-1,-1,-1,-1,-1,-1],"loss_changes":[2.3051746E2,3.148302E2,7.2004776E0,2.4238953E1,1.5034531E1,2.2381701E0,8.0708313E-1,2.139743E1,5.382206E0,4.4041214E0,3.7607353E0,2.5326176E0,1.3252892E0,1.1093509E0,7.45491E-1,0E0,0E0,0E0,0E0,0E0,0E0,0E0,0E0,0E0,0E0,0E0,0E0,0E0,0E0,0E0,0E0],"parents":[2147483647,0,0,1,1,2,2,3,3,4,4,5,5,6,6,7,7,8,8,9,9,10,10,11,11,12,12,13,13,14,14],"right_children":[2,4,6,8,10,12,14,16,18,20,22,24,26,28,30,-1,-1,-1,-1,-1,-1,-1,-1,-1,-1,-1,-1,-1,-1,-1,-1],"split_conditions":[7.2803557E-1,5.385541E-1,9.149581E-1,2.2981577E-2,8.759187E-2,2.4042833E0,2.589221E-1,2.94704E-1,1.1042635E0,7.829839E-1,1.0069602E-1,1.5589035E0,1.1678E0,7.9222965E-1,1.80776E-2,8.158067E-2,3.658524E-2,3.23021E-2,7.8252435E-2,-3.024894E-2,-6.082502E-2,-2.6137108E-2,3.777346E-2,-1.876036E-2,-5.373571E-2,-1.7229185E-2,7.8715526E-2,-4.7482964E-2,4.465065E-2,-6.2652424E-2,1.0148988E-2],"split_indices":[3,22,17,22,14,14,10,3,15,6,15,11,15,11,26,0,0,0,0,0,0,0,0,0,0,0,0,0,0,0,0],"split_type":[0,0,0,0,0,0,0,0,0,0,0,0,0,0,0,0,0,0,0,0,0,0,0,0,0,0,0,0,0,0,0],"sum_hessian":[1.7335062E3,1.4128667E3,3.2063947E2,1.0978152E3,3.150516E2,9.571546E1,2.24924E2,8.663663E2,2.3144884E2,2.7794525E2,3.710635E1,9.146665E1,4.248811E0,3.3687658E0,2.2155524E2,7.4030554E2,1.26060745E2,2.02394E2,2.9054852E1,6.45471E1,2.1339816E2,1.4020186E1,2.3086164E1,5.8891075E1,3.2575577E1,2.12212E0,2.1266909E0,2.0605154E0,1.3082505E0,2.204005E2,1.1547338E0],"tree_param":{"num_deleted":"0","num_feature":"32","num_nodes":"31","size_leaf_vector":"1"}},{"base_weights":[-1.6393386E-1,-5.156744E-1,7.053109E-1,-5.836668E-1,-1.4492542E-1,-1.0066207E-1,7.711287E-1,-6.0030335E-1,-9.642453E-3,-3.150167E-1,1.7895243E-1,-4.8321655E-1,7.031708E-1,5.5907863E-1,8.448669E-1,-5.084135E-2,-6.412085E-2,2.1936022E-2,-4.3814544E-2,2.2725224E-2,-3.5964765E-2,3.1156275E-2,-4.7170576E-2,-6.5186426E-2,-1.781097E-2,-1.0438314E-2,8.272578E-2,6.759976E-2,1.7577661E-2,5.241793E-3,8.5586414E-2],"categories":[],"categories_nodes":[],"categories_segments":[],"categories_sizes":[],"default_left":[0,0,0,0,0,0,0,0,0,0,0,0,0,0,0,0,0,0,0,0,0,0,0,0,0,0,0,0,0,0,0],"id":14,"left_children":[1,3,5,7,9,11,13,15,17,19,21,23,25,27,29,-1,-1,-1,-1,-1,-1,-1,-1,-1,-1,-1,-1,-1,-1,-1,-1],"loss_changes":[4.8448096E2,2.8345642E1,2.4297043E1,9.092407E0,9.758077E0,1.1211399E1,6.1293793E0,3.1540527E0,2.829021E0,2.8850813E0,5.4343467E0,1.1469512E0,1.2695165E0,4.8956947E0,2.6681519E0,0E0,0E0,0E0,0E0,0E0,0E0,0E0,0E0,0E0,0E0,0E0,0E0,0E0,0E0,0E0,0E0],"parents":[2147483647,0,0,1,1,2,2,3,3,4,4,5,5,6,6,7,7,8,8,9,9,10,10,11,11,12,12,13,13,14,14],"right_children":[2,4,6,8,10,12,14,16,18,20,22,24,26,28,30,-1,-1,-1,-1,-1,-1,-1,-1,-1,-1,-1,-1,-1,-1,-1,-1],"split_conditions":[5.113058E-1,1.089332E0,6.0065165E-3,2.2811058E0,2.3541948E-1,7.0250833E-1,8.292325E-1,4.1452447E-1,1.0556146E0,1.1045731E0,1.0178505E0,1.1861488E0,1.6950978E-1,1.4383587E0,5.5771255E-1,-5.084135E-2,-6.412085E-2,2.1936022E-2,-4.3814544E-2,2.2725224E-2,-3.5964765E-2,3.1156275E-2,-4.7170576E-2,-6.5186426E-2,-1.781097E-2,-1.0438314E-2,8.272578E-2,6.759976E-2,1.7577661E-2,5.241793E-3,8.5586414E-2],"split_indices":[26,27,29,20,26,6,8,10,18,27,15,12,7,13,18,0,0,0,0,0,0,0,0,0,0,0,0,0,0,0,0],"split_type":[0,0,0,0,0,0,0,0,0,0,0,0,0,0,0,0,0,0,0,0,0,0,0,0,0,0,0,0,0,0,0],"sum_hessian":[1.5823829E3,1.1268207E3,4.5556216E2,9.5171045E2,1.7511029E2,3.4353714E1,4.2120844E2,9.2486005E2,2.6850359E1,1.1483148E2,6.0278812E1,2.3546494E1,1.0807221E1,1.10893135E2,3.103153E2,2.89023E2,6.358371E2,1.7816732E1,9.033628E0,8.421224E0,1.06410255E2,5.0506306E1,9.772508E0,1.4432449E1,9.114043E0,1.4605832E0,9.346639E0,8.438844E1,2.6504688E1,4.3264003E0,3.0598892E2],"tree_param":{"num_deleted":"0","num_feature":"32","num_nodes":"31","size_leaf_vector":"1"}},{"base_weights":[-1.0030878E-1,-4.694089E-1,7.0900494E-1,-3.476407E-1,-5.7529014E-1,1.7245676E-1,7.985947E-1,-3.705577E-1,3.1373644E-1,-5.805527E-1,-1.3741975E-1,2.5247565E-1,-4.3813735E-1,5.088126E-1,8.435565E-1,-3.8325697E-2,6.611074E-2,5.4275017E-2,-2.6933337E-2,-5.850312E-2,-2.2832515E-2,-5.6897767E-2,4.4521596E-2,-1.9408036E-2,3.895877E-2,-6.362676E-2,1.8259652E-2,6.880202E-2,-1.9929253E-2,-8.568289E-3,8.475271E-2],"categories":[],"categories_nodes":[],"categories_segments":[],"categories_sizes":[],"default_left":[0,0,0,0,0,0,0,0,0,0,0,0,0,0,0,0,0,0,0,0,0,0,0,0,0,0,0,0,0,0,0],"id":15,"left_children":[1,3,5,7,9,11,13,15,17,19,21,23,25,27,29,-1,-1,-1,-1,-1,-1,-1,-1,-1,-1,-1,-1,-1,-1,-1,-1],"loss_changes":[4.648932E2,1.3578354E1,2.3296463E1,7.688179E0,1.2339172E0,3.581064E0,5.0101624E0,6.5853043E0,2.4525576E0,7.5453186E-1,2.2850814E0,3.9595714E0,1.1733128E0,7.572632E0,1.4004517E0,0E0,0E0,0E0,0E0,0E0,0E0,0E0,0E0,0E0,0E0,0E0,0E0,0E0,0E0,0E0,0E0],"parents":[2147483647,0,0,1,1,2,2,3,3,4,4,5,5,6,6,7,7,8,8,9,9,10,10,11,11,12,12,13,13,14,14],"right_children":[2,4,6,8,10,12,14,16,18,20,22,24,26,28,30,-1,-1,-1,-1,-1,-1,-1,-1,-1,-1,-1,-1,-1,-1,-1,-1],"split_conditions":[4.875564E-1,4.8676267E-1,5.4293585E-1,4.1030285E-1,2.0922619E-1,4.2202675E-1,9.075544E-1,5.728479E-1,8.811208E-1,1.2278498E0,6.355121E-1,7.8508E-2,6.262065E-1,8.335984E-1,1.6817895E-1,-3.8325697E-2,6.611074E-2,5.4275017E-2,-2.6933337E-2,-5.850312E-2,-2.2832515E-2,-5.6897767E-2,4.4521596E-2,-1.9408036E-2,3.895877E-2,-6.362676E-2,1.8259652E-2,6.880202E-2,-1.9929253E-2,-8.568289E-3,8.475271E-2],"split_indices":[3,29,21,19,11,28,3,20,24,23,0,1,3,0,10,0,0,0,0,0,0,0,0,0,0,0,0,0,0,0,0],"split_type":[0,0,0,0,0,0,0,0,0,0,0,0,0,0,0,0,0,0,0,0,0,0,0,0,0,0,0,0,0,0,0],"sum_hessian":[1.5541814E3,1.0676726E3,4.8650873E2,4.9857367E2,5.69099E2,7.00297E1,4.1647903E2,4.8230145E2,1.627222E1,5.620185E2,7.080477E0,6.243416E1,7.595544E0,5.759452E1,3.5888452E2,4.7705762E2,5.243837E0,1.1732981E1,4.53924E0,5.5430963E2,7.708895E0,4.081072E0,2.9994054E0,1.4569082E1,4.7865078E1,5.738776E0,1.8567675E0,4.5984985E1,1.1609536E1,1.4393934E0,3.5744513E2],"tree_param":{"num_deleted":"0","num_feature":"32","num_nodes":"31","size_leaf_vector":"1"}},{"base_weights":[2.3104927E-1,3.8976824E-1,-4.9535033E-1,6.179095E-1,-4.3894336E-1,-2.623139E-1,-5.9611905E-1,6.948718E-1,3.6487722E-1,-5.180873E-1,1.2667763E-1,-1.1775377E-1,-4.249629E-1,-9.134259E-2,-6.0370713E-1,7.552435E-2,3.396834E-2,3.0900583E-2,7.161315E-2,-3.5449684E-2,-6.2514104E-2,-2.4555016E-2,3.472234E-2,-1.974583E-2,7.5662464E-2,1.8495468E-2,-4.906944E-2,-4.6880804E-2,4.4388235E-2,-6.0814124E-2,1.15176495E-2],"categories":[],"categories_nodes":[],"categories_segments":[],"categories_sizes":[],"default_left":[0,0,0,0,0,0,0,0,0,0,0,0,0,0,0,0,0,0,0,0,0,0,0,0,0,0,0,0,0,0,0],"id":16,"left_children":[1,3,5,7,9,11,13,15,17,19,21,23,25,27,29,-1,-1,-1,-1,-1,-1,-1,-1,-1,-1,-1,-1,-1,-1,-1,-1],"loss_changes":[1.9734647E2,2.6570392E2,7.0547104E0,2.119281E1,1.3658676E1,2.1715798E0,7.629852E-1,1.7827362E1,4.8606377E0,4.4468994E0,3.2110562E0,3.7321467E0,1.8578873E0,1.0852225E0,7.40242E-1,0E0,0E0,0E0,0E0,0E0,0E0,0E0,0E0,0E0,0E0,0E0,0E0,0E0,0E0,0E0,0E0],"parents":[2147483647,0,0,1,1,2,2,3,3,4,4,5,5,6,6,7,7,8,8,9,9,10,10,11,11,12,12,13,13,14,14],"right_children":[2,4,6,8,10,12,14,16,18,20,22,24,26,28,30,-1,-1,-1,-1,-1,-1,-1,-1,-1,-1,-1,-1,-1,-1,-1,-1],"split_conditions":[7.2803557E-1,5.385541E-1,9.149581E-1,1.3412207E-1,8.759187E-2,5.8168113E-1,2.589221E-1,3.0831406E-1,1.1042635E0,9.425933E-1,1.0069602E-1,1.036007E0,7.806247E-1,1.3528553E0,5.1083535E-1,7.552435E-2,3.396834E-2,3.0900583E-2,7.161315E-2,-3.5449684E-2,-6.2514104E-2,-2.4555016E-2,3.472234E-2,-1.974583E-2,7.5662464E-2,1.8495468E-2,-4.906944E-2,-4.6880804E-2,4.4388235E-2,-6.0814124E-2,1.15176495E-2],"split_indices":[3,22,17,8,14,19,10,3,15,6,15,21,24,3,28,0,0,0,0,0,0,0,0,0,0,0,0,0,0,0,0],"split_type":[0,0,0,0,0,0,0,0,0,0,0,0,0,0,0,0,0,0,0,0,0,0,0,0,0,0,0,0,0,0,0],"sum_hessian":[1.7090146E3,1.4029354E3,3.0607925E2,1.1002853E3,3.0265012E2,9.348655E1,2.125927E2,8.423346E2,2.5795068E2,2.6557397E2,3.7076157E1,5.0408325E1,4.3078228E1,3.34159E0,2.092511E2,7.189993E2,1.2333521E2,2.2417288E2,3.37778E1,1.0675352E2,1.5882043E2,1.37522745E1,2.3323883E1,4.6906685E1,3.5016367E0,4.014471E0,3.906376E1,2.0323641E0,1.3092258E0,2.0812144E2,1.1296555E0],"tree_param":{"num_deleted":"0","num_feature":"32","num_nodes":"31","size_leaf_vector":"1"}},{"base_weights":[-1.5581474E-1,-4.9563253E-1,6.4952326E-1,-5.646522E-1,-1.3174388E-1,-1.0244789E-1,7.102721E-1,-5.818457E-1,7.6703783E-3,-3.2436162E-1,1.2777193E-1,-4.702924E-1,6.4976144E-1,5.1476264E-1,7.7887195E-1,-6.1530154E-2,-4.626017E-2,-5.6093212E-2,1.7718112E-2,2.8479159E-2,-3.7798613E-2,5.876272E-3,9.131679E-2,1.7227737E-2,-5.382333E-2,-1.161582E-2,7.688713E-2,6.111866E-2,1.0293151E-2,4.4251632E-2,8.064953E-2],"categories":[],"categories_nodes":[],"categories_segments":[],"categories_sizes":[],"default_left":[0,0,0,0,0,0,0,0,0,0,0,0,0,0,0,0,0,0,0,0,0,0,0,0,0,0,0,0,0,0,0],"id":17,"left_children":[1,3,5,7,9,11,13,15,17,19,21,23,25,27,29,-1,-1,-1,-1,-1,-1,-1,-1,-1,-1,-1,-1,-1,-1,-1,-1],"loss_changes":[4.2026855E2,2.7043274E1,2.0893799E1,8.9322815E0,8.7115965E0,9.974184E0,5.256836E0,3.2293396E0,2.7449467E0,3.3689003E0,3.990124E0,1.1425514E0,1.1745448E0,4.405279E0,2.5264587E0,0E0,0E0,0E0,0E0,0E0,0E0,0E0,0E0,0E0,0E0,0E0,0E0,0E0,0E0,0E0,0E0],"parents":[2147483647,0,0,1,1,2,2,3,3,4,4,5,5,6,6,7,7,8,8,9,9,10,10,11,11,12,12,13,13,14,14],"right_children":[2,4,6,8,10,12,14,16,18,20,22,24,26,28,30,-1,-1,-1,-1,-1,-1,-1,-1,-1,-1,-1,-1,-1,-1,-1,-1],"split_conditions":[5.113058E-1,1.089332E0,6.0065165E-3,2.2811058E0,3.198887E-1,7.0250833E-1,8.292325E-1,6.3146794E-1,8.271527E-1,8.4679353E-1,5.920038E-1,5.011628E-1,1.6950978E-1,2.2770832E-1,1.5373263E-1,-6.1530154E-2,-4.626017E-2,-5.6093212E-2,1.7718112E-2,2.8479159E-2,-3.7798613E-2,5.876272E-3,9.131679E-2,1.7227737E-2,-5.382333E-2,-1.161582E-2,7.688713E-2,6.111866E-2,1.0293151E-2,4.4251632E-2,8.064953E-2],"split_indices":[26,27,29,20,2,6,8,27,23,15,6,2,7,28,29,0,0,0,0,0,0,0,0,0,0,0,0,0,0,0,0],"split_type":[0,0,0,0,0,0,0,0,0,0,0,0,0,0,0,0,0,0,0,0,0,0,0,0,0,0,0,0,0,0,0],"sum_hessian":[1.53351E3,1.078721E3,4.5478903E2,9.062741E2,1.7244693E2,3.394305E1,4.20846E2,8.79826E2,2.6448061E1,9.883773E1,7.360919E1,2.3047281E1,1.0895768E1,1.1151949E2,3.093265E2,6.838115E2,1.9601448E2,5.5436063E0,2.0904455E1,7.648049E0,9.118968E1,6.865188E1,4.957312E0,2.0569932E0,2.0990288E1,1.4697194E0,9.426049E0,8.997027E1,2.1549229E1,2.4767296E1,2.845592E2],"tree_param":{"num_deleted":"0","num_feature":"32","num_nodes":"31","size_leaf_vector":"1"}},{"base_weights":[-9.53461E-2,-4.5237714E-1,6.552181E-1,-3.342251E-1,-5.544554E-1,3.225757E-1,7.8733754E-1,-3.7220353E-1,6.71268E-2,-5.5866194E-1,2.8054034E-2,1.5143912E-1,5.330267E-1,-4.623584E-2,7.937054E-1,-4.093554E-2,4.8578633E-3,7.736525E-2,-4.3747618E-4,-2.0174894E-2,-5.6311417E-2,2.3267042E-2,-3.2515667E-2,6.053933E-2,-1.0518391E-2,7.983018E-2,1.0803594E-2],"categories":[],"categories_nodes":[],"categories_segments":[],"categories_sizes":[],"default_left":[0,0,0,0,0,0,0,0,0,0,0,0,0,0,0,0,0,0,0,0,0,0,0,0,0,0,0],"id":18,"left_children":[1,3,5,7,9,11,13,15,17,19,-1,21,23,-1,25,-1,-1,-1,-1,-1,-1,-1,-1,-1,-1,-1,-1],"loss_changes":[4.0368433E2,1.2124802E1,2.1089432E1,7.274536E0,2.074768E0,4.9525023E0,3.1275482E0,6.8146286E0,2.1231918E0,7.503052E-1,0E0,3.1136222E0,2.9400463E0,0E0,1.0026245E0,0E0,0E0,0E0,0E0,0E0,0E0,0E0,0E0,0E0,0E0,0E0,0E0],"parents":[2147483647,0,0,1,1,2,2,3,3,4,4,5,5,6,6,7,7,8,8,9,9,11,11,12,12,14,14],"right_children":[2,4,6,8,10,12,14,16,18,20,-1,22,24,-1,26,-1,-1,-1,-1,-1,-1,-1,-1,-1,-1,-1,-1],"split_conditions":[2.8726014E-1,4.8676267E-1,7.398635E-1,2.94704E-1,3.986871E-1,7.2803557E-1,1.3333565E-1,7.000541E-1,3.177568E-1,6.999571E-1,2.8054034E-2,6.895565E-1,4.8998198E-1,-4.623584E-2,5.125541E-1,-4.093554E-2,4.8578633E-3,7.736525E-2,-4.3747618E-4,-2.0174894E-2,-5.6311417E-2,2.3267042E-2,-3.2515667E-2,6.053933E-2,-1.0518391E-2,7.983018E-2,1.0803594E-2],"split_indices":[21,29,17,3,11,3,10,28,3,13,0,3,27,0,28,0,0,0,0,0,0,0,0,0,0,0,0],"split_type":[0,0,0,0,0,0,0,0,0,0,0,0,0,0,0,0,0,0,0,0,0,0,0,0,0,0,0],"sum_hessian":[1.5043208E3,1.01967535E3,4.846455E2,4.746076E2,5.4506775E2,1.3875017E2,3.4589536E2,4.336459E2,4.096168E1,5.4266486E2,2.4028907E0,7.7471085E1,6.127908E1,1.3905615E0,3.445048E2,3.984895E2,3.5156414E1,2.8619475E0,3.8099735E1,7.256577E0,5.3540826E2,6.662695E1,1.0844133E1,5.5084484E1,6.194596E0,3.420476E2,2.4571695E0],"tree_param":{"num_deleted":"0","num_feature":"32","num_nodes":"27","size_leaf_vector":"1"}},{"base_weights":[2.1653555E-1,3.519692E-1,-5.28743E-1,5.427608E-1,-4.4761902E-1,-3.4224674E-1,-5.794483E-1,5.898226E-1,9.370573E-2,-5.263648E-1,9.306325E-2,-3.9705566E-1,6.982105E-2,1.41670825E-2,-5.840254E-1,6.652727E-2,2.3908759E-2,4.8090186E-2,5.292437E-4,-3.1646546E-2,-5.8532048E-2,4.1316114E-2,-1.5979318E-2,-8.657012E-3,-5.1190462E-2,-8.077494E-3,-5.920103E-2],"categories":[],"categories_nodes":[],"categories_segments":[],"categories_sizes":[],"default_left":[0,0,0,0,0,0,0,0,0,0,0,0,0,0,0,0,0,0,0,0,0,0,0,0,0,0,0],"id":19,"left_children":[1,3,5,7,9,11,13,15,17,19,21,23,-1,-1,25,-1,-1,-1,-1,-1,-1,-1,-1,-1,-1,-1,-1],"loss_changes":[1.6963547E2,2.1705745E2,2.2466965E0,2.420337E1,1.1729397E1,3.568419E0,7.489548E-1,2.7330902E1,3.7657745E0,2.77993E0,2.95761E0,1.9334354E0,0E0,0E0,7.5894165E-1,0E0,0E0,0E0,0E0,0E0,0E0,0E0,0E0,0E0,0E0,0E0,0E0],"parents":[2147483647,0,0,1,1,2,2,3,3,4,4,5,5,6,6,7,7,8,8,9,9,10,10,11,11,14,14],"right_children":[2,4,6,8,10,12,14,16,18,20,22,24,-1,-1,26,-1,-1,-1,-1,-1,-1,-1,-1,-1,-1,-1,-1],"split_conditions":[6.678661E-1,6.955071E-1,9.149581E-1,4.875564E-1,1.03435084E-1,2.4830236E0,3.1373E-1,1.3158365E-1,2.064553E-1,8.0336857E-1,3.3185506E-1,2.7652863E-2,6.982105E-2,1.41670825E-2,2.589221E-1,6.652727E-2,2.3908759E-2,4.8090186E-2,5.292437E-4,-3.1646546E-2,-5.8532048E-2,4.1316114E-2,-1.5979318E-2,-8.657012E-3,-5.1190462E-2,-8.077494E-3,-5.920103E-2],"split_indices":[17,26,17,3,14,14,15,6,17,6,14,30,0,0,10,0,0,0,0,0,0,0,0,0,0,0,0],"split_type":[0,0,0,0,0,0,0,0,0,0,0,0,0,0,0,0,0,0,0,0,0,0,0,0,0,0,0],"sum_hessian":[1.6777834E3,1.4202249E3,2.5755865E2,1.1468851E3,2.7333966E2,5.6713543E1,2.0084512E2,1.0378075E3,1.0907765E2,2.3861401E2,3.4725628E1,5.4462944E1,2.2505999E0,1.0778399E0,1.9976729E2,8.533403E2,1.8446724E2,1.9451727E1,8.962592E1,5.372063E1,1.8489339E2,1.5045342E1,1.9680286E1,1.5179655E1,3.9283287E1,3.293746E0,1.9647354E2],"tree_param":{"num_deleted":"0","num_feature":"32","num_nodes":"27","size_leaf_vector":"1"}},{"base_weights":[-1.4836708E-1,-4.7672716E-1,6.0208607E-1,-5.470066E-1,-1.18650004E-1,-1.0279879E-1,6.5871465E-1,-5.648326E-1,2.5129218E-2,-2.7667058E-1,1.6664423E-1,-4.564442E-1,6.04165E-1,3.898371E-1,7.0230836E-1,-4.6776243E-2,-6.0923915E-2,2.4443474E-2,-4.0316775E-2,2.6657969E-2,-3.2261048E-2,2.7624557E-2,-5.179291E-2,-6.283816E-2,-1.5763644E-2,-1.27150705E-2,7.197883E-2,4.3763436E-2,-6.775447E-2,7.241449E-2,3.3689294E-2],"categories":[],"categories_nodes":[],"categories_segments":[],"categories_sizes":[],"default_left":[0,0,0,0,0,0,0,0,0,0,0,0,0,0,0,0,0,0,0,0,0,0,0,0,0,0,0,0,0,0,0],"id":20,"left_children":[1,3,5,7,9,11,13,15,17,19,21,23,25,27,29,-1,-1,-1,-1,-1,-1,-1,-1,-1,-1,-1,-1,-1,-1,-1,-1],"loss_changes":[3.6566217E2,2.59057E1,1.8099884E1,8.809753E0,7.7368774E0,8.890841E0,4.62912E0,3.3203125E0,2.6360452E0,2.8352785E0,4.752377E0,1.1102519E0,1.0994425E0,3.3884096E0,2.618103E0,0E0,0E0,0E0,0E0,0E0,0E0,0E0,0E0,0E0,0E0,0E0,0E0,0E0,0E0,0E0,0E0],"parents":[2147483647,0,0,1,1,2,2,3,3,4,4,5,5,6,6,7,7,8,8,9,9,10,10,11,11,12,12,13,13,14,14],"right_children":[2,4,6,8,10,12,14,16,18,20,22,24,26,28,30,-1,-1,-1,-1,-1,-1,-1,-1,-1,-1,-1,-1,-1,-1,-1,-1],"split_conditions":[5.113058E-1,1.089332E0,6.0065165E-3,2.2811058E0,2.3541948E-1,7.0250833E-1,6.9028395E-1,4.1452447E-1,1.0556146E0,1.1045731E0,1.3385828E0,1.1861488E0,1.6950978E-1,1.0119784E0,1.03435084E-1,-4.6776243E-2,-6.0923915E-2,2.4443474E-2,-4.0316775E-2,2.6657969E-2,-3.2261048E-2,2.7624557E-2,-5.179291E-2,-6.283816E-2,-1.5763644E-2,-1.27150705E-2,7.197883E-2,4.3763436E-2,-6.775447E-2,7.241449E-2,3.3689294E-2],"split_indices":[26,27,29,20,26,6,26,10,18,27,30,12,7,2,14,0,0,0,0,0,0,0,0,0,0,0,0,0,0,0,0],"split_type":[0,0,0,0,0,0,0,0,0,0,0,0,0,0,0,0,0,0,0,0,0,0,0,0,0,0,0,0,0,0,0],"sum_hessian":[1.4817402E3,1.0309944E3,4.507459E2,8.614006E2,1.6959383E2,3.345829E1,4.172876E2,8.353852E2,2.6015375E1,1.0916117E2,6.043265E1,2.2538292E1,1.0919999E1,5.960406E1,3.5768356E2,2.6582962E2,5.6955554E2,1.7489384E1,8.5259905E0,8.136954E0,1.01024216E2,5.26067E1,7.825951E0,1.3606181E1,8.932112E0,1.4771771E0,9.442822E0,5.76141E1,1.9899603E0,3.3658804E2,2.1095518E1],"tree_param":{"num_deleted":"0","num_feature":"32","num_nodes":"31","size_leaf_vector":"1"}},{"base_weights":[-9.0742275E-2,-4.33253E-1,6.1195505E-1,-3.139808E-1,-5.3834635E-1,2.9921558E-1,7.3945916E-1,-3.517099E-1,7.246569E-2,-5.4261434E-1,2.6271025E-2,1.4205302E-1,4.9397215E-1,-4.6124835E-2,7.457858E-1,2.0274596E-2,-3.7895616E-2,7.441222E-2,2.8512825E-4,-5.4737657E-2,-1.7200869E-2,2.2068134E-2,-3.2203447E-2,5.63696E-2,-1.1498048E-2,7.503006E-2,9.00023E-3],"categories":[],"categories_nodes":[],"categories_segments":[],"categories_sizes":[],"default_left":[0,0,0,0,0,0,0,0,0,0,0,0,0,0,0,0,0,0,0,0,0,0,0,0,0,0,0],"id":21,"left_children":[1,3,5,7,9,11,13,15,17,19,-1,21,23,-1,25,-1,-1,-1,-1,-1,-1,-1,-1,-1,-1,-1,-1],"loss_changes":[3.5012967E2,1.2088348E1,1.87901E1,6.738804E0,1.9150391E0,4.2077246E0,2.9116669E0,6.416477E0,1.9515587E0,8.165741E-1,0E0,2.944675E0,2.6977577E0,0E0,9.290924E-1,0E0,0E0,0E0,0E0,0E0,0E0,0E0,0E0,0E0,0E0,0E0,0E0],"parents":[2147483647,0,0,1,1,2,2,3,3,4,4,5,5,6,6,7,7,8,8,9,9,11,11,12,12,14,14],"right_children":[2,4,6,8,10,12,14,16,18,20,-1,22,24,-1,26,-1,-1,-1,-1,-1,-1,-1,-1,-1,-1,-1,-1],"split_conditions":[2.8726014E-1,4.8676267E-1,7.398635E-1,2.94704E-1,3.986871E-1,7.2803557E-1,1.3333565E-1,2.3987398E-2,3.177568E-1,1.2278498E0,2.6271025E-2,6.895565E-1,4.8998198E-1,-4.6124835E-2,5.125541E-1,2.0274596E-2,-3.7895616E-2,7.441222E-2,2.8512825E-4,-5.4737657E-2,-1.7200869E-2,2.2068134E-2,-3.2203447E-2,5.63696E-2,-1.1498048E-2,7.503006E-2,9.00023E-3],"split_indices":[21,29,17,3,11,3,10,7,3,23,0,3,27,0,28,0,0,0,0,0,0,0,0,0,0,0,0],"split_type":[0,0,0,0,0,0,0,0,0,0,0,0,0,0,0,0,0,0,0,0,0,0,0,0,0,0,0],"sum_hessian":[1.452642E3,9.768745E2,4.7576752E2,4.5943805E2,5.1743646E2,1.387619E2,3.370056E2,4.1865433E2,4.078373E1,5.150151E2,2.421357E0,7.774969E1,6.1012215E1,1.3895179E0,3.356161E2,1.9307558E1,3.9934677E2,2.920157E0,3.7863575E1,5.0801022E2,7.0048637E0,6.693386E1,1.0815825E1,5.4810814E1,6.201404E0,3.3317816E2,2.4379165E0],"tree_param":{"num_deleted":"0","num_feature":"32","num_nodes":"27","size_leaf_vector":"1"}},{"base_weights":[2.0340012E-1,3.2805517E-1,-5.1020765E-1,5.090578E-1,-4.0168095E-1,-3.2042333E-1,-5.63485E-1,5.5379254E-1,9.067742E-2,-9.558425E-2,-5.4545337E-1,-3.7540287E-1,6.78799E-2,-5.68309E-1,1.5481951E-2,6.1628163E-2,2.4369193E-2,1.9210763E-2,-1.9411856E-2,-2.9400343E-2,1.7065665E-2,-3.6548417E-2,-5.976538E-2,-6.568204E-3,-4.919813E-2,-6.8098493E-3,-5.7669062E-2],"categories":[],"categories_nodes":[],"categories_segments":[],"categories_sizes":[],"default_left":[0,0,0,0,0,0,0,0,0,0,0,0,0,0,0,0,0,0,0,0,0,0,0,0,0,0,0],"id":22,"left_children":[1,3,5,7,9,11,13,15,17,19,21,23,-1,25,-1,-1,-1,-1,-1,-1,-1,-1,-1,-1,-1,-1,-1],"loss_changes":[1.4635245E2,1.8506859E2,2.2943687E0,2.094696E1,1.2213745E1,3.3296413E0,7.456589E-1,1.9485687E1,3.2022488E0,4.8197975E0,1.5611763E0,1.9064388E0,0E0,7.520714E-1,0E0,0E0,0E0,0E0,0E0,0E0,0E0,0E0,0E0,0E0,0E0,0E0,0E0],"parents":[2147483647,0,0,1,1,2,2,3,3,4,4,5,5,6,6,7,7,8,8,9,9,10,10,11,11,13,13],"right_children":[2,4,6,8,10,12,14,16,18,20,22,24,-1,26,-1,-1,-1,-1,-1,-1,-1,-1,-1,-1,-1,-1,-1],"split_conditions":[6.678661E-1,5.385541E-1,9.149581E-1,4.875564E-1,7.829839E-1,2.4830236E0,1.80776E-2,2.837202E-1,8.235285E-1,1.022736E-1,9.425933E-1,2.7652863E-2,6.78799E-2,2.589221E-1,1.5481951E-2,6.1628163E-2,2.4369193E-2,1.9210763E-2,-1.9411856E-2,-2.9400343E-2,1.7065665E-2,-3.6548417E-2,-5.976538E-2,-6.568204E-3,-4.919813E-2,-6.8098493E-3,-5.7669062E-2],"split_indices":[17,22,17,3,6,14,26,8,3,16,6,30,0,10,0,0,0,0,0,0,0,0,0,0,0,0,0],"split_type":[0,0,0,0,0,0,0,0,0,0,0,0,0,0,0,0,0,0,0,0,0,0,0,0,0,0,0],"sum_hessian":[1.6423633E3,1.3985933E3,2.4377E2,1.1208755E3,2.7771783E2,5.4970108E1,1.887999E2,1.01231177E3,1.0856369E2,8.928711E1,1.8843073E2,5.269501E1,2.2750983E0,1.8774783E2,1.0520616E0,8.417096E2,1.7060217E2,8.0292816E1,2.8270868E1,5.1099976E1,3.8187138E1,4.4165367E1,1.4426535E2,1.4837839E1,3.785717E1,3.2444568E0,1.8450337E2],"tree_param":{"num_deleted":"0","num_feature":"32","num_nodes":"27","size_leaf_vector":"1"}},{"base_weights":[-1.4150296E-1,-4.586982E-1,5.606808E-1,-5.304801E-1,-1.06054224E-1,6.053705E-1,-2.2586359E-1,-5.4898834E-1,4.002983E-2,1.6803083E-1,-2.623618E-1,4.4249305E-1,6.799125E-1,-5.355615E-1,5.9420604E-1,-5.855251E-2,-4.2276334E-2,-5.3687375E-2,2.028255E-2,6.6782365E-4,6.72658E-2,2.8801987E-2,-3.0969614E-2,5.2005358E-2,3.7939814E-3,3.207448E-2,6.991554E-2,1.1846743E-2,-5.847745E-2,8.5918926E-2,2.1343967E-3],"categories":[],"categories_nodes":[],"categories_segments":[],"categories_sizes":[],"default_left":[0,0,0,0,0,0,0,0,0,0,0,0,0,0,0,0,0,0,0,0,0,0,0,0,0,0,0,0,0,0,0],"id":23,"left_children":[1,3,5,7,9,11,13,15,17,19,21,23,25,27,29,-1,-1,-1,-1,-1,-1,-1,-1,-1,-1,-1,-1,-1,-1,-1,-1],"loss_changes":[3.1876694E2,2.4892792E1,1.5793625E1,8.666336E0,7.238992E0,4.8197174E0,6.585226E0,3.4096832E0,2.6123748E0,5.0113125E0,2.8856235E0,4.2249813E0,1.7625732E0,6.6271734E-1,1.080426E0,0E0,0E0,0E0,0E0,0E0,0E0,0E0,0E0,0E0,0E0,0E0,0E0,0E0,0E0,0E0,0E0],"parents":[2147483647,0,0,1,1,2,2,3,3,4,4,5,5,6,6,7,7,8,8,9,9,10,10,11,11,12,12,13,13,14,14],"right_children":[2,4,6,8,10,12,14,16,18,20,22,24,26,28,30,-1,-1,-1,-1,-1,-1,-1,-1,-1,-1,-1,-1,-1,-1,-1,-1],"split_conditions":[5.113058E-1,1.089332E0,5.0631255E-1,2.2811058E0,8.376506E-1,7.70953E-1,8.819202E-1,6.3146794E-1,8.271527E-1,7.826115E-1,1.1045731E0,5.1083535E-1,9.8603314E-1,5.011628E-1,8.4733015E-1,-5.855251E-2,-4.2276334E-2,-5.3687375E-2,2.028255E-2,6.6782365E-4,6.72658E-2,2.8801987E-2,-3.0969614E-2,5.2005358E-2,3.7939814E-3,3.207448E-2,6.991554E-2,1.1846743E-2,-5.847745E-2,8.5918926E-2,2.1343967E-3],"split_indices":[26,27,14,20,15,6,8,27,23,30,27,28,13,2,16,0,0,0,0,0,0,0,0,0,0,0,0,0,0,0,0],"split_type":[0,0,0,0,0,0,0,0,0,0,0,0,0,0,0,0,0,0,0,0,0,0,0,0,0,0,0,0,0,0,0],"sum_hessian":[1.4290303E3,9.846047E2,4.444256E2,8.176625E2,1.669422E2,4.2074988E2,2.3675735E1,7.920063E2,2.5656223E1,6.0601894E1,1.0634031E2,1.3427945E2,2.864704E2,1.7437445E1,6.2382903E0,6.113948E2,1.806115E2,5.1407967E0,2.0515427E1,4.6687103E1,1.3914789E1,8.018628E0,9.832168E1,1.12437546E2,2.1841908E1,1.54660425E1,2.7100436E2,1.1217966E0,1.6315649E1,3.9235795E0,2.3147106E0],"tree_param":{"num_deleted":"0","num_feature":"32","num_nodes":"31","size_leaf_vector":"1"}},{"base_weights":[-8.6466424E-2,-4.1482982E-1,5.7418805E-1,-2.9436427E-1,-5.2321535E-1,2.781362E-1,6.986715E-1,-3.493135E-1,-3.292009E-2,-5.3016436E-1,1.7663406E-2,1.3514566E-1,4.5708272E-1,-4.5994177E-2,7.050222E-1,-3.938566E-2,9.026995E-3,-9.082212E-3,6.201321E-2,-5.351887E-2,-1.5218872E-2,-5.3975422E-2,5.2391835E-2,2.1095043E-2,-3.155845E-2,-1.6067846E-2,5.2314676E-2,7.09513E-2,7.343363E-3],"categories":[],"categories_nodes":[],"categories_segments":[],"categories_sizes":[],"default_left":[0,0,0,0,0,0,0,0,0,0,0,0,0,0,0,0,0,0,0,0,0,0,0,0,0,0,0,0,0],"id":24,"left_children":[1,3,5,7,9,11,13,15,17,19,21,23,25,-1,27,-1,-1,-1,-1,-1,-1,-1,-1,-1,-1,-1,-1,-1,-1],"loss_changes":[3.04173E2,1.2073135E1,1.6963928E1,6.3929634E0,1.8572998E0,3.5071516E0,2.7310638E0,7.2465096E0,3.0257115E0,8.404541E-1,2.3158197E0,2.7640238E0,2.5952244E0,0E0,8.7171936E-1,0E0,0E0,0E0,0E0,0E0,0E0,0E0,0E0,0E0,0E0,0E0,0E0,0E0,0E0],"parents":[2147483647,0,0,1,1,2,2,3,3,4,4,5,5,6,6,7,7,8,8,9,9,10,10,11,11,12,12,14,14],"right_children":[2,4,6,8,10,12,14,16,18,20,22,24,26,-1,28,-1,-1,-1,-1,-1,-1,-1,-1,-1,-1,-1,-1,-1,-1],"split_conditions":[2.8726014E-1,4.8676267E-1,7.398635E-1,1.2314795E-1,3.0302888E-1,7.2803557E-1,1.3333565E-1,7.000541E-1,6.758064E-2,1.2278498E0,3.6499985E-3,6.895565E-1,2.589221E-1,-4.5994177E-2,5.125541E-1,-3.938566E-2,9.026995E-3,-9.082212E-3,6.201321E-2,-5.351887E-2,-1.5218872E-2,-5.3975422E-2,5.2391835E-2,2.1095043E-2,-3.155845E-2,-1.6067846E-2,5.2314676E-2,7.09513E-2,7.343363E-3],"split_indices":[21,29,17,3,11,3,10,28,20,23,31,3,10,0,28,0,0,0,0,0,0,0,0,0,0,0,0,0,0],"split_type":[0,0,0,0,0,0,0,0,0,0,0,0,0,0,0,0,0,0,0,0,0,0,0,0,0,0,0,0,0],"sum_hessian":[1.4000425E3,9.3546356E2,4.6457895E2,4.4480215E2,4.9066138E2,1.3847832E2,3.2610062E2,3.67274E2,7.7528175E1,4.8445706E2,6.204343E0,7.794786E1,6.053045E1,1.3883381E0,3.2471228E2,3.335766E2,3.3697395E1,7.200488E1,5.523294E0,4.776913E2,6.765723E0,2.921463E0,3.2828798E0,6.718117E1,1.0766693E1,5.709455E0,5.4820995E1,3.222973E2,2.414987E0],"tree_param":{"num_deleted":"0","num_feature":"32","num_nodes":"29","size_leaf_vector":"1"}},{"base_weights":[1.9136773E-1,3.0636764E-1,-4.9252385E-1,4.6656305E-1,-4.120886E-1,-2.9930088E-1,-5.4860836E-1,2.6153293E-1,5.486572E-1,-4.9191156E-1,8.475197E-2,-3.5449073E-1,6.612194E-2,1.6624456E-2,-5.537057E-1,1.1281991E-2,4.571431E-2,5.9691977E-2,2.143009E-2,-3.6679454E-2,-6.077801E-2,3.6428887E-2,-1.9936679E-2,-4.526026E-3,-4.7309414E-2,-5.650476E-3,-5.6252625E-2],"categories":[],"categories_nodes":[],"categories_segments":[],"categories_sizes":[],"default_left":[0,0,0,0,0,0,0,0,0,0,0,0,0,0,0,0,0,0,0,0,0,0,0,0,0,0,0],"id":25,"left_children":[1,3,5,7,9,11,13,15,17,19,21,23,-1,-1,25,-1,-1,-1,-1,-1,-1,-1,-1,-1,-1,-1,-1],"loss_changes":[1.2631177E2,1.5831148E2,2.3423233E0,1.8772476E1,9.996483E0,3.1093621E0,7.408905E-1,9.351221E0,1.2807297E1,2.9143867E0,2.8998842E0,1.8834381E0,0E0,0E0,7.4460983E-1,0E0,0E0,0E0,0E0,0E0,0E0,0E0,0E0,0E0,0E0,0E0,0E0],"parents":[2147483647,0,0,1,1,2,2,3,3,4,4,5,5,6,6,7,7,8,8,9,9,10,10,11,11,14,14],"right_children":[2,4,6,8,10,12,14,16,18,20,22,24,-1,-1,26,-1,-1,-1,-1,-1,-1,-1,-1,-1,-1,-1,-1],"split_conditions":[6.678661E-1,6.955071E-1,9.149581E-1,8.747392E-1,1.03435084E-1,2.4830236E0,3.1373E-1,4.7637564E-1,2.94704E-1,1.3958538E0,3.8176212E-1,2.7652863E-2,6.612194E-2,1.6624456E-2,2.589221E-1,1.1281991E-2,4.571431E-2,5.9691977E-2,2.143009E-2,-3.6679454E-2,-6.077801E-2,3.6428887E-2,-1.9936679E-2,-4.526026E-3,-4.7309414E-2,-5.650476E-3,-5.6252625E-2],"split_indices":[17,26,17,15,14,14,15,16,3,12,14,30,0,0,10,0,0,0,0,0,0,0,0,0,0,0,0],"split_type":[0,0,0,0,0,0,0,0,0,0,0,0,0,0,0,0,0,0,0,0,0,0,0,0,0,0,0],"sum_hessian":[1.6031311E3,1.372834E3,2.3029712E2,1.1228262E3,2.5000784E2,5.32334E1,1.7706372E2,3.2223364E2,8.005925E2,2.1540979E2,3.459806E1,5.0937553E1,2.2958467E0,1.0298023E0,1.7603392E2,1.8395683E2,1.3827682E2,6.989216E2,1.01670975E2,1.0557428E2,1.098355E2,1.7297419E1,1.730064E1,1.4503832E1,3.643372E1,3.197565E0,1.7283635E2],"tree_param":{"num_deleted":"0","num_feature":"32","num_nodes":"27","size_leaf_vector":"1"}},{"base_weights":[-1.3496035E-1,-4.4136667E-1,5.241579E-1,-5.1492757E-1,-9.324481E-2,-1.0835486E-1,5.751332E-1,-5.341781E-1,5.4708097E-2,1.0816077E-1,-2.924054E-1,-4.3533033E-1,5.2510405E-1,4.05492E-1,6.3759923E-1,-4.3093257E-2,-5.8301408E-2,-5.226737E-2,2.1113537E-2,-2.8290942E-3,4.5287278E-2,-3.5411205E-2,3.2656528E-2,1.7493477E-2,-5.0450414E-2,-1.7216561E-2,6.4257324E-2,5.1900234E-2,6.666593E-3,3.2110445E-2,6.651751E-2],"categories":[],"categories_nodes":[],"categories_segments":[],"categories_sizes":[],"default_left":[0,0,0,0,0,0,0,0,0,0,0,0,0,0,0,0,0,0,0,0,0,0,0,0,0,0,0,0,0,0,0],"id":26,"left_children":[1,3,5,7,9,11,13,15,17,19,21,23,25,27,29,-1,-1,-1,-1,-1,-1,-1,-1,-1,-1,-1,-1,-1,-1,-1,-1],"loss_changes":[2.783206E2,2.4037292E1,1.4166275E1,8.541306E0,6.6618814E0,7.1602E0,4.0328064E0,3.535141E0,2.4841104E0,3.9127738E0,3.3003035E0,1.0431108E0,1.0809503E0,4.262724E0,2.3543625E0,0E0,0E0,0E0,0E0,0E0,0E0,0E0,0E0,0E0,0E0,0E0,0E0,0E0,0E0,0E0,0E0],"parents":[2147483647,0,0,1,1,2,2,3,3,4,4,5,5,6,6,7,7,8,8,9,9,10,10,11,11,12,12,13,13,14,14],"right_children":[2,4,6,8,10,12,14,16,18,20,22,24,26,28,30,-1,-1,-1,-1,-1,-1,-1,-1,-1,-1,-1,-1,-1,-1,-1,-1],"split_conditions":[5.113058E-1,1.089332E0,6.0065165E-3,2.2811058E0,9.346577E-1,7.0250833E-1,8.292325E-1,4.1452447E-1,8.271527E-1,2.9020749E-2,3.2976153E-1,5.011628E-1,1.6950978E-1,1.4273394E0,1.5373263E-1,-4.3093257E-2,-5.8301408E-2,-5.226737E-2,2.1113537E-2,-2.8290942E-3,4.5287278E-2,-3.5411205E-2,3.2656528E-2,1.7493477E-2,-5.0450414E-2,-1.7216561E-2,6.4257324E-2,5.1900234E-2,6.666593E-3,3.2110445E-2,6.651751E-2],"split_indices":[26,27,29,20,15,6,8,10,23,12,2,2,7,13,29,0,0,0,0,0,0,0,0,0,0,0,0,0,0,0,0],"split_type":[0,0,0,0,0,0,0,0,0,0,0,0,0,0,0,0,0,0,0,0,0,0,0,0,0,0,0,0,0,0,0],"sum_hessian":[1.3759658E3,9.395328E2,4.364331E2,7.7523944E2,1.6429333E2,3.246573E1,4.0396738E2,7.499573E2,2.5282122E1,8.191345E1,8.237989E1,2.1619211E1,1.0846518E1,1.1073415E2,2.9323325E2,2.4397888E2,5.0597842E2,4.890328E0,2.0391792E1,5.9341484E1,2.2571962E1,7.5300865E1,7.0790205E0,2.0453966E0,1.9573814E1,1.4967194E0,9.349798E0,8.254795E1,2.8186203E1,2.4514835E1,2.687184E2],"tree_param":{"num_deleted":"0","num_feature":"32","num_nodes":"31","size_leaf_vector":"1"}},{"base_weights":[-8.242957E-2,-3.9717746E-1,5.4089206E-1,-2.7576378E-1,-5.088866E-1,2.6017317E-1,6.6332304E-1,-2.9073048E-1,6.9183177E-1,-5.187316E-1,-1.11521415E-1,1.9999644E-1,6.5416384E-1,-4.5810603E-2,6.697454E-1,-3.469802E-2,-3.246113E-3,2.3875167E-3,8.425375E-2,-1.23811355E-2,-5.240665E-2,-4.4105608E-2,6.55329E-2,2.9344348E-2,-1.988781E-2,-1.3627742E-2,7.333606E-2,6.813208E-2,3.5458263E-2],"categories":[],"categories_nodes":[],"categories_segments":[],"categories_sizes":[],"default_left":[0,0,0,0,0,0,0,0,0,0,0,0,0,0,0,0,0,0,0,0,0,0,0,0,0,0,0,0,0],"id":27,"left_children":[1,3,5,7,9,11,13,15,17,19,21,23,25,-1,27,-1,-1,-1,-1,-1,-1,-1,-1,-1,-1,-1,-1,-1,-1],"loss_changes":[2.6477213E2,1.202034E1,1.5392166E1,6.454674E0,1.7643127E0,3.1689348E0,2.5733185E0,6.17675E0,6.718106E-1,8.9216614E-1,3.4566703E0,4.612334E0,1.2267771E0,0E0,9.014282E-1,0E0,0E0,0E0,0E0,0E0,0E0,0E0,0E0,0E0,0E0,0E0,0E0,0E0,0E0],"parents":[2147483647,0,0,1,1,2,2,3,3,4,4,5,5,6,6,7,7,8,8,9,9,10,10,11,11,12,12,14,14],"right_children":[2,4,6,8,10,12,14,16,18,20,22,24,26,-1,28,-1,-1,-1,-1,-1,-1,-1,-1,-1,-1,-1,-1,-1,-1],"split_conditions":[2.8726014E-1,4.8676267E-1,7.398635E-1,5.427023E-1,2.0922619E-1,6.1335224E-1,1.3333565E-1,1.2314795E-1,6.237247E-1,6.999571E-1,5.447588E-1,8.369535E-1,3.7034136E-1,-4.5810603E-2,4.5288345E-1,-3.469802E-2,-3.246113E-3,2.3875167E-3,8.425375E-2,-1.23811355E-2,-5.240665E-2,-4.4105608E-2,6.55329E-2,2.9344348E-2,-1.988781E-2,-1.3627742E-2,7.333606E-2,6.813208E-2,3.5458263E-2],"split_indices":[21,29,17,20,11,1,10,3,13,13,0,0,24,0,28,0,0,0,0,0,0,0,0,0,0,0,0,0,0],"split_type":[0,0,0,0,0,0,0,0,0,0,0,0,0,0,0,0,0,0,0,0,0,0,0,0,0,0,0,0,0],"sum_hessian":[1.3474807E3,8.956052E2,4.5187543E2,4.3082324E2,4.6478198E2,1.381773E2,3.1369812E2,4.249497E2,5.873558E0,4.5324704E2,1.1534966E1,1.211768E2,1.70005E1,1.3858061E0,3.1231232E2,3.4866812E2,7.628158E1,1.294502E0,4.579056E0,6.3639445E0,4.468831E2,8.365116E0,3.1698506E0,9.839052E1,2.2786291E1,1.4825729E0,1.5517927E1,3.001273E2,1.2185025E1],"tree_param":{"num_deleted":"0","num_feature":"32","num_nodes":"29","size_leaf_vector":"1"}},{"base_weights":[1.8046322E-1,2.8628287E-1,-4.783277E-1,4.3946272E-1,-3.6844957E-1,-3.1725127E-1,-5.479157E-1,4.8080477E-1,7.036946E-2,-1.4048338E-1,-5.619523E-1,8.028178E-2,-4.0536642E-1,-5.711155E-1,-1.8603386E-1,5.399063E-2,2.0915598E-2,4.0640946E-2,-6.388315E-4,-2.6309524E-2,2.1178825E-2,-4.4677854E-2,-5.960088E-2,-3.4462925E-2,7.6202296E-2,4.838737E-2,-4.4855386E-2,-5.8485605E-2,-2.6954865E-2,-3.434511E-2,6.5479696E-2],"categories":[],"categories_nodes":[],"categories_segments":[],"categories_sizes":[],"default_left":[0,0,0,0,0,0,0,0,0,0,0,0,0,0,0,0,0,0,0,0,0,0,0,0,0,0,0,0,0,0,0],"id":28,"left_children":[1,3,5,7,9,11,13,15,17,19,21,23,25,27,29,-1,-1,-1,-1,-1,-1,-1,-1,-1,-1,-1,-1,-1,-1,-1,-1],"loss_changes":[1.0910177E2,1.352904E2,2.2551117E0,1.663443E1,1.1213814E1,2.405706E0,1.1526375E0,1.565535E1,2.8708806E0,5.1899247E0,2.7553177E-1,4.065227E0,2.3531542E0,4.2424774E-1,1.6169093E0,0E0,0E0,0E0,0E0,0E0,0E0,0E0,0E0,0E0,0E0,0E0,0E0,0E0,0E0,0E0,0E0],"parents":[2147483647,0,0,1,1,2,2,3,3,4,4,5,5,6,6,7,7,8,8,9,9,10,10,11,11,12,12,13,13,14,14],"right_children":[2,4,6,8,10,12,14,16,18,20,22,24,26,28,30,-1,-1,-1,-1,-1,-1,-1,-1,-1,-1,-1,-1,-1,-1,-1,-1],"split_conditions":[6.718515E-1,5.385541E-1,1.2781056E0,4.875564E-1,9.036485E-1,2.7652863E-2,4.5288345E-1,2.7240705E-1,2.064553E-1,3.8718155E-1,1.3341826E0,8.088303E-1,2.5513038E-1,5.497962E-1,4.1188127E-1,5.399063E-2,2.0915598E-2,4.0640946E-2,-6.388315E-4,-2.6309524E-2,2.1178825E-2,-4.4677854E-2,-5.960088E-2,-3.4462925E-2,7.6202296E-2,4.838737E-2,-4.4855386E-2,-5.8485605E-2,-2.6954865E-2,-3.434511E-2,6.5479696E-2],"split_indices":[17,22,24,3,6,30,28,8,17,31,12,15,0,4,4,0,0,0,0,0,0,0,0,0,0,0,0,0,0,0,0],"split_type":[0,0,0,0,0,0,0,0,0,0,0,0,0,0,0,0,0,0,0,0,0,0,0,0,0,0,0,0,0,0,0],"sum_hessian":[1.5620482E3,1.346353E3,2.156953E2,1.0913514E3,2.5500153E2,6.674909E1,1.489462E2,9.811504E2,1.1020104E2,1.1786748E2,1.3713405E2,1.2126971E1,5.4622124E1,1.3942938E2,9.516814E0,8.050183E2,1.7613211E2,1.969278E1,9.050826E1,8.762264E1,3.0244837E1,3.451807E1,1.0261598E2,7.775313E0,4.3516583E0,2.0573208E0,5.2564804E1,1.3245483E2,6.9745517E0,8.514327E0,1.0024868E0],"tree_param":{"num_deleted":"0","num_feature":"32","num_nodes":"31","size_leaf_vector":"1"}},{"base_weights":[-1.29118E-1,-4.34271E-1,4.7323957E-1,-2.6425502E-1,-5.653537E-1,6.845885E-2,5.5716604E-1,-3.2774696E-1,9.821709E-2,-1.7404762E-1,-5.6889045E-1,2.4649338E-1,-3.6334446E-1,3.5879E-1,6.109024E-1,-3.811624E-2,9.477258E-3,2.2491664E-2,-4.5815703E-2,-4.893093E-2,6.803353E-2,-5.706658E-2,-9.072155E-3,3.7663836E-2,-1.411591E-2,3.824486E-2,-4.2855613E-2,1.5772445E-3,4.5123003E-2,3.167565E-2,6.397076E-2],"categories":[],"categories_nodes":[],"categories_segments":[],"categories_sizes":[],"default_left":[0,0,0,0,0,0,0,0,0,0,0,0,0,0,0,0,0,0,0,0,0,0,0,0,0,0,0,0,0,0,0],"id":29,"left_children":[1,3,5,7,9,11,13,15,17,19,21,23,25,27,29,-1,-1,-1,-1,-1,-1,-1,-1,-1,-1,-1,-1,-1,-1,-1,-1],"loss_changes":[2.4352293E2,1.944339E1,1.5099289E1,8.883677E0,5.8677673E-1,6.059872E0,3.7135773E0,7.427826E0,4.198491E0,1.9165597E0,3.6476135E-1,2.8574908E0,1.2862136E0,2.5631094E0,2.2449265E0,0E0,0E0,0E0,0E0,0E0,0E0,0E0,0E0,0E0,0E0,0E0,0E0,0E0,0E0,0E0,0E0],"parents":[2147483647,0,0,1,1,2,2,3,3,4,4,5,5,6,6,7,7,8,8,9,9,10,10,11,11,12,12,13,13,14,14],"right_children":[2,4,6,8,10,12,14,16,18,20,22,24,26,28,30,-1,-1,-1,-1,-1,-1,-1,-1,-1,-1,-1,-1,-1,-1,-1,-1],"split_conditions":[4.4627747E-1,3.14356E-1,1.31788E0,2.3541948E-1,3.7964302E-1,1.0278927E0,8.164116E-1,8.271527E-1,8.1532896E-2,9.139772E-1,5.030953E-1,2.3869978E-1,5.4318726E-1,3.1198734E-1,1.5373263E-1,-3.811624E-2,9.477258E-3,2.2491664E-2,-4.5815703E-2,-4.893093E-2,6.803353E-2,-5.706658E-2,-9.072155E-3,3.7663836E-2,-1.411591E-2,3.824486E-2,-4.2855613E-2,1.5772445E-3,4.5123003E-2,3.167565E-2,6.397076E-2],"split_indices":[26,10,27,26,15,7,26,23,16,13,22,10,16,30,29,0,0,0,0,0,0,0,0,0,0,0,0,0,0,0,0],"split_type":[0,0,0,0,0,0,0,0,0,0,0,0,0,0,0,0,0,0,0,0,0,0,0,0,0,0,0,0,0,0,0],"sum_hessian":[1.3227352E3,8.78147E2,4.4458826E2,3.836124E2,4.9453455E2,7.666165E1,3.679266E2,3.265147E2,5.7097706E1,4.87949E0,4.8965506E2,5.458511E1,2.2076544E1,8.0057846E1,2.8786877E2,2.89956E2,3.6558704E1,4.6992214E1,1.0105493E1,3.8764138E0,1.0030763E0,4.8765106E2,2.0039883E0,4.0886776E1,1.3698334E1,1.3839754E0,2.069257E1,1.7243382E1,6.281447E1,2.6746054E1,2.611227E2],"tree_param":{"num_deleted":"0","num_feature":"32","num_nodes":"31","size_leaf_vector":"1"}},{"base_weights":[-7.855962E-2,-3.7980825E-1,5.1037997E-1,-2.5729695E-1,-4.951508E-1,2.7238926E-1,6.5036386E-1,-2.73709E-1,5.9979105E-1,-5.053186E-1,-1.0382592E-1,9.788799E-2,3.9143232E-1,6.55897E-1,-9.985387E-3,-3.3047102E-2,-2.0202643E-3,-3.7362155E-2,8.138633E-2,-5.110046E-2,-9.754627E-3,-4.292115E-2,6.293665E-2,-2.1589579E-2,2.4063881E-2,4.384712E-2,-1.6229106E-2,5.485397E-4,6.605259E-2],"categories":[],"categories_nodes":[],"categories_segments":[],"categories_sizes":[],"default_left":[0,0,0,0,0,0,0,0,0,0,0,0,0,0,0,0,0,0,0,0,0,0,0,0,0,0,0,0,0],"id":30,"left_children":[1,3,5,7,9,11,13,15,17,19,21,23,25,27,-1,-1,-1,-1,-1,-1,-1,-1,-1,-1,-1,-1,-1,-1,-1],"loss_changes":[2.3023738E2,1.2002548E1,1.4455315E1,6.0489044E0,1.7024612E0,3.376501E0,1.2104797E0,5.909952E0,2.0073042E0,9.4628143E-1,3.2351656E0,3.0977821E0,2.6077776E0,8.211365E-1,0E0,0E0,0E0,0E0,0E0,0E0,0E0,0E0,0E0,0E0,0E0,0E0,0E0,0E0,0E0],"parents":[2147483647,0,0,1,1,2,2,3,3,4,4,5,5,6,6,7,7,8,8,9,9,10,10,11,11,12,12,13,13],"right_children":[2,4,6,8,10,12,14,16,18,20,22,24,26,28,-1,-1,-1,-1,-1,-1,-1,-1,-1,-1,-1,-1,-1,-1,-1],"split_conditions":[2.8726014E-1,4.8676267E-1,8.2460004E-1,4.9404803E-1,2.0922619E-1,5.4293585E-1,5.125541E-1,1.2314795E-1,6.0630685E-1,1.2278498E0,5.447588E-1,2.0662248E-1,2.3878121E-1,2.0940116E-1,-9.985387E-3,-3.3047102E-2,-2.0202643E-3,-3.7362155E-2,8.138633E-2,-5.110046E-2,-9.754627E-3,-4.292115E-2,6.293665E-2,-2.1589579E-2,2.4063881E-2,4.384712E-2,-1.6229106E-2,5.485397E-4,6.605259E-2],"split_indices":[21,29,17,20,11,21,28,3,13,23,0,30,8,10,0,0,0,0,0,0,0,0,0,0,0,0,0,0,0],"split_type":[0,0,0,0,0,0,0,0,0,0,0,0,0,0,0,0,0,0,0,0,0,0,0,0,0,0,0,0,0],"sum_hessian":[1.2956246E3,8.5740717E2,4.382174E2,4.1734955E2,4.4005765E2,1.6338599E2,2.7483142E2,4.101759E2,7.1736403E0,4.286293E2,1.1428351E1,6.699805E1,9.638793E1,2.729441E2,1.8873489E0,3.3488824E2,7.5287636E1,1.1588593E0,6.014781E0,4.22485E2,6.1443048E0,8.202666E0,3.2256856E0,2.0788963E1,4.6209087E1,8.903272E1,7.355207E0,1.9442129E0,2.7099988E2],"tree_param":{"num_deleted":"0","num_feature":"32","num_nodes":"29","size_leaf_vector":"1"}},{"base_weights":[1.7031917E-1,2.6816806E-1,-4.6169993E-1,4.0437245E-1,-3.7962088E-1,-3.1442797E-1,-5.4561466E-1,2.6389286E-1,5.055859E-1,-9.093854E-2,-5.119271E-1,3.952011E-2,-4.0961927E-1,7.5811364E-2,-5.5975765E-1,1.3746291E-2,4.056656E-2,5.5714894E-2,1.3433521E-2,-3.140175E-2,1.4859035E-2,-3.358384E-2,-5.6267053E-2,-3.608948E-2,4.9859684E-2,3.9338317E-2,-4.4847656E-2,-3.526621E-2,5.2233126E-2,-5.6752652E-2,1.9781375E-2],"categories":[],"categories_nodes":[],"categories_segments":[],"categories_sizes":[],"default_left":[0,0,0,0,0,0,0,0,0,0,0,0,0,0,0,0,0,0,0,0,0,0,0,0,0,0,0,0,0,0,0],"id":31,"left_children":[1,3,5,7,9,11,13,15,17,19,21,23,25,27,29,-1,-1,-1,-1,-1,-1,-1,-1,-1,-1,-1,-1,-1,-1,-1,-1],"loss_changes":[9.416118E1,1.1638757E2,2.3523102E0,1.5350296E1,8.714691E0,2.5932894E0,1.1738739E0,8.155828E0,1.2020737E1,3.9636855E0,1.214592E0,3.32752E0,2.059969E0,9.0078694E-1,8.5378265E-1,0E0,0E0,0E0,0E0,0E0,0E0,0E0,0E0,0E0,0E0,0E0,0E0,0E0,0E0,0E0,0E0],"parents":[2147483647,0,0,1,1,2,2,3,3,4,4,5,5,6,6,7,7,8,8,9,9,10,10,11,11,12,12,13,13,14,14],"right_children":[2,4,6,8,10,12,14,16,18,20,22,24,26,28,30,-1,-1,-1,-1,-1,-1,-1,-1,-1,-1,-1,-1,-1,-1,-1,-1],"split_conditions":[6.718515E-1,6.955071E-1,1.3814707E0,1.0264605E0,7.829839E-1,2.7652863E-2,4.0113106E-1,4.7637564E-1,7.5221044E-1,3.077185E-1,9.425933E-1,5.7751316E-1,2.5513038E-1,4.2316085E-1,6.218673E-1,1.3746291E-2,4.056656E-2,5.5714894E-2,1.3433521E-2,-3.140175E-2,1.4859035E-2,-3.358384E-2,-5.6267053E-2,-3.608948E-2,4.9859684E-2,3.9338317E-2,-4.4847656E-2,-3.526621E-2,5.2233126E-2,-5.6752652E-2,1.9781375E-2],"split_indices":[17,26,24,15,6,30,19,16,23,28,6,0,0,0,4,0,0,0,0,0,0,0,0,0,0,0,0,0,0,0,0],"split_type":[0,0,0,0,0,0,0,0,0,0,0,0,0,0,0,0,0,0,0,0,0,0,0,0,0,0,0,0,0,0,0],"sum_hessian":[1.5195978E3,1.3163733E3,2.0322458E2,1.0879882E3,2.283851E2,7.548824E1,1.27736336E2,4.5712585E2,6.3086224E2,7.230606E1,1.5607904E2,1.6123047E1,5.9365196E1,2.7454183E0,1.2499092E2,2.4267923E2,2.1444664E2,5.534877E2,7.7374626E1,3.727758E1,3.502848E1,3.6619846E1,1.194592E2,8.725969E0,7.3970776E0,2.3189673E0,5.7046227E1,1.5082877E0,1.2371306E0,1.2397046E2,1.0204562E0],"tree_param":{"num_deleted":"0","num_feature":"32","num_nodes":"31","size_leaf_vector":"1"}},{"base_weights":[-1.2354186E-1,-4.4448048E-1,3.977067E-1,-2.8703183E-1,-5.560191E-1,-6.6198476E-2,4.9133727E-1,-3.3624768E-1,1.1137597E-1,-5.578904E-1,-7.6987543E-3,1.3386175E-1,-4.4536752E-1,5.451443E-1,2.0739748E-1,-1.9712223E-2,-4.630256E-2,-2.943029E-2,2.7127877E-2,-5.782901E-2,-4.9501542E-2,2.261755E-2,-5.4804545E-2,-5.178937E-2,5.354513E-2,-4.8739087E-2,5.5209514E-2,2.6500303E-2,-7.024235E-2],"categories":[],"categories_nodes":[],"categories_segments":[],"categories_sizes":[],"default_left":[0,0,0,0,0,0,0,0,0,0,0,0,0,0,0,0,0,0,0,0,0,0,0,0,0,0,0,0,0],"id":32,"left_children":[1,3,5,7,9,11,13,15,17,19,-1,21,23,25,27,-1,-1,-1,-1,-1,-1,-1,-1,-1,-1,-1,-1,-1,-1],"loss_changes":[2.1294019E2,1.3672607E1,2.11073E1,6.48201E0,3.693695E-1,6.307411E0,6.056671E0,5.0728264E0,2.4727464E0,3.012085E-1,0E0,3.5663197E0,2.3173552E0,2.7012177E0,3.6425917E0,0E0,0E0,0E0,0E0,0E0,0E0,0E0,0E0,0E0,0E0,0E0,0E0,0E0,0E0],"parents":[2147483647,0,0,1,1,2,2,3,3,4,4,5,5,6,6,7,7,8,8,9,9,11,11,12,12,13,13,14,14],"right_children":[2,4,6,8,10,12,14,16,18,20,-1,22,24,26,28,-1,-1,-1,-1,-1,-1,-1,-1,-1,-1,-1,-1,-1,-1],"split_conditions":[2.9934052E-1,3.0316654E-1,1.2276653E0,8.271527E-1,4.7383645E-1,9.698984E-1,1.1109135E0,1.193712E0,6.7967457E-1,5.8258414E-1,-7.6987543E-3,6.430963E-1,7.161265E-1,2.4610244E-1,5.5913072E-2,-1.9712223E-2,-4.630256E-2,-2.943029E-2,2.7127877E-2,-5.782901E-2,-4.9501542E-2,2.261755E-2,-5.4804545E-2,-5.178937E-2,5.354513E-2,-4.8739087E-2,5.5209514E-2,2.6500303E-2,-7.024235E-2],"split_indices":[26,10,27,23,8,7,20,15,18,30,0,11,6,8,16,0,0,0,0,0,0,0,0,0,0,0,0,0,0],"split_type":[0,0,0,0,0,0,0,0,0,0,0,0,0,0,0,0,0,0,0,0,0,0,0,0,0,0,0,0,0],"sum_hessian":[1.2708331E3,7.866383E2,4.841948E2,3.2767026E2,4.5896802E2,8.1363174E1,4.0283163E2,2.9178204E2,3.588821E1,4.570181E2,1.9499223E0,5.368462E1,2.7678553E1,3.3788242E2,6.494921E1,1.403345E2,1.5144754E2,9.908781E0,2.5979427E1,3.3887372E2,1.1814439E2,4.78722E1,5.81242E0,2.6212278E1,1.466275E0,1.7971485E0,3.3608527E2,6.174833E1,3.200881E0],"tree_param":{"num_deleted":"0","num_feature":"32","num_nodes":"29","size_leaf_vector":"1"}},{"base_weights":[-7.463296E-2,-3.605981E-1,4.8936763E-1,-2.3322414E-1,-4.8699063E-1,1.7137255E-1,5.841982E-1,2.2042026E-1,-2.6301324E-1,-4.9330074E-1,-8.124711E-2,7.836327E-2,5.8602494E-1,4.2479214E-1,6.3630503E-1,-8.040226E-3,5.5958163E-2,-3.3130955E-2,-3.1559833E-3,-7.6072635E-3,-4.9919434E-2,-5.293584E-2,4.6369836E-2,1.6170278E-2,-4.1326992E-2,-5.285536E-2,7.5017385E-2,4.7897466E-2,-2.1689158E-2,1.2514482E-2,6.4405195E-2],"categories":[],"categories_nodes":[],"categories_segments":[],"categories_sizes":[],"default_left":[0,0,0,0,0,0,0,0,0,0,0,0,0,0,0,0,0,0,0,0,0,0,0,0,0,0,0,0,0,0,0],"id":33,"left_children":[1,3,5,7,9,11,13,15,17,19,21,23,25,27,29,-1,-1,-1,-1,-1,-1,-1,-1,-1,-1,-1,-1,-1,-1,-1,-1],"loss_changes":[2.011435E2,1.3206741E1,1.2554573E1,5.6528473E0,1.0208511E0,3.72636E0,2.4112015E0,2.7033844E0,6.1380043E0,9.6487427E-1,2.0874052E0,3.3874989E0,3.6469111E0,2.9736195E0,8.748932E-1,0E0,0E0,0E0,0E0,0E0,0E0,0E0,0E0,0E0,0E0,0E0,0E0,0E0,0E0,0E0,0E0],"parents":[2147483647,0,0,1,1,2,2,3,3,4,4,5,5,6,6,7,7,8,8,9,9,10,10,11,11,12,12,13,13,14,14],"right_children":[2,4,6,8,10,12,14,16,18,20,22,24,26,28,30,-1,-1,-1,-1,-1,-1,-1,-1,-1,-1,-1,-1,-1,-1,-1,-1],"split_conditions":[4.875564E-1,4.8676267E-1,6.820707E-1,8.186781E-2,2.0922619E-1,6.0751015E-1,9.149581E-1,6.1291236E-1,9.324078E-2,6.999571E-1,6.355121E-1,8.369535E-1,1.8297755E0,2.4042833E0,2.589221E-1,-8.040226E-3,5.5958163E-2,-3.3130955E-2,-3.1559833E-3,-7.6072635E-3,-4.9919434E-2,-5.293584E-2,4.6369836E-2,1.6170278E-2,-4.1326992E-2,-5.285536E-2,7.5017385E-2,4.7897466E-2,-2.1689158E-2,1.2514482E-2,6.4405195E-2],"split_indices":[3,29,21,7,11,1,17,9,3,13,0,0,14,14,10,0,0,0,0,0,0,0,0,0,0,0,0,0,0,0,0],"split_type":[0,0,0,0,0,0,0,0,0,0,0,0,0,0,0,0,0,0,0,0,0,0,0,0,0,0,0,0,0,0,0],"sum_hessian":[1.2450404E3,8.263944E2,4.18646E2,4.130163E2,4.133781E2,9.681238E1,3.2183362E2,2.5055681E1,3.8796063E2,4.0683524E2,6.5428796E0,8.0046425E1,1.6765959E1,8.153942E1,2.4029419E2,1.3682654E1,1.1373026E1,2.9923285E2,8.872777E1,5.8604474E0,4.009748E2,3.606138E0,2.9367414E0,6.90179E1,1.10285225E1,1.8672546E0,1.4898705E1,7.542431E1,6.115115E0,3.8434894E0,2.364507E2],"tree_param":{"num_deleted":"0","num_feature":"32","num_nodes":"31","size_leaf_vector":"1"}},{"base_weights":[1.609712E-1,2.514948E-1,-4.456266E-1,3.7737614E-1,-3.6369184E-1,-2.748474E-1,-5.2376896E-1,2.4325083E-1,4.7568652E-1,-1.4293168E-1,-5.396473E-1,1.0921809E-1,-3.6557037E-1,-5.499477E-1,-1.4454344E-1,1.2683401E-2,3.7550595E-2,5.26163E-2,1.1289625E-2,-2.7645275E-2,1.7953074E-2,-4.10584E-2,-5.782873E-2,-3.1404834E-2,7.344296E-2,4.590802E-2,-4.103827E-2,-5.6546878E-2,-2.2835601E-2,-3.8549326E-2,4.1338198E-2],"categories":[],"categories_nodes":[],"categories_segments":[],"categories_sizes":[],"default_left":[0,0,0,0,0,0,0,0,0,0,0,0,0,0,0,0,0,0,0,0,0,0,0,0,0,0,0,0,0,0,0],"id":34,"left_children":[1,3,5,7,9,11,13,15,17,19,21,23,25,27,29,-1,-1,-1,-1,-1,-1,-1,-1,-1,-1,-1,-1,-1,-1,-1,-1],"loss_changes":[8.130914E1,9.982783E1,2.4232903E0,1.3981842E1,8.436659E0,2.217472E0,1.2198334E0,6.9462776E0,1.1219055E1,4.293743E0,3.6901474E-1,3.5945144E0,2.0650716E0,4.8017883E-1,1.4778616E0,0E0,0E0,0E0,0E0,0E0,0E0,0E0,0E0,0E0,0E0,0E0,0E0,0E0,0E0,0E0,0E0],"parents":[2147483647,0,0,1,1,2,2,3,3,4,4,5,5,6,6,7,7,8,8,9,9,10,10,11,11,12,12,13,13,14,14],"right_children":[2,4,6,8,10,12,14,16,18,20,22,24,26,28,30,-1,-1,-1,-1,-1,-1,-1,-1,-1,-1,-1,-1,-1,-1,-1,-1],"split_conditions":[6.718515E-1,6.955071E-1,1.2781056E0,1.0264605E0,9.036485E-1,2.7652863E-2,4.5288345E-1,4.7637564E-1,2.94704E-1,8.858271E-1,1.3341826E0,8.088303E-1,2.5513038E-1,5.497962E-1,3.0941492E-1,1.2683401E-2,3.7550595E-2,5.26163E-2,1.1289625E-2,-2.7645275E-2,1.7953074E-2,-4.10584E-2,-5.782873E-2,-3.1404834E-2,7.344296E-2,4.590802E-2,-4.103827E-2,-5.6546878E-2,-2.2835601E-2,-3.8549326E-2,4.1338198E-2],"split_indices":[17,26,24,15,6,30,28,16,3,7,12,15,0,4,4,0,0,0,0,0,0,0,0,0,0,0,0,0,0,0,0],"split_type":[0,0,0,0,0,0,0,0,0,0,0,0,0,0,0,0,0,0,0,0,0,0,0,0,0,0,0,0,0,0,0],"sum_hessian":[1.477692E3,1.286318E3,1.9137398E2,1.0681388E3,2.1817923E2,6.1494896E1,1.2987909E2,4.5324658E2,6.1489215E2,9.757296E1,1.2060627E2,1.1711541E1,4.978335E1,1.2107111E2,8.807973E0,2.4209915E2,2.1114743E2,5.393938E2,7.5498344E1,6.910255E1,2.8470407E1,3.0467201E1,9.013907E1,7.280414E0,4.431127E0,2.0893822E0,4.769397E1,1.1477343E2,6.297689E0,6.367232E0,2.4407408E0],"tree_param":{"num_deleted":"0","num_feature":"32","num_nodes":"31","size_leaf_vector":"1"}},{"base_weights":[-1.18708156E-1,-4.3838766E-1,3.5976368E-1,-2.8782272E-1,-5.452488E-1,4.2293203E-1,-2.92645E-1,-3.443101E-1,8.6338356E-2,-5.4734856E-1,8.539322E-3,1.3631816E-1,4.9366903E-1,-4.3827978E-1,5.131489E-1,-4.376821E-2,-1.7559238E-2,-1.1898212E-2,3.47712E-2,-5.690663E-2,-4.810016E-2,2.2304608E-2,-2.8600723E-2,2.293202E-2,5.251024E-2,-1.9684382E-2,-5.6049388E-2,7.556786E-2,-2.6134726E-6],"categories":[],"categories_nodes":[],"categories_segments":[],"categories_sizes":[],"default_left":[0,0,0,0,0,0,0,0,0,0,0,0,0,0,0,0,0,0,0,0,0,0,0,0,0,0,0,0,0],"id":35,"left_children":[1,3,5,7,9,11,13,15,17,19,-1,21,23,25,27,-1,-1,-1,-1,-1,-1,-1,-1,-1,-1,-1,-1,-1,-1],"loss_changes":[1.87033E2,1.1634384E1,2.0312862E1,6.5042725E0,6.128769E-1,8.99633E0,5.3691883E0,4.1191883E0,2.2406418E0,3.4043884E-1,0E0,3.355669E0,2.855812E0,1.0010715E0,8.92485E-1,0E0,0E0,0E0,0E0,0E0,0E0,0E0,0E0,0E0,0E0,0E0,0E0,0E0,0E0],"parents":[2147483647,0,0,1,1,2,2,3,3,4,4,5,5,6,6,7,7,8,8,9,9,11,11,12,12,13,13,14,14],"right_children":[2,4,6,8,10,12,14,16,18,20,-1,22,24,26,28,-1,-1,-1,-1,-1,-1,-1,-1,-1,-1,-1,-1,-1,-1],"split_conditions":[2.4391277E-1,3.0316654E-1,4.656262E-1,7.716273E-1,4.4381875E-1,5.745508E-1,8.819202E-1,1.089332E0,6.239331E-1,5.8258414E-1,8.539322E-3,9.915441E-1,1.31788E0,9.5445466E-1,8.4733015E-1,-4.376821E-2,-1.7559238E-2,-1.1898212E-2,3.47712E-2,-5.690663E-2,-4.810016E-2,2.2304608E-2,-2.8600723E-2,2.293202E-2,5.251024E-2,-1.9684382E-2,-5.6049388E-2,7.556786E-2,-2.6134726E-6],"split_indices":[26,10,14,23,8,26,8,27,27,30,0,15,27,7,16,0,0,0,0,0,0,0,0,0,0,0,0,0,0],"split_type":[0,0,0,0,0,0,0,0,0,0,0,0,0,0,0,0,0,0,0,0,0,0,0,0,0,0,0,0,0],"sum_hessian":[1.2207454E3,7.318567E2,4.8888873E2,3.05337E2,4.2651965E2,4.4605225E2,4.283651E1,2.6535583E2,3.9981186E1,4.2523587E2,1.2837682E0,8.8874695E1,3.5717755E2,3.666582E1,6.17069E0,1.6979405E2,9.556178E1,2.2696707E1,1.7284477E1,3.146594E2,1.1057648E2,7.41245E1,1.4750197E1,3.883954E1,3.18338E2,1.3199881E1,2.3465939E1,3.8694224E0,2.3012676E0],"tree_param":{"num_deleted":"0","num_feature":"32","num_nodes":"29","size_leaf_vector":"1"}},{"base_weights":[-7.109176E-2,-3.4682104E-1,4.5993498E-1,-2.2174862E-1,-4.6997675E-1,2.417267E-1,6.0021466E-1,-2.371047E-1,6.622559E-1,-4.7498217E-1,2.3987982E-2,1.8930691E-1,6.186594E-1,6.063077E-1,-1.4152721E-2,-2.7346868E-2,1.6995689E-2,8.519658E-2,1.5388292E-2,-4.8099913E-2,-5.6251604E-3,2.5658628E-2,-1.1589567E-2,7.009258E-2,-2.2392716E-2,6.1314136E-2,7.860625E-3],"categories":[],"categories_nodes":[],"categories_segments":[],"categories_sizes":[],"default_left":[0,0,0,0,0,0,0,0,0,0,0,0,0,0,0,0,0,0,0,0,0,0,0,0,0,0,0],"id":36,"left_children":[1,3,5,7,9,11,13,15,17,19,-1,21,23,25,-1,-1,-1,-1,-1,-1,-1,-1,-1,-1,-1,-1,-1],"loss_changes":[1.753873E2,1.2038277E1,1.2388245E1,5.4919434E0,1.5220413E0,3.0817385E0,1.2091293E0,5.7753887E0,5.414829E-1,9.652786E-1,0E0,2.9777956E0,1.4964995E0,8.414993E-1,0E0,0E0,0E0,0E0,0E0,0E0,0E0,0E0,0E0,0E0,0E0,0E0,0E0],"parents":[2147483647,0,0,1,1,2,2,3,3,4,4,5,5,6,6,7,7,8,8,9,9,11,11,12,12,13,13],"right_children":[2,4,6,8,10,12,14,16,18,20,-1,22,24,26,-1,-1,-1,-1,-1,-1,-1,-1,-1,-1,-1,-1,-1],"split_conditions":[2.8726014E-1,4.8676267E-1,8.2460004E-1,5.427023E-1,3.986871E-1,6.237329E-1,5.125541E-1,7.000541E-1,4.7416627E-1,1.2278498E0,2.3987982E-2,8.369535E-1,7.0598114E-1,3.593868E-1,-1.4152721E-2,-2.7346868E-2,1.6995689E-2,8.519658E-2,1.5388292E-2,-4.8099913E-2,-5.6251604E-3,2.5658628E-2,-1.1589567E-2,7.009258E-2,-2.2392716E-2,6.1314136E-2,7.860625E-3],"split_indices":[21,29,17,20,11,1,28,28,5,23,0,0,13,2,0,0,0,0,0,0,0,0,0,0,0,0,0],"split_type":[0,0,0,0,0,0,0,0,0,0,0,0,0,0,0,0,0,0,0,0,0,0,0,0,0,0,0],"sum_hessian":[1.1957506E3,7.873009E2,4.0844968E2,3.9200027E2,3.9530063E2,1.6089577E2,2.4755391E2,3.8602637E2,5.9738984E0,3.9286133E2,2.4393055E0,1.4257077E2,1.8324995E1,2.4571806E2,1.8358454E0,3.546708E2,3.1355576E1,3.8582463E0,2.1156523E0,3.8714948E2,5.7118473E0,1.1694952E2,2.5621254E1,1.6848143E1,1.4768529E0,2.4241687E2,3.3012009E0],"tree_param":{"num_deleted":"0","num_feature":"32","num_nodes":"27","size_leaf_vector":"1"}},{"base_weights":[1.5202846E-1,2.4399862E-1,-3.7976712E-1,3.7192354E-1,-3.2351205E-1,-1.7061913E-1,-4.9657124E-1,4.3310088E-1,1.8967922E-1,-1.1108865E-1,-5.2963394E-1,-2.1251939E-1,5.260094E-1,1.6909895E-2,-5.093755E-1,5.0666478E-2,2.3144709E-2,1.312312E-2,4.0993266E-2,-2.1924289E-2,1.7990572E-2,-3.9713293E-2,-5.7034936E-2,1.1742236E-2,-3.287412E-2,-8.6232135E-3,9.34458E-2,5.090443E-2,-3.845639E-2,-5.2300543E-2,3.5521209E-3],"categories":[],"categories_nodes":[],"categories_segments":[],"categories_sizes":[],"default_left":[0,0,0,0,0,0,0,0,0,0,0,0,0,0,0,0,0,0,0,0,0,0,0,0,0,0,0,0,0,0,0],"id":37,"left_children":[1,3,5,7,9,11,13,15,17,19,21,23,25,27,29,-1,-1,-1,-1,-1,-1,-1,-1,-1,-1,-1,-1,-1,-1,-1,-1],"loss_changes":[7.0319E1,8.9035645E1,5.0966797E0,1.1066223E1,9.829012E0,2.3747466E0,8.9995575E-1,1.0976517E1,3.2042313E0,3.5794065E0,3.9038086E-1,2.870168E0,1.2524782E0,1.038674E0,1.0011749E0,0E0,0E0,0E0,0E0,0E0,0E0,0E0,0E0,0E0,0E0,0E0,0E0,0E0,0E0,0E0,0E0],"parents":[2147483647,0,0,1,1,2,2,3,3,4,4,5,5,6,6,7,7,8,8,9,9,10,10,11,11,12,12,13,13,14,14],"right_children":[2,4,6,8,10,12,14,16,18,20,22,24,26,28,30,-1,-1,-1,-1,-1,-1,-1,-1,-1,-1,-1,-1,-1,-1,-1,-1],"split_conditions":[7.476965E-1,5.385541E-1,9.149581E-1,1.3412207E-1,9.036485E-1,2.4042833E0,3.559762E-1,1.0029559E-1,1.4867399E0,3.8718155E-1,1.3341826E0,2.7652863E-2,1.1678E0,1.3664441E0,4.5578527E-1,5.0666478E-2,2.3144709E-2,1.312312E-2,4.0993266E-2,-2.1924289E-2,1.7990572E-2,-3.9713293E-2,-5.7034936E-2,1.1742236E-2,-3.287412E-2,-8.6232135E-3,9.34458E-2,5.090443E-2,-3.845639E-2,-5.2300543E-2,3.5521209E-3],"split_indices":[3,22,17,8,6,14,23,3,13,31,12,30,15,21,28,0,0,0,0,0,0,0,0,0,0,0,0,0,0,0,0],"split_type":[0,0,0,0,0,0,0,0,0,0,0,0,0,0,0,0,0,0,0,0,0,0,0,0,0,0,0,0,0,0,0],"sum_hessian":[1.4348475E3,1.2237501E3,2.1109747E2,9.9892334E2,2.2482675E2,7.652805E1,1.3456943E2,7.4684076E2,2.5208257E2,1.114788E2,1.1334795E2,7.284176E1,3.6862957E0,3.2662103E0,1.313032E2,5.4610693E2,2.0073381E2,2.0047809E2,5.160447E1,8.1452E1,3.0026793E1,2.9170767E1,8.4177185E1,1.8971964E1,5.3869793E1,1.7908266E0,1.8954692E0,1.3470416E0,1.9191688E0,1.2813817E2,3.1650386E0],"tree_param":{"num_deleted":"0","num_feature":"32","num_nodes":"31","size_leaf_vector":"1"}},{"base_weights":[-1.1356149E-1,-4.2386535E-1,3.38556E-1,-2.7054778E-1,-5.358726E-1,3.9834565E-1,-2.8234375E-1,-3.2440737E-1,1.21457525E-1,-5.3808266E-1,8.689313E-3,1.3036312E-1,4.6640807E-1,-4.2521158E-1,4.8789617E-1,-2.05937E-2,-4.590904E-2,-2.718295E-2,2.6894653E-2,-5.6106474E-2,-4.685233E-2,1.980988E-2,-3.6276963E-2,2.1002091E-2,4.983605E-2,-1.8624317E-2,-5.494971E-2,7.226688E-2,-3.6086602E-4],"categories":[],"categories_nodes":[],"categories_segments":[],"categories_sizes":[],"default_left":[0,0,0,0,0,0,0,0,0,0,0,0,0,0,0,0,0,0,0,0,0,0,0,0,0,0,0,0,0],"id":38,"left_children":[1,3,5,7,9,11,13,15,17,19,-1,21,23,25,27,-1,-1,-1,-1,-1,-1,-1,-1,-1,-1,-1,-1,-1,-1],"loss_changes":[1.6471176E2,1.1808067E1,1.7856522E1,6.2859325E0,5.989456E-1,7.89904E0,4.8918657E0,4.060255E0,2.1883779E0,3.764267E-1,0E0,3.070671E0,2.7431717E0,9.800248E-1,8.249098E-1,0E0,0E0,0E0,0E0,0E0,0E0,0E0,0E0,0E0,0E0,0E0,0E0,0E0,0E0],"parents":[2147483647,0,0,1,1,2,2,3,3,4,4,5,5,6,6,7,7,8,8,9,9,11,11,12,12,13,13,14,14],"right_children":[2,4,6,8,10,12,14,16,18,20,-1,22,24,26,28,-1,-1,-1,-1,-1,-1,-1,-1,-1,-1,-1,-1,-1,-1],"split_conditions":[2.4391277E-1,3.0316654E-1,4.656262E-1,8.271527E-1,4.4381875E-1,5.745508E-1,8.819202E-1,1.4156067E0,6.7967457E-1,5.8258414E-1,8.689313E-3,9.3131095E-2,1.5373263E-1,9.5445466E-1,8.4733015E-1,-2.05937E-2,-4.590904E-2,-2.718295E-2,2.6894653E-2,-5.6106474E-2,-4.685233E-2,1.980988E-2,-3.6276963E-2,2.1002091E-2,4.983605E-2,-1.8624317E-2,-5.494971E-2,7.226688E-2,-3.6086602E-4],"split_indices":[26,10,14,23,8,26,8,30,18,30,0,16,29,7,16,0,0,0,0,0,0,0,0,0,0,0,0,0,0],"split_type":[0,0,0,0,0,0,0,0,0,0,0,0,0,0,0,0,0,0,0,0,0,0,0,0,0,0,0,0,0],"sum_hessian":[1.172026E3,6.9505096E2,4.7697504E2,2.9485852E2,4.001924E2,4.3540594E2,4.1569065E1,2.593918E2,3.5466717E1,3.9891272E2,1.2796876E0,8.877744E1,3.466285E2,3.5442894E1,6.126171E0,1.393475E2,1.2004431E2,9.443115E0,2.6023602E1,2.945341E2,1.0437865E2,7.858189E1,1.0195557E1,3.9250893E1,3.0737762E2,1.29814625E1,2.2461433E1,3.8275716E0,2.2985995E0],"tree_param":{"num_deleted":"0","num_feature":"32","num_nodes":"29","size_leaf_vector":"1"}},{"base_weights":[-6.771988E-2,-3.2850555E-1,4.4178003E-1,-2.0039657E-1,-4.6242395E-1,2.3249714E-1,5.7866144E-1,3.131068E-1,-2.2649638E-1,-4.6920183E-1,-6.478417E-2,2.9112676E-1,-1.343378E-1,5.849472E-1,-1.4404945E-2,4.9591236E-2,-4.6366047E-2,-2.9438445E-2,-4.0695682E-4,-3.0347803E-3,-4.7572754E-2,-5.1825564E-2,4.67412E-2,1.937134E-2,5.5642486E-2,-5.3435434E-2,2.1098847E-2,6.0251296E-2,3.3186395E-2],"categories":[],"categories_nodes":[],"categories_segments":[],"categories_sizes":[],"default_left":[0,0,0,0,0,0,0,0,0,0,0,0,0,0,0,0,0,0,0,0,0,0,0,0,0,0,0,0,0],"id":39,"left_children":[1,3,5,7,9,11,13,15,17,19,21,23,25,27,-1,-1,-1,-1,-1,-1,-1,-1,-1,-1,-1,-1,-1,-1,-1],"loss_changes":[1.5289919E2,1.2963165E1,1.1027687E1,5.3072243E0,9.703064E-1,3.388834E0,1.1513748E0,2.972951E0,5.6218395E0,1.0306244E0,2.0240262E0,3.3707857E0,3.171975E0,8.361969E-1,0E0,0E0,0E0,0E0,0E0,0E0,0E0,0E0,0E0,0E0,0E0,0E0,0E0,0E0,0E0],"parents":[2147483647,0,0,1,1,2,2,3,3,4,4,5,5,6,6,7,7,8,8,9,9,10,10,11,11,12,12,13,13],"right_children":[2,4,6,8,10,12,14,16,18,20,22,24,26,28,-1,-1,-1,-1,-1,-1,-1,-1,-1,-1,-1,-1,-1,-1,-1],"split_conditions":[4.875564E-1,4.8676267E-1,8.2460004E-1,2.3987398E-2,2.0922619E-1,9.27716E-1,5.125541E-1,1.2783993E0,9.324078E-2,6.999571E-1,6.355121E-1,2.7141172E-1,5.3431135E-1,3.4268236E-1,-1.4404945E-2,4.9591236E-2,-4.6366047E-2,-2.9438445E-2,-4.0695682E-4,-3.0347803E-3,-4.7572754E-2,-5.1825564E-2,4.67412E-2,1.937134E-2,5.5642486E-2,-5.3435434E-2,2.1098847E-2,6.0251296E-2,3.3186395E-2],"split_indices":[3,29,17,7,11,13,28,13,3,13,0,18,0,27,0,0,0,0,0,0,0,0,0,0,0,0,0,0,0],"split_type":[0,0,0,0,0,0,0,0,0,0,0,0,0,0,0,0,0,0,0,0,0,0,0,0,0,0,0,0,0],"sum_hessian":[1.1486481E3,7.6000006E2,3.8864804E2,3.8970087E2,3.7029916E2,1.5474756E2,2.3390048E2,1.8317375E1,3.7138348E2,3.6391617E2,6.3830223E0,1.3360106E2,2.114649E1,2.3207265E2,1.8278338E0,1.5120471E1,3.1969044E0,2.8429025E2,8.709325E1,5.414896E0,3.5850125E2,3.4605584E0,2.922464E0,9.8985344E1,3.461572E1,9.543811E0,1.160268E1,2.1571953E2,1.6353107E1],"tree_param":{"num_deleted":"0","num_feature":"32","num_nodes":"29","size_leaf_vector":"1"}},{"base_weights":[1.4375915E-1,2.2191317E-1,-4.162376E-1,3.3008155E-1,-3.32546E-1,-2.6018873E-1,-5.1407236E-1,2.0610258E-1,4.242852E-1,-1.3176507E-1,-5.349929E-1,-3.7928823E-1,3.858507E-2,-5.498041E-1,-1.3918458E-1,1.056397E-2,3.2334022E-2,4.7457736E-2,8.250623E-3,5.874981E-3,-3.0304406E-2,-5.641807E-2,-2.6776513E-2,2.983413E-2,-4.4221606E-2,5.7063587E-2,-2.3127317E-2,-5.5914413E-2,-9.432591E-3,6.416236E-2,-4.920866E-2],"categories":[],"categories_nodes":[],"categories_segments":[],"categories_sizes":[],"default_left":[0,0,0,0,0,0,0,0,0,0,0,0,0,0,0,0,0,0,0,0,0,0,0,0,0,0,0,0,0,0,0],"id":40,"left_children":[1,3,5,7,9,11,13,15,17,19,21,23,25,27,29,-1,-1,-1,-1,-1,-1,-1,-1,-1,-1,-1,-1,-1,-1,-1,-1],"loss_changes":[6.10889E1,7.349893E1,2.4774075E0,1.18769455E1,8.069204E0,2.4319482E0,1.317936E0,5.1982346E0,9.950333E0,3.3418102E0,6.24115E-1,2.2070255E0,3.0422277E0,3.5014153E-1,3.1807957E0,0E0,0E0,0E0,0E0,0E0,0E0,0E0,0E0,0E0,0E0,0E0,0E0,0E0,0E0,0E0,0E0],"parents":[2147483647,0,0,1,1,2,2,3,3,4,4,5,5,6,6,7,7,8,8,9,9,10,10,11,11,12,12,13,13,14,14],"right_children":[2,4,6,8,10,12,14,16,18,20,22,24,26,28,30,-1,-1,-1,-1,-1,-1,-1,-1,-1,-1,-1,-1,-1,-1,-1,-1],"split_conditions":[6.718515E-1,6.955071E-1,1.3814707E0,1.0264605E0,9.425933E-1,1.6977009E-1,4.9881837E-1,4.7637564E-1,7.5221044E-1,1.7829147E-1,9.984673E-1,2.5513038E-1,3.7497652E-1,5.125541E-1,6.717879E-1,1.056397E-2,3.2334022E-2,4.7457736E-2,8.250623E-3,5.874981E-3,-3.0304406E-2,-5.641807E-2,-2.6776513E-2,2.983413E-2,-4.4221606E-2,5.7063587E-2,-2.3127317E-2,-5.5914413E-2,-9.432591E-3,6.416236E-2,-4.920866E-2],"split_indices":[17,26,24,15,6,28,4,16,23,20,20,0,7,28,1,0,0,0,0,0,0,0,0,0,0,0,0,0,0,0,0],"split_type":[0,0,0,0,0,0,0,0,0,0,0,0,0,0,0,0,0,0,0,0,0,0,0,0,0,0,0,0,0,0,0],"sum_hessian":[1.3926968E3,1.2226637E3,1.7003314E2,1.0234127E3,1.9925095E2,6.693294E1,1.03100204E2,4.4325034E2,5.801624E2,1.0086592E2,9.838502E1,4.7663475E1,1.9269463E1,9.370255E1,9.3976555E0,2.3972612E2,2.0352422E2,5.0540448E2,7.4757935E1,4.806257E1,5.2803356E1,8.769531E1,1.0689704E1,3.732249E0,4.393123E1,6.1094785E0,1.3159985E1,9.1596664E1,2.105882E0,2.6706386E0,6.727017E0],"tree_param":{"num_deleted":"0","num_feature":"32","num_nodes":"31","size_leaf_vector":"1"}},{"base_weights":[-1.0877965E-1,-4.0957433E-1,3.1830356E-1,-2.533928E-1,-5.270519E-1,3.7474018E-1,-2.7082872E-1,-3.1134793E-1,1.1134218E-1,-5.2937704E-1,8.676419E-3,1.2262316E-1,4.408891E-1,-4.1200644E-1,4.716712E-1,-4.0906984E-2,-1.4221462E-2,-1.7946458E-3,5.004691E-2,-5.53778E-2,-4.5618366E-2,2.0236632E-2,-2.7278969E-2,1.8886281E-2,4.7265064E-2,-1.7536229E-2,-5.3879835E-2,6.982709E-2,-1.0567121E-4],"categories":[],"categories_nodes":[],"categories_segments":[],"categories_sizes":[],"default_left":[0,0,0,0,0,0,0,0,0,0,0,0,0,0,0,0,0,0,0,0,0,0,0,0,0,0,0,0,0],"id":41,"left_children":[1,3,5,7,9,11,13,15,17,19,-1,21,23,25,27,-1,-1,-1,-1,-1,-1,-1,-1,-1,-1,-1,-1,-1,-1],"loss_changes":[1.4480104E2,1.1998207E1,1.559351E1,6.075409E0,5.8317566E-1,7.044285E0,4.525056E0,4.0218315E0,2.0172932E0,4.1740417E-1,0E0,2.8882747E0,2.6065903E0,9.630985E-1,7.577163E-1,0E0,0E0,0E0,0E0,0E0,0E0,0E0,0E0,0E0,0E0,0E0,0E0,0E0,0E0],"parents":[2147483647,0,0,1,1,2,2,3,3,4,4,5,5,6,6,7,7,8,8,9,9,11,11,12,12,13,13,14,14],"right_children":[2,4,6,8,10,12,14,16,18,20,-1,22,24,26,28,-1,-1,-1,-1,-1,-1,-1,-1,-1,-1,-1,-1,-1,-1],"split_conditions":[2.4391277E-1,3.0316654E-1,4.656262E-1,7.716273E-1,4.4381875E-1,5.745508E-1,8.819202E-1,1.089332E0,7.510589E-1,5.8258414E-1,8.676419E-3,9.915441E-1,1.31788E0,9.5445466E-1,8.4733015E-1,-4.0906984E-2,-1.4221462E-2,-1.7946458E-3,5.004691E-2,-5.53778E-2,-4.5618366E-2,2.0236632E-2,-2.7278969E-2,1.8886281E-2,4.7265064E-2,-1.7536229E-2,-5.3879835E-2,6.982709E-2,-1.0567121E-4],"split_indices":[26,10,14,23,8,26,8,27,27,30,0,15,27,7,16,0,0,0,0,0,0,0,0,0,0,0,0,0,0],"split_type":[0,0,0,0,0,0,0,0,0,0,0,0,0,0,0,0,0,0,0,0,0,0,0,0,0,0,0,0,0],"sum_hessian":[1.125154E3,6.6020953E2,4.6494455E2,2.8477286E2,3.7543668E2,4.246305E2,4.0314068E1,2.4585387E2,3.8918983E1,3.7415695E2,1.2797292E0,8.884899E1,3.357815E2,3.424743E1,6.0666413E0,1.5492351E2,9.093036E1,2.9928894E1,8.990089E0,2.756844E2,9.8472565E1,7.434417E1,1.4504823E1,3.83581E1,2.9742337E2,1.2779279E1,2.146815E1,3.7783833E0,2.288258E0],"tree_param":{"num_deleted":"0","num_feature":"32","num_nodes":"29","size_leaf_vector":"1"}},{"base_weights":[-6.4142354E-2,-3.1973085E-1,4.0729123E-1,-1.9495025E-1,-4.4746757E-1,1.649376E-1,5.342164E-1,-2.3123997E-1,1.9429925E-1,-4.5614302E-1,7.485811E-2,2.3100166E-1,-9.070004E-2,1.18167745E-2,5.5188787E-1,3.3047788E-2,-2.6250064E-2,-3.4077648E-2,6.925929E-2,-4.6292186E-2,-1.8269497E-3,4.8237406E-2,-4.8242416E-2,1.8278155E-2,8.874697E-2,-2.97243E-2,4.5578152E-2,-6.81329E-2,3.474159E-2,4.13263E-2,5.9480574E-2],"categories":[],"categories_nodes":[],"categories_segments":[],"categories_sizes":[],"default_left":[0,0,0,0,0,0,0,0,0,0,0,0,0,0,0,0,0,0,0,0,0,0,0,0,0,0,0,0,0,0,0],"id":42,"left_children":[1,3,5,7,9,11,13,15,17,19,21,23,25,27,29,-1,-1,-1,-1,-1,-1,-1,-1,-1,-1,-1,-1,-1,-1,-1,-1],"loss_changes":[1.3322807E2,1.1338509E1,1.1870796E1,5.1921797E0,1.6357727E0,2.3021042E0,2.3447647E0,5.947628E0,8.666202E0,1.0239639E0,1.7392292E0,3.2443528E0,3.3473754E0,2.4130518E0,1.2198029E0,0E0,0E0,0E0,0E0,0E0,0E0,0E0,0E0,0E0,0E0,0E0,0E0,0E0,0E0,0E0,0E0],"parents":[2147483647,0,0,1,1,2,2,3,3,4,4,5,5,6,6,7,7,8,8,9,9,10,10,11,11,12,12,13,13,14,14],"right_children":[2,4,6,8,10,12,14,16,18,20,22,24,26,28,30,-1,-1,-1,-1,-1,-1,-1,-1,-1,-1,-1,-1,-1,-1,-1,-1],"split_conditions":[2.5020233E-1,4.8676267E-1,9.178541E-1,7.000541E-1,3.0302888E-1,8.369535E-1,2.880761E-1,2.3987398E-2,2.4882339E-1,1.2278498E0,4.3933812E-1,8.229424E-1,6.1335224E-1,2.5513038E-1,7.716273E-1,3.3047788E-2,-2.6250064E-2,-3.4077648E-2,6.925929E-2,-4.6292186E-2,-1.8269497E-3,4.8237406E-2,-4.8242416E-2,1.8278155E-2,8.874697E-2,-2.97243E-2,4.5578152E-2,-6.81329E-2,3.474159E-2,4.13263E-2,5.9480574E-2],"split_indices":[21,29,3,28,11,0,10,7,11,23,5,0,1,0,23,0,0,0,0,0,0,0,0,0,0,0,0,0,0,0,0],"split_type":[0,0,0,0,0,0,0,0,0,0,0,0,0,0,0,0,0,0,0,0,0,0,0,0,0,0,0,0,0,0,0],"sum_hessian":[1.1036105E3,7.15839E2,3.877715E2,3.633874E2,3.524516E2,1.3407167E2,2.5369984E2,3.3276923E2,3.0618141E1,3.4681793E2,5.6336913E0,1.0661554E2,2.7456125E1,8.355841E0,2.4534401E2,1.7038343E1,3.157309E2,1.4916586E1,1.5701556E1,3.4147427E2,5.343649E0,3.331748E0,2.3019433E0,1.0051105E2,6.1044927E0,2.0256319E1,7.1998067E0,2.3897886E0,5.966052E0,6.0513638E1,1.8483037E2],"tree_param":{"num_deleted":"0","num_feature":"32","num_nodes":"31","size_leaf_vector":"1"}},{"base_weights":[1.3581711E-1,2.08235E-1,-4.0126243E-1,3.0008668E-1,-3.689179E-1,-2.4290884E-1,-5.043468E-1,1.791006E-1,3.9953175E-1,-1.6043058E-1,-5.2673954E-1,1.0021101E-1,-3.4565163E-1,-5.425373E-1,-1.1677525E-1,8.419978E-3,3.129301E-2,4.4890266E-2,7.266482E-3,-2.2996021E-2,2.4117326E-2,-5.5750836E-2,-2.6063671E-2,-3.1322394E-2,5.2643377E-2,4.0717583E-2,-3.8930364E-2,-5.5247035E-2,-9.312443E-3,9.135539E-2,-3.80983E-2],"categories":[],"categories_nodes":[],"categories_segments":[],"categories_sizes":[],"default_left":[0,0,0,0,0,0,0,0,0,0,0,0,0,0,0,0,0,0,0,0,0,0,0,0,0,0,0,0,0,0,0],"id":43,"left_children":[1,3,5,7,9,11,13,15,17,19,21,23,25,27,29,-1,-1,-1,-1,-1,-1,-1,-1,-1,-1,-1,-1,-1,-1,-1,-1],"loss_changes":[5.2718277E1,6.336242E1,2.5077858E0,1.2319466E1,5.3203754E0,2.3424237E0,1.3674984E0,5.897606E0,9.076332E0,2.071793E0,6.165848E-1,2.9597306E0,1.8214536E0,3.4015656E-1,3.055401E0,0E0,0E0,0E0,0E0,0E0,0E0,0E0,0E0,0E0,0E0,0E0,0E0,0E0,0E0,0E0,0E0],"parents":[2147483647,0,0,1,1,2,2,3,3,4,4,5,5,6,6,7,7,8,8,9,9,10,10,11,11,12,12,13,13,14,14],"right_children":[2,4,6,8,10,12,14,16,18,20,22,24,26,28,30,-1,-1,-1,-1,-1,-1,-1,-1,-1,-1,-1,-1,-1,-1,-1,-1],"split_conditions":[6.718515E-1,6.7033184E-1,1.3814707E0,1.0264605E0,9.425933E-1,2.7652863E-2,4.9881837E-1,5.6018466E-1,2.94704E-1,5.331305E-1,9.984673E-1,5.7751316E-1,2.5513038E-1,5.125541E-1,1.0264605E0,8.419978E-3,3.129301E-2,4.4890266E-2,7.266482E-3,-2.2996021E-2,2.4117326E-2,-5.5750836E-2,-2.6063671E-2,-3.1322394E-2,5.2643377E-2,4.0717583E-2,-3.8930364E-2,-5.5247035E-2,-9.312443E-3,9.135539E-2,-3.80983E-2],"split_indices":[17,22,24,15,6,30,4,16,3,15,20,0,0,28,15,0,0,0,0,0,0,0,0,0,0,0,0,0,0,0,0],"split_type":[0,0,0,0,0,0,0,0,0,0,0,0,0,0,0,0,0,0,0,0,0,0,0,0,0,0,0,0,0,0,0],"sum_hessian":[1.3522806E3,1.192148E3,1.6013269E2,1.0288849E3,1.6326303E2,6.446336E1,9.566933E1,4.6543372E2,5.6345123E2,7.1209526E1,9.20535E1,1.4860357E1,4.960301E1,8.672391E1,8.945423E0,2.732772E2,1.9215652E2,4.8918933E2,7.426186E1,6.106478E1,1.0144744E1,8.1531166E1,1.052233E1,7.677916E0,7.182441E0,2.262139E0,4.7340866E1,8.46242E1,2.0997055E0,1.3241059E0,7.6213174E0],"tree_param":{"num_deleted":"0","num_feature":"32","num_nodes":"31","size_leaf_vector":"1"}},{"base_weights":[-1.0443437E-1,-3.9680836E-1,2.985677E-1,-2.3963776E-1,-5.1851195E-1,5.4124553E-2,4.2393136E-1,-2.9721266E-1,1.0588323E-1,-5.2096534E-1,8.789403E-3,-3.950099E-1,1.5516661E-1,1.6056052E-1,4.6108976E-1,-3.935441E-2,-1.3417247E-2,3.7722994E-2,-6.297167E-3,-5.469056E-2,-4.440044E-2,-5.4449003E-2,5.1791035E-3,2.7208392E-2,-9.716095E-3,-1.6969321E-2,3.807367E-2,2.9809598E-2,5.197006E-2],"categories":[],"categories_nodes":[],"categories_segments":[],"categories_sizes":[],"default_left":[0,0,0,0,0,0,0,0,0,0,0,0,0,0,0,0,0,0,0,0,0,0,0,0,0,0,0,0,0],"id":44,"left_children":[1,3,5,7,9,11,13,15,17,19,-1,21,23,25,27,-1,-1,-1,-1,-1,-1,-1,-1,-1,-1,-1,-1,-1,-1],"loss_changes":[1.2754939E2,1.1873169E1,1.3929226E1,5.513689E0,5.7042694E-1,7.117663E0,2.8697739E0,3.661354E0,1.8610197E0,4.586029E-1,0E0,1.9542546E0,3.7923484E0,2.8805804E0,2.3583145E0,0E0,0E0,0E0,0E0,0E0,0E0,0E0,0E0,0E0,0E0,0E0,0E0,0E0,0E0],"parents":[2147483647,0,0,1,1,2,2,3,3,4,4,5,5,6,6,7,7,8,8,9,9,11,11,12,12,13,13,14,14],"right_children":[2,4,6,8,10,12,14,16,18,20,-1,22,24,26,28,-1,-1,-1,-1,-1,-1,-1,-1,-1,-1,-1,-1,-1,-1],"split_conditions":[2.3904033E-1,3.0316654E-1,5.7196623E-1,7.716273E-1,4.4381875E-1,2.5742829E-2,1.5373263E-1,1.089332E0,1.0267894E0,5.8258414E-1,8.789403E-3,7.4085546E-1,5.021924E-1,5.140158E-1,9.126227E-1,-3.935441E-2,-1.3417247E-2,3.7722994E-2,-6.297167E-3,-5.469056E-2,-4.440044E-2,-5.4449003E-2,5.1791035E-3,2.7208392E-2,-9.716095E-3,-1.6969321E-2,3.807367E-2,2.9809598E-2,5.197006E-2],"split_indices":[26,10,6,23,8,29,29,27,5,30,0,0,19,0,26,0,0,0,0,0,0,0,0,0,0,0,0,0,0],"split_type":[0,0,0,0,0,0,0,0,0,0,0,0,0,0,0,0,0,0,0,0,0,0,0,0,0,0,0,0,0],"sum_hessian":[1.0805057E3,6.262111E2,4.5429456E2,2.7458075E2,3.516304E2,1.5449014E2,2.998044E2,2.3548175E2,3.9099E1,3.5035382E2,1.276556E0,2.78384E1,1.2665175E2,3.7726692E1,2.6207773E2,1.4713437E2,8.834737E1,1.4524443E1,2.4574558E1,2.5746646E2,9.288737E1,2.0695835E1,7.142565E0,8.649537E1,4.015638E1,1.518268E1,2.2544012E1,7.092498E1,1.9115274E2],"tree_param":{"num_deleted":"0","num_feature":"32","num_nodes":"29","size_leaf_vector":"1"}},{"base_weights":[-6.0992777E-2,-2.9788443E-1,4.00576E-1,-1.6942446E-1,-4.3939933E-1,2.2308281E-1,5.5802226E-1,2.5320265E-1,-1.9965072E-1,-4.4631502E-1,-2.0817646E-3,-4.1802597E-1,2.5072894E-1,6.2806316E-2,5.674157E-1,-6.375776E-3,6.1033934E-2,-2.442432E-2,1.4694624E-2,2.3495741E-2,-4.5128178E-2,-4.6681695E-2,1.20099045E-1,-6.605781E-2,3.658214E-2,2.7608348E-2,-3.323735E-2,-5.5489477E-2,5.1647134E-2,5.7211112E-2,-1.0234172E-2],"categories":[],"categories_nodes":[],"categories_segments":[],"categories_sizes":[],"default_left":[0,0,0,0,0,0,0,0,0,0,0,0,0,0,0,0,0,0,0,0,0,0,0,0,0,0,0,0,0,0,0],"id":45,"left_children":[1,3,5,7,9,11,13,15,17,19,21,23,25,27,29,-1,-1,-1,-1,-1,-1,-1,-1,-1,-1,-1,-1,-1,-1,-1,-1],"loss_changes":[1.161983E2,1.2689568E1,9.949558E0,4.7728558E0,1.007576E0,3.1377964E0,8.499031E-1,2.881868E0,5.376628E0,1.2167816E0,4.024839E0,1.6578913E0,2.526331E0,1.594748E0,6.45668E-1,0E0,0E0,0E0,0E0,0E0,0E0,0E0,0E0,0E0,0E0,0E0,0E0,0E0,0E0,0E0,0E0],"parents":[2147483647,0,0,1,1,2,2,3,3,4,4,5,5,6,6,7,7,8,8,9,9,10,10,11,11,12,12,13,13,14,14],"right_children":[2,4,6,8,10,12,14,16,18,20,22,24,26,28,30,-1,-1,-1,-1,-1,-1,-1,-1,-1,-1,-1,-1,-1,-1,-1,-1],"split_conditions":[4.875564E-1,4.8676267E-1,9.149581E-1,8.186781E-2,1.2278498E0,2.443688E-1,2.589221E-1,6.1291236E-1,6.7622167E-1,2.4874224E-1,1.8418273E-1,1.8647189E0,2.4042833E0,2.5513038E-1,1.80776E-2,-6.375776E-3,6.1033934E-2,-2.442432E-2,1.4694624E-2,2.3495741E-2,-4.5128178E-2,-4.6681695E-2,1.20099045E-1,-6.605781E-2,3.658214E-2,2.7608348E-2,-3.323735E-2,-5.5489477E-2,5.1647134E-2,5.7211112E-2,-1.0234172E-2],"split_indices":[3,29,17,7,23,24,10,9,28,27,16,14,14,0,26,0,0,0,0,0,0,0,0,0,0,0,0,0,0,0,0],"split_type":[0,0,0,0,0,0,0,0,0,0,0,0,0,0,0,0,0,0,0,0,0,0,0,0,0,0,0,0,0,0,0],"sum_hessian":[1.060616E3,7.011291E2,3.5948694E2,3.686682E2,3.3246085E2,1.7012152E2,1.893654E2,2.4114836E1,3.4455338E2,3.2726495E2,5.1959124E0,6.449028E0,1.636725E2,3.6681793E0,1.8569722E2,1.3211259E1,1.0903577E1,3.055387E2,3.9014683E1,2.033465E0,3.2523148E2,4.1895204E0,1.0063919E0,5.045134E0,1.403894E0,1.5735681E2,6.3156905E0,1.4587868E0,2.2093923E0,1.8454922E2,1.1479971E0],"tree_param":{"num_deleted":"0","num_feature":"32","num_nodes":"31","size_leaf_vector":"1"}},